{"layers":[{"out_depth":54,"out_sx":1,"out_sy":1,"layer_type":"input"},{"out_depth":100,"out_sx":1,"out_sy":1,"layer_type":"fc","num_inputs":54,"l1_decay_mul":0,"l2_decay_mul":1,"filters":[{"sx":1,"sy":1,"depth":54,"w":{"0":0.3132281950076412,"1":0.13912317957638345,"2":0.16660509459973846,"3":0.004911594345534857,"4":-0.061683059899481515,"5":-0.22127983542414362,"6":-0.06916993949020864,"7":0.07231974833330548,"8":-0.015365676191017428,"9":0.020744514027652504,"10":0.12178280872483355,"11":0.15789600808246584,"12":0.05961478805324624,"13":0.1697237650584143,"14":0.09074404316830882,"15":0.0326681187892154,"16":0.06421165446488918,"17":-0.2266609454623474,"18":0.03068805411545251,"19":0.1248360098636183,"20":-0.12640192253688742,"21":-0.0629498508432399,"22":-0.15004184498470063,"23":-0.07744079377524418,"24":-0.13173811210411587,"25":0.04933214244388071,"26":-0.04948740673481099,"27":-0.024378395921950072,"28":-0.19415581068055263,"29":-0.04034018983684256,"30":-0.06408274986697426,"31":-0.004256159202164181,"32":0.058999007592831665,"33":0.13679884480762936,"34":-0.08349434125028651,"35":-0.04145916557554776,"36":-0.0010475782736052068,"37":-0.18793883715813547,"38":0.04652736133335432,"39":0.043850302991402704,"40":0.0017784179414075708,"41":0.04888824489448878,"42":-0.06664954653466085,"43":0.030058657657528742,"44":0.13457096994896306,"45":0.21453264112417333,"46":0.04114443311304254,"47":0.09534173954357658,"48":-0.039683177279221486,"49":0.011627761344575166,"50":-0.025915917368204023,"51":0.08148446374736346,"52":0.10862025447611923,"53":0.05912067257564151}},{"sx":1,"sy":1,"depth":54,"w":{"0":0.035849885239390825,"1":0.16943123041716054,"2":-0.09881381261836711,"3":-0.1436265791131472,"4":-0.049046360270735924,"5":0.07090714000400986,"6":-0.21048260268852131,"7":0.19151140584066492,"8":0.07913406086261986,"9":0.20919828977269644,"10":0.0208243687595458,"11":0.011879651886340166,"12":0.002214881664231129,"13":0.01740499157983994,"14":0.10963520661142385,"15":-0.06326396218141289,"16":0.08952727135818452,"17":-0.09441880324565913,"18":-0.25548870658698647,"19":-0.09463899516791138,"20":0.15768950837092965,"21":0.08234017119930422,"22":-0.13775822569809454,"23":0.11614124684324975,"24":0.22426603871004752,"25":-0.02417521197493927,"26":-0.05512119853242204,"27":-0.17166101275387463,"28":-0.3139420866543701,"29":-0.10055057213398179,"30":0.3382630140245885,"31":-0.1652109013850993,"32":-0.00586348469702858,"33":-0.01257477547070535,"34":0.15471188407329,"35":0.06417292606313668,"36":0.08867302571186457,"37":0.1510767945523301,"38":0.002370518529354682,"39":0.06549268573509395,"40":0.14785978885788947,"41":-0.02948450172403212,"42":-0.34110313114260016,"43":-0.12929992647865154,"44":0.05782757380025931,"45":-0.17517281876028035,"46":-0.05941824202794932,"47":0.002301514675972166,"48":0.09864254537086592,"49":-0.23982272753305506,"50":-0.03966061829828445,"51":0.0692398683208531,"52":0.1826935831522602,"53":0.11914478610646557}},{"sx":1,"sy":1,"depth":54,"w":{"0":0.24751796424981273,"1":-0.17984043927584262,"2":0.1461141171428775,"3":-0.12414082338123536,"4":-0.12014131423781686,"5":-0.0067634419932451,"6":-0.14358990149490508,"7":0.12157263696455282,"8":0.08016955279623762,"9":0.36200964594623825,"10":0.013705707415924794,"11":0.12713739232330257,"12":0.027568721514985135,"13":-0.042341031878499205,"14":0.0005437993951866499,"15":-0.03831511341737069,"16":-0.12024907270861407,"17":0.056555494029917705,"18":-0.06270893406771628,"19":-0.07273127921095694,"20":0.19371252876991973,"21":0.07511079109983135,"22":0.055451183992166614,"23":0.07728306699576751,"24":0.08720098399415578,"25":-0.0717568398982289,"26":-0.17278801154774767,"27":-0.0347098990907378,"28":0.059415137902098715,"29":0.04187208069657415,"30":0.03910195991244695,"31":-0.11379949713092945,"32":-0.041190090444802166,"33":0.1565707610712799,"34":-0.19033020526391173,"35":0.168451139510084,"36":-0.06943702854438005,"37":-0.2110849185254068,"38":-0.09242012119959044,"39":0.10658793783541565,"40":-0.021523219694419296,"41":-0.05528944594103005,"42":-0.0825721955399731,"43":0.09365730706770954,"44":-0.067094779222107,"45":0.13444061830595508,"46":0.16807334343870917,"47":-0.20508009123802753,"48":-0.3314216002344827,"49":0.007406836721923133,"50":-0.06247301615259033,"51":-0.053855327560544654,"52":0.09789977533488788,"53":0.21353268915623894}},{"sx":1,"sy":1,"depth":54,"w":{"0":-0.07330830973458347,"1":0.047453877875150305,"2":0.04169113999777823,"3":0.04876655608434661,"4":-0.1226143970616319,"5":-0.18636934844970332,"6":-0.2975188666707371,"7":0.17515323001698094,"8":-0.11039437621493978,"9":-0.2127160288333904,"10":0.14437642761352965,"11":0.03608532278924865,"12":0.03643849509049913,"13":-0.09864794227292709,"14":-0.11651224415166411,"15":-0.06699497461139636,"16":-0.0010553741000526502,"17":-0.08670995388866515,"18":0.1251355004152212,"19":0.18981076671305697,"20":-0.08442120776051126,"21":-0.10582593356408973,"22":0.01282868453783143,"23":0.07028603520909447,"24":0.024217893826561643,"25":0.07338816443756314,"26":-0.02515769363858706,"27":0.20381832056982718,"28":-0.008056910822641188,"29":0.20593028980108477,"30":-0.15727838862820018,"31":-0.0850807726679615,"32":-0.301107193130297,"33":0.164532642573423,"34":-0.04042646189428063,"35":-0.046081527280214106,"36":0.046737253272419524,"37":-0.029752993320805544,"38":0.03440966599286063,"39":0.026368174220580486,"40":0.19015440345636667,"41":0.12859843957892164,"42":-0.08367005566836024,"43":-0.05224012559562569,"44":-0.08698643661438601,"45":0.02804488944255603,"46":0.07897822994172758,"47":-0.21249815745452663,"48":0.023173369893082753,"49":-0.11692429063329766,"50":-0.14313450506202147,"51":-0.05651767072397079,"52":-0.12132907774395392,"53":0.21573833127794506}},{"sx":1,"sy":1,"depth":54,"w":{"0":-0.08655402032706214,"1":0.036634752778948586,"2":0.07010886427818414,"3":0.23633655217177998,"4":0.1576967332965194,"5":-0.19361579822600217,"6":0.14763754470551643,"7":-0.06787296642794455,"8":0.12352893846663845,"9":0.1705535091520099,"10":-0.0015581513919667599,"11":0.003367428485666302,"12":-0.0320782792883015,"13":-0.20759439384471878,"14":-0.04427225495089651,"15":0.07694244417460588,"16":-0.05429939438758863,"17":0.06761484861054634,"18":-0.03919135175787836,"19":-0.03690529979036965,"20":0.008168990895749927,"21":0.003109064215878333,"22":0.026941698181819004,"23":0.03762788852945754,"24":0.21570848844434157,"25":0.01758019634326233,"26":0.23743873672878768,"27":0.12698097698667252,"28":-0.17438422503562645,"29":0.19793504381592192,"30":0.007529272308142844,"31":-0.1936703043802903,"32":0.19253023251512572,"33":0.037707418699924826,"34":0.31995188316599515,"35":0.08041426811363914,"36":0.09799012495734828,"37":0.023602856613414207,"38":-0.2511482402281227,"39":-0.016103969954058023,"40":-0.027909030332591043,"41":0.17381762124846706,"42":0.1709060213002677,"43":0.017409574952864167,"44":0.11950841500741466,"45":-0.08696618789107222,"46":0.08175505115702225,"47":-0.14483684339637592,"48":0.09138986237914687,"49":0.005228676602106952,"50":0.07173263514074799,"51":0.03735384096833786,"52":-0.12794392657466694,"53":-0.12105477326333637}},{"sx":1,"sy":1,"depth":54,"w":{"0":0.05211365315843892,"1":0.14217246369318332,"2":0.21959955182082666,"3":0.057557294456393286,"4":-0.09510396300808664,"5":-0.022583392348386376,"6":0.13054686454890055,"7":0.16161764385043226,"8":0.2976835625560232,"9":-0.015913202173564053,"10":-0.023604660970340755,"11":-0.05377327380432642,"12":-0.11149484433209274,"13":0.14085331836783088,"14":-0.03906835562301783,"15":-0.0822271277604149,"16":-0.08135220447689988,"17":0.1498009846751369,"18":0.12762502334813983,"19":-0.02758635484239582,"20":-0.028822303734507674,"21":-0.1741585351314154,"22":-0.19468900067275463,"23":-0.026361859586145488,"24":0.38575574793527767,"25":-0.028519475059073124,"26":0.09618339320866362,"27":-0.0019607683453398412,"28":0.002011143514903155,"29":0.0441770658242014,"30":-0.008285695632479627,"31":-0.01616497930799631,"32":-0.07853323678766633,"33":0.022502555780637184,"34":0.10984476979089305,"35":0.16585500381951362,"36":-0.11836346597005543,"37":0.07973000292695195,"38":-0.14297109792868626,"39":0.02492530572467052,"40":-0.060770042866370604,"41":-0.15817102249303452,"42":-0.06376342505387184,"43":0.23759435175540725,"44":-0.25033657865486847,"45":-0.1190980294022209,"46":-0.004059922953996022,"47":-0.13031310110828617,"48":-0.0805157987362963,"49":0.09873276056396289,"50":-0.11498971120458532,"51":-0.0014537413046862104,"52":0.09804713841205832,"53":0.052066531062392486}},{"sx":1,"sy":1,"depth":54,"w":{"0":0.004465947320765539,"1":0.02878029650844059,"2":-0.2528330198185599,"3":-0.062487491451407785,"4":0.055408196944238416,"5":0.20956055955284555,"6":-0.0027831398194122217,"7":-0.10096150500837539,"8":0.008177465031304329,"9":0.02736150974205143,"10":0.004859434241736722,"11":-0.13732321155461552,"12":0.1514520853603941,"13":-0.015622245063096172,"14":-0.09854007890267066,"15":0.08241865463806519,"16":0.0971910827257483,"17":-0.04189362272720838,"18":0.0375800346455995,"19":-0.022552742338176984,"20":-0.1495158649603247,"21":0.18537564492897624,"22":-0.050439831667868036,"23":0.3766524332010219,"24":-0.029990214590840242,"25":0.020310362583132704,"26":-0.020887043297377186,"27":-0.04551651139611615,"28":-0.08717637699035265,"29":-0.14316387881936576,"30":-0.12718089884043604,"31":-0.03116126648985483,"32":0.11070083230463529,"33":-0.11378865649551805,"34":0.030281983959908332,"35":-0.04050506582067514,"36":-0.0035687324275251986,"37":0.1667596925174753,"38":-0.039924616382438216,"39":0.044403178710175406,"40":-0.020710844014088535,"41":0.05413683302532185,"42":-0.023295231804396965,"43":0.04933108068096634,"44":-0.21088750595530653,"45":0.2321037804788744,"46":-0.08546768521702387,"47":-0.1467131241662054,"48":0.03413505004935261,"49":0.2508185323762271,"50":-0.09439105546596947,"51":-0.1511186817722469,"52":-0.04898638092772656,"53":0.1721509040586113}},{"sx":1,"sy":1,"depth":54,"w":{"0":-0.20043043836213148,"1":-0.0846714885289877,"2":-0.11161409171226114,"3":-0.05255431713912929,"4":0.06626556744730364,"5":0.05020453779407149,"6":0.16213312276739633,"7":-0.09299632270400955,"8":-0.3063694364244869,"9":-0.07171046705952488,"10":0.2264656661839538,"11":-0.255824186333692,"12":-0.16101472868163225,"13":-0.11326421125033206,"14":0.26483237553963973,"15":-0.016601568745876462,"16":0.06786453528572087,"17":-0.14595546359638947,"18":-0.04240734736185361,"19":-0.08789966870531978,"20":-0.055942938816545294,"21":-0.06032010121605315,"22":0.08427629165035055,"23":0.1219923025700322,"24":0.07905568327155309,"25":0.06479485199074625,"26":0.04511870614508076,"27":-0.09199309613405499,"28":0.03767349404137633,"29":-0.02049087823168738,"30":0.040136826691060085,"31":-0.21690724135011108,"32":-0.07968746393178411,"33":-0.1578064758691698,"34":-0.0030764453367321263,"35":-0.16582757055641234,"36":0.06484544813215617,"37":-0.05408544612863298,"38":0.06877309774153485,"39":0.015293708904582336,"40":-0.02730334539800218,"41":-0.2231243964278101,"42":-0.08864856738889251,"43":0.10807064211711231,"44":0.0381221811956815,"45":-0.010224249505058864,"46":0.06223276441790959,"47":0.055192169251694574,"48":-0.14948720312615782,"49":-0.12152589413905221,"50":0.13141662134370788,"51":0.04026980960934654,"52":0.02152360524088357,"53":0.17766432846594032}},{"sx":1,"sy":1,"depth":54,"w":{"0":-0.118408194226065,"1":0.01834844282934837,"2":0.005636294142851547,"3":0.05993543375207818,"4":-0.08294364615050562,"5":0.1406355674679361,"6":-0.06349078859802344,"7":0.24876803104579379,"8":0.04684080698259119,"9":-0.06638132987880771,"10":0.04653253546270243,"11":-0.1611265321695928,"12":0.015593303340200529,"13":0.16556700139892236,"14":0.13395017999787842,"15":0.05408252129911327,"16":-0.1375227185276188,"17":-0.023332836644792635,"18":0.08226777649566591,"19":0.008142943228823151,"20":-0.17125916638358568,"21":-0.014486040355526258,"22":0.10345389091145452,"23":-0.04626320025553382,"24":-0.16842779582913706,"25":-0.22780159519815,"26":-0.06790701822500615,"27":0.28443557771486405,"28":-0.014123942287705228,"29":-0.0773495072019446,"30":0.0816822705426202,"31":0.00408306084541186,"32":0.21239598293842532,"33":0.032902885558124914,"34":-0.2155548033308428,"35":0.2467892099080368,"36":0.011226568374246156,"37":0.025526017275972656,"38":0.06432706014852982,"39":-0.018851607835469446,"40":0.12374366310096993,"41":0.2681667893491586,"42":-0.048517499934577206,"43":0.10615488068930959,"44":-0.08499873709182172,"45":-0.09479751191649215,"46":-0.09364220043235881,"47":-0.04042866408293969,"48":-0.06307822480926585,"49":-0.1234741754160069,"50":-0.08124613069449958,"51":0.2110015406478139,"52":-0.2005438899832613,"53":0.09972947967204904}},{"sx":1,"sy":1,"depth":54,"w":{"0":-0.09056062074937087,"1":-0.11924054929928678,"2":0.09607381530667183,"3":0.05359757644468544,"4":0.04011099232068548,"5":0.08921326462432749,"6":-0.04480189818608172,"7":0.06326294623466146,"8":0.02323720943962146,"9":-0.08459660240572445,"10":-0.023333715785176273,"11":0.12825930090203108,"12":-0.07056339396358997,"13":-0.1690460693326598,"14":0.02537295804567076,"15":0.07303254836833815,"16":0.03293166458461338,"17":0.007574885916714411,"18":-0.12625198570282073,"19":-0.15868906753251807,"20":0.13020392928504018,"21":-0.022634128741121456,"22":0.361886281858154,"23":0.06653192189786443,"24":-0.11515549302171862,"25":-0.1995317372094306,"26":0.09813419849500477,"27":0.059566108644946436,"28":-0.12594984735571382,"29":0.1617101614302618,"30":-0.2128976151458108,"31":0.0832652181771477,"32":-0.098802902554507,"33":-0.10560870399341296,"34":0.12077157946948196,"35":-0.23318604491104827,"36":0.1855837907355503,"37":-0.19441978136041393,"38":0.04624197973772275,"39":-0.09876978956413562,"40":0.015695690400948377,"41":-0.017254489136921507,"42":0.09958831304414865,"43":0.06506675707098648,"44":-0.04809089480195837,"45":-0.014857004635201202,"46":-0.04145785369214755,"47":-0.050473534488045646,"48":0.10124121265711933,"49":0.018248233019726282,"50":-0.1371176654691732,"51":0.11361124334493534,"52":0.18112154640269168,"53":0.18448324764529908}},{"sx":1,"sy":1,"depth":54,"w":{"0":0.15639929075848918,"1":0.14687284697650094,"2":-0.10667903374452754,"3":-0.01728477232938844,"4":0.14224254568526098,"5":0.12850024566183557,"6":-0.004163828694911264,"7":-0.06278788739452552,"8":0.0672622081207988,"9":-0.28473133681610674,"10":0.00010032887700304273,"11":-0.20485204077222857,"12":-0.08750730082799642,"13":0.05165129060241153,"14":0.0007374143062509898,"15":-0.12907745142104046,"16":-0.1733736488711853,"17":-0.061885248684010075,"18":-0.19843116663924001,"19":0.10055477772557964,"20":-0.18858032297535812,"21":-0.020296919259425377,"22":0.11726465883487758,"23":0.06194521805016099,"24":-0.27452147293615603,"25":0.05397279542001114,"26":-0.0016749906827238626,"27":-0.006593877807338073,"28":-0.11543059068500332,"29":0.14823883135214821,"30":-0.13255456349465478,"31":0.2744170084666324,"32":-0.19280542064547213,"33":0.05961007971778384,"34":-0.010705581064806713,"35":0.13811545845884493,"36":0.11631093151132611,"37":-0.18076958251315797,"38":-0.11146595625626478,"39":-0.16839557995056198,"40":-0.2988268259016716,"41":-0.07973838469054358,"42":0.25250884465919676,"43":0.06021530260956176,"44":-0.03667177237567151,"45":0.09072270546661679,"46":0.17812323727148563,"47":0.14783216889913603,"48":0.15002210956132964,"49":-0.28030393173147017,"50":-0.06891868407641813,"51":-0.00243323583471924,"52":-0.11204462632417564,"53":0.09841769043947815}},{"sx":1,"sy":1,"depth":54,"w":{"0":0.08957137598016365,"1":-0.1864344728100448,"2":-0.009849900045868304,"3":-0.0035422518569730075,"4":0.11472513498395637,"5":0.09455252356390671,"6":-0.06195328563794723,"7":-0.008590922768340337,"8":0.20944417234125268,"9":-0.09638253044416464,"10":0.18286483303618506,"11":0.03407295852948933,"12":0.06198742894748697,"13":0.23050271188701188,"14":0.06523612451421494,"15":0.11857241618462261,"16":0.19787719672144619,"17":0.1091127117642407,"18":0.012682389047098338,"19":0.21712374884697172,"20":0.1891981166269719,"21":-0.10201064994789125,"22":-0.17064534420318592,"23":0.054812089380708626,"24":-0.030679521082523174,"25":0.1427814146764128,"26":0.10521690114659236,"27":0.1558283379722307,"28":-0.0757787908353167,"29":0.14231576892378356,"30":-0.018917840156704762,"31":0.05752299294574335,"32":-0.030977870839323178,"33":-0.17290850521626114,"34":-0.15709004240402202,"35":0.06314207039434401,"36":0.10803429130631105,"37":-0.12220591060345676,"38":-0.08584399147283238,"39":-0.017052934327973224,"40":0.17067238114546368,"41":-0.02711332936283199,"42":0.21331427087318142,"43":-0.3356564616699549,"44":0.06595173293278382,"45":0.18885751220044467,"46":-0.13929254821061005,"47":0.09461010149942628,"48":-0.132829424024177,"49":0.11193338152972095,"50":0.09972571342244331,"51":-0.07585303342540274,"52":-0.13836296916296167,"53":0.11388707879226047}},{"sx":1,"sy":1,"depth":54,"w":{"0":-0.03127807930888782,"1":-0.1766889451484265,"2":-0.1249061216806017,"3":-0.06892869400265637,"4":-0.2784015039826322,"5":0.23329139145201014,"6":-0.017365436054991416,"7":-0.22998230225542587,"8":0.09432754187924837,"9":0.0008981411539286055,"10":-0.14134889687094185,"11":0.16890645618278957,"12":0.16972299820777004,"13":0.09822450462717061,"14":0.1258294032837598,"15":0.04779283606686902,"16":-0.19688094504453743,"17":0.01195992842944503,"18":-0.05454794297527919,"19":-0.06731714725004724,"20":-0.028304819558283748,"21":0.22154740158865024,"22":-0.02775420108961871,"23":0.15155931708137718,"24":-0.011000685166329847,"25":0.01589506633375111,"26":-0.08559747844688473,"27":0.13930106764988087,"28":-0.17772672706837528,"29":-0.020028066249739792,"30":-0.0724989341431877,"31":-0.04702965554453279,"32":0.0012320984436668544,"33":0.33077844618429664,"34":0.013820032678414746,"35":0.04120890511600135,"36":0.22906267931061652,"37":-0.11945525916036193,"38":-0.09828859901931156,"39":-0.04631706763204687,"40":0.0262957047750927,"41":-0.06601070573738409,"42":-0.2076788598121176,"43":0.12378348004210508,"44":-0.32135719769088444,"45":0.04951554507171403,"46":0.032114771087765955,"47":0.05082401075605052,"48":-0.02867022024084493,"49":-0.01609405979105872,"50":0.1920262761320232,"51":0.21247066737889356,"52":-0.23204542973025474,"53":-0.04237461135717695}},{"sx":1,"sy":1,"depth":54,"w":{"0":-0.03344954013772605,"1":0.06116484125348004,"2":-0.21775121624960916,"3":0.12005633971586242,"4":0.19920556281722035,"5":0.08150589229029534,"6":0.06126687837640857,"7":-0.10840946840800235,"8":0.011351844758257242,"9":0.02471338147678739,"10":0.03047051315525284,"11":0.11479964593701278,"12":-0.18814702502329092,"13":0.209691166907593,"14":-0.22174584046702223,"15":-0.1552159761827013,"16":-0.11201714215001075,"17":0.16106755793201685,"18":0.23662124161572595,"19":-0.14432159830715294,"20":-0.0039422220964661515,"21":0.06969346349611387,"22":-0.12569366602793272,"23":0.01020207466157792,"24":-0.09385296798870539,"25":0.01080527582297329,"26":-0.05933200670327098,"27":0.13983558588569633,"28":-0.01825358311717916,"29":-0.07846003795165618,"30":0.18937063479594407,"31":-0.06345933882397448,"32":0.08661766135682952,"33":0.06506354073986886,"34":0.05315894725488378,"35":0.1545891408458213,"36":0.05462630551456331,"37":0.26883680550425243,"38":0.1617957486331525,"39":0.08024514356067214,"40":0.06450447126560442,"41":0.13800723741392976,"42":0.002092290758940657,"43":0.024950310448799643,"44":-0.046007637180008644,"45":0.1608187196820739,"46":-0.017953605616242194,"47":0.19388655213853986,"48":-0.081332605440906,"49":0.1016787592085602,"50":0.187144364061155,"51":0.059666897226467445,"52":-0.06534806022610572,"53":0.0718861417467377}},{"sx":1,"sy":1,"depth":54,"w":{"0":-0.0020521601518740536,"1":0.3439831925213825,"2":-0.1643679098856356,"3":-0.001427336006386955,"4":-0.058014245853043205,"5":-0.10433514484563801,"6":0.22547306801475578,"7":0.20023076889892336,"8":0.07365205603277811,"9":0.08972571361593618,"10":0.17966289224485715,"11":-0.09359331525558802,"12":-0.14210984320705208,"13":0.40199579807166164,"14":0.19762378000310543,"15":0.043298691061458706,"16":0.14255099659175077,"17":0.14789835429146697,"18":0.03665341573270047,"19":-0.16992536403617894,"20":-0.049311642773843506,"21":-0.0896211461825708,"22":0.003174216551223936,"23":0.10418391562088247,"24":0.2074285284891724,"25":-0.14157257935294773,"26":-0.033343301472201964,"27":-0.11888514893812617,"28":0.12595256996749365,"29":0.18294743888760226,"30":0.004903948608221991,"31":-0.0741707569880733,"32":-0.06979661786968022,"33":-0.06663410951992892,"34":-0.10037866069257685,"35":-0.03423096837564176,"36":-0.08134719182688216,"37":0.08949210400842934,"38":-0.012899035871410162,"39":0.038861536793916907,"40":0.2785314511210088,"41":0.1704223652001836,"42":-0.16882391175592576,"43":0.04277839693785238,"44":0.08471327228449588,"45":-0.15361147429530514,"46":0.07518369799317513,"47":-0.03519555891652751,"48":-0.2009446174141919,"49":-0.08084691785640624,"50":0.017752682715054657,"51":-0.07641466683647592,"52":0.09865560282678307,"53":-0.07307838706435883}},{"sx":1,"sy":1,"depth":54,"w":{"0":-0.2105223176228605,"1":-0.041642278440126274,"2":-0.1153050375198803,"3":-0.007920141209968336,"4":0.1345915934622691,"5":-0.10590339094693872,"6":0.14228723285066827,"7":-0.13579940135416477,"8":0.10150088317863705,"9":0.09343656246923601,"10":0.160700654884723,"11":0.11844490546674001,"12":-0.1016084843361377,"13":0.0792395524328323,"14":0.12698637063298773,"15":0.019848998906448808,"16":-0.2410888537696709,"17":-0.028047172588671208,"18":-0.273877315165566,"19":0.02689015446368367,"20":0.1438318397380493,"21":0.024095471516605793,"22":0.027313799612166643,"23":0.09825562907314639,"24":0.12499456247663492,"25":-0.16479465684905467,"26":-0.23767421174627437,"27":0.07163530189182216,"28":-0.21571007146261006,"29":0.23228437570173488,"30":0.036207809445893586,"31":-0.03346126081889454,"32":0.19416058414976448,"33":0.06589687454350235,"34":-0.18413929762286785,"35":0.09502780096027827,"36":-0.09429756004283853,"37":0.13695225581433274,"38":0.2277915617379467,"39":-0.19817136871134922,"40":-0.05120526393341295,"41":-0.08392598725099433,"42":-0.19492773930012325,"43":-0.03584197166522956,"44":0.14559898461796,"45":0.12567082646652894,"46":-0.11433603258620918,"47":-0.06389073885205081,"48":0.08277823396570343,"49":-0.0328579323089053,"50":0.034869827935228734,"51":0.151919455807871,"52":-0.0675722044915218,"53":-0.0802148769094964}},{"sx":1,"sy":1,"depth":54,"w":{"0":0.29851157837888453,"1":0.18862829026597464,"2":0.03792892405301162,"3":-0.1556626678108789,"4":-0.28229101547889074,"5":0.004343082641455439,"6":0.012421691911278588,"7":-0.031185320973426467,"8":-0.13392350116606766,"9":0.01666420264163144,"10":0.043569434156673324,"11":-0.06515016721041288,"12":-0.08553080309090443,"13":-0.013982532226895526,"14":-0.0019330276185184896,"15":-0.1833657466906839,"16":0.07607922130699299,"17":-0.10644352092105466,"18":-0.1798426467336117,"19":0.08839244996194702,"20":0.03801464674886751,"21":0.30542749858037643,"22":0.190342918195991,"23":-0.11385901748696776,"24":-0.0003418471100411534,"25":-0.05578890095293974,"26":0.14867469548062165,"27":0.030870147838258113,"28":0.031523496603832815,"29":0.11832675355802302,"30":0.06416930060388752,"31":-0.18042598747022887,"32":0.03296341557641767,"33":-0.14091574511372137,"34":-0.08404522334748663,"35":0.04159618416000889,"36":0.058902747511321026,"37":0.06727675630996652,"38":0.13303503756963722,"39":-0.06409424846033462,"40":-0.1446895930252674,"41":-0.13122428369335468,"42":0.26437946371966636,"43":-0.029289588750445916,"44":-0.16919721239484034,"45":0.04684813255654494,"46":0.008188843933175585,"47":0.05157992135045386,"48":-0.0880164782811795,"49":-0.04738282047854018,"50":0.044774411219173915,"51":-0.028519539970774593,"52":-0.06977941863100803,"53":0.06458875567473271}},{"sx":1,"sy":1,"depth":54,"w":{"0":-0.08093803596042211,"1":-0.20357237364336367,"2":0.08767791080123609,"3":0.2552228586195773,"4":-0.050222339010576655,"5":-0.1650911430233531,"6":0.1611047458029155,"7":0.07048871251708888,"8":0.08788829777272823,"9":-0.017466393443119965,"10":0.08918934040808268,"11":-0.035466829401585104,"12":-0.0035461342788219875,"13":-0.16852179945482829,"14":-0.1483457755563761,"15":-0.01245560462559954,"16":-0.14415994918611175,"17":-0.1520967616953609,"18":-0.10392332804531201,"19":0.11033088914590243,"20":0.20548886339389372,"21":0.05798850581501382,"22":0.3145902911001003,"23":-0.02157441481456345,"24":-0.01663608819096621,"25":-0.2608861426297,"26":-0.05448610493913371,"27":0.030609340559461677,"28":-0.07654058583127699,"29":0.18048618855667237,"30":0.10698408925494969,"31":0.06509736860185673,"32":0.2934583433615608,"33":0.06769268005842774,"34":0.17929658519249642,"35":-0.07572424373096674,"36":0.16663146886335276,"37":0.062444705309675226,"38":0.11530807891555306,"39":-0.06131672244522326,"40":-0.0692585639365623,"41":0.10105852724326078,"42":0.1528075647997099,"43":0.22026201816021299,"44":0.09245887032870058,"45":0.21243651843605307,"46":-0.08998044731890396,"47":0.0049439758668708604,"48":-0.054547114796110144,"49":0.15007725407531738,"50":0.140383305394233,"51":0.3636455812003011,"52":-0.17906222615556983,"53":0.005620632402855456}},{"sx":1,"sy":1,"depth":54,"w":{"0":-0.09225348558140066,"1":-0.07041095921056428,"2":-0.25250232162328246,"3":0.2877260649494032,"4":-0.02054339533458683,"5":0.05131471650634574,"6":-0.043153264171526214,"7":-0.17482499949713426,"8":0.0176917777940712,"9":-0.05447518397225336,"10":-0.007641932058489651,"11":-0.005727738751688581,"12":0.022590927134313495,"13":-0.15998356753156762,"14":0.11603956619154084,"15":0.0613275871431301,"16":-0.03438002951606324,"17":-0.15655204884163323,"18":0.11235828429343214,"19":0.12948821925255785,"20":0.05055119199018196,"21":0.03214029071193771,"22":-0.044139202185179444,"23":-0.2142262419283971,"24":-0.013077228636249008,"25":-0.04100725816139441,"26":-0.22104667219014565,"27":0.19995786365973103,"28":-0.05615030061822266,"29":0.0017523921003394615,"30":0.02637752040149914,"31":-0.007288665651587592,"32":-0.05762580867134497,"33":0.13511940213869472,"34":-0.09161713339349481,"35":-0.05008622400365695,"36":-0.009660985411635051,"37":-0.16006364911098925,"38":-0.13496242003658315,"39":0.012096940293506667,"40":0.12056092460723035,"41":0.050569667930964714,"42":0.17266997733090997,"43":-0.15000810673363962,"44":0.0473137171130749,"45":0.09203496819223074,"46":-0.029406832457496476,"47":-0.16730632808546592,"48":-0.21244364269418364,"49":0.023136659787032963,"50":-0.1217389243611877,"51":0.02126915089535799,"52":-0.056612809113183005,"53":0.05346328170176588}},{"sx":1,"sy":1,"depth":54,"w":{"0":0.043574387857075,"1":-0.1472179902712034,"2":-0.05079539351612739,"3":-0.04477887874994649,"4":-0.2710028371145079,"5":0.10805390360630741,"6":-0.22546015877687126,"7":0.1841502074042696,"8":0.012629476486091072,"9":0.005165782188711072,"10":0.30292431669993025,"11":-0.09179007390682481,"12":0.013288427819064324,"13":0.12468680645832886,"14":-0.14695141666530656,"15":0.08839865479293195,"16":-0.19643630623101838,"17":-0.05746698928968313,"18":-0.13088670129224683,"19":-0.14384848870371542,"20":0.27420980055365074,"21":0.09966183023416336,"22":0.3108998121919214,"23":-0.20640922564707787,"24":0.12667320603077326,"25":-0.007272376997754475,"26":-0.17779936489456818,"27":0.04691527300793491,"28":0.05580318326882937,"29":0.01642391373445434,"30":-0.14690185800819397,"31":0.029724943930933296,"32":-0.05861744678973764,"33":-0.19698929386210343,"34":0.016563694058013233,"35":-0.08999020676185435,"36":0.12814172002136653,"37":-0.16356883321242463,"38":0.09576481977524072,"39":0.16652620734633908,"40":0.044611106991526164,"41":-0.19173727251948036,"42":-0.1403476054909208,"43":0.04039796530897381,"44":0.12449435930592996,"45":0.06329893627438761,"46":0.06112955162153329,"47":0.06261520348159767,"48":0.12864828563031616,"49":0.016628573670232218,"50":-0.095577547539025,"51":-0.30119658736866206,"52":0.10027328713409699,"53":-0.10505987086748678}},{"sx":1,"sy":1,"depth":54,"w":{"0":0.12343552015478942,"1":-0.09901898837082554,"2":-0.003118768242415847,"3":0.11853948676266765,"4":-0.02127232028155497,"5":0.050313710863465234,"6":-0.007736783721319111,"7":-0.11883307277554113,"8":-0.06191557194007477,"9":0.19985496454842067,"10":0.004747967482042105,"11":-0.15358349718522463,"12":-0.010694749938213973,"13":-0.06251802519606993,"14":-0.1922106232858655,"15":0.16639642430048332,"16":0.045445804301081805,"17":0.08811880500187264,"18":0.05549314974778632,"19":-0.22766725300381943,"20":0.08635386881564737,"21":-0.08091373522027821,"22":0.037722797572876644,"23":-0.14856347789120591,"24":0.0376853934762463,"25":0.3800773804884547,"26":0.059335700581066304,"27":-0.02527866144293733,"28":-0.06439539452913336,"29":0.008315308231655508,"30":0.011880576845919796,"31":-0.0879928303496162,"32":0.14960093058641372,"33":0.14638087587588422,"34":0.18658956098761428,"35":-0.01212136233298998,"36":0.02187681971560098,"37":0.03552615724117456,"38":-0.045549357370527066,"39":0.03782760193381201,"40":-0.2481153876068359,"41":-0.15253502088999155,"42":-0.08051206986028915,"43":-0.02933877762767431,"44":-0.009495745673443773,"45":-0.00946098279453011,"46":0.15688195708660205,"47":-0.06423020207525436,"48":0.22470922293435913,"49":-0.08934577237310534,"50":0.2906964499623301,"51":-0.02073755506876601,"52":-0.04082043403107304,"53":-0.11034945790997631}},{"sx":1,"sy":1,"depth":54,"w":{"0":0.06397627468596231,"1":-0.19017112830738936,"2":-0.008756407282953666,"3":-0.027003992638105004,"4":0.05176997452687155,"5":0.119525449457728,"6":0.16649355806585597,"7":-0.06390976851090198,"8":-0.1758953270303983,"9":-0.11215833160077526,"10":-0.16803507420569672,"11":0.06831925103011305,"12":0.2115762452637073,"13":0.017133642434585785,"14":-0.11601175541992834,"15":0.18169761347948327,"16":-0.11513054633701496,"17":-0.050746630924302226,"18":-0.011498972606043215,"19":-0.03181966183398337,"20":-0.08629056188483356,"21":-0.17943073514188654,"22":-0.16549730645493665,"23":0.0026491175505259455,"24":0.10256070346780437,"25":-0.1450988308786704,"26":-0.27481064661530974,"27":0.02026642709024457,"28":0.14709691884123705,"29":0.03803907237290741,"30":0.0942341960550081,"31":-0.09800354856447177,"32":-0.2565073809252809,"33":-0.06323522724423945,"34":-0.2897809547380952,"35":-0.10416258816261942,"36":-0.13659941104006956,"37":0.024323372305975508,"38":0.06869883224905884,"39":0.1549849201294159,"40":-0.0037454005280812826,"41":-0.07669530803244835,"42":-0.1980629331699661,"43":0.21739944848710796,"44":0.0186254207818571,"45":0.0038529038656994518,"46":-0.12246092941955057,"47":0.013134411011473446,"48":0.012302977869553377,"49":-0.04360114535081504,"50":0.1026130149745975,"51":0.18372588036386747,"52":-0.14868677041440895,"53":0.0007661944362296557}},{"sx":1,"sy":1,"depth":54,"w":{"0":-0.0543318462587629,"1":-0.04264658610047692,"2":-0.11271281892521773,"3":-0.029903247673049978,"4":-0.04675435566446244,"5":-0.053565614052141886,"6":-0.20508787239114193,"7":0.23236989527623497,"8":-0.17618791603415465,"9":0.047040967144451835,"10":-0.23500181804227144,"11":0.0718063238279898,"12":0.08609156820423378,"13":0.07593817590671838,"14":0.27445248021065716,"15":0.21779263270726745,"16":0.07387045246413948,"17":0.11343393796155554,"18":-0.06405935511998458,"19":-0.06671615558208288,"20":0.11208239359008974,"21":-0.08034346060085178,"22":-0.02126868718472382,"23":-0.03753314167809929,"24":-0.09054528238595924,"25":0.12017051383137844,"26":-0.057476139580206156,"27":-0.16004529797616415,"28":0.06952596310713256,"29":0.04024222743955076,"30":0.010454192658450333,"31":-0.01325961973889112,"32":-0.06415657812909674,"33":0.007920037306473936,"34":-0.03646574657123589,"35":-0.06991124394482427,"36":0.16926284035456973,"37":0.17920695562310943,"38":-0.051790584338046376,"39":-0.08815357986995755,"40":-0.3355928661915448,"41":-0.005557787186051707,"42":0.07840743595978777,"43":-0.0576407553274513,"44":-0.08399301775744557,"45":0.07533091778124289,"46":0.13857620053833727,"47":0.051156846945690206,"48":-0.1843704830312346,"49":0.17307316134234219,"50":0.16744471515307877,"51":0.16039867468309404,"52":-0.042627711761320956,"53":-0.11222865381404949}},{"sx":1,"sy":1,"depth":54,"w":{"0":-0.006459294877180921,"1":-0.09763594309747735,"2":-0.025475425921189013,"3":0.044776980600796816,"4":-0.06271343904900031,"5":-0.030816097190568135,"6":0.015936548677353543,"7":0.02912427153739437,"8":0.011265696540282472,"9":-0.050735681597685475,"10":-0.010277245943144235,"11":-0.2226173758663542,"12":0.02989400296460404,"13":0.03840070826776876,"14":-0.05181599230451511,"15":-0.05963432690715689,"16":-0.034009351742471744,"17":-0.1303502682281419,"18":0.2814625128035659,"19":0.09867912018558665,"20":0.0471332812803646,"21":-0.09883165107327568,"22":0.14446048456696509,"23":-0.09794620843497645,"24":-0.2263669230368896,"25":-0.08053288005646868,"26":0.24753285775961392,"27":0.0496969473329963,"28":0.06361165636844128,"29":-0.05528931769681208,"30":0.04058652642775093,"31":0.2005916067215478,"32":-0.07632829408360693,"33":0.07189082664487767,"34":0.14536471200435347,"35":-0.025943475689189612,"36":-0.16118544535566937,"37":0.027708970077367407,"38":-0.13845595296461113,"39":-0.01458902771448758,"40":0.026006448161640213,"41":-0.1439008660048185,"42":0.036992920617502326,"43":0.03816807273707883,"44":-0.15779238184750619,"45":-0.1689602320506835,"46":0.16320290654163636,"47":-0.15714148081677456,"48":-0.010222514164416371,"49":0.18262591062373468,"50":-0.036624608139518504,"51":-0.013240431435135881,"52":0.1545082872900341,"53":0.03287586728369382}},{"sx":1,"sy":1,"depth":54,"w":{"0":-0.09880588491212854,"1":0.0961096744628592,"2":0.04182989542157516,"3":0.13159855698395195,"4":-0.0371546315123929,"5":-0.25027241643892706,"6":0.06216763701579493,"7":-0.28735077053196456,"8":-0.11478657616026164,"9":-0.059537769785977385,"10":-0.051944957092881036,"11":0.1376226193656037,"12":-0.06303683865757494,"13":-0.13430600568027565,"14":0.07490358619170047,"15":-0.037353938693825556,"16":-0.13136480243543147,"17":-0.04961753045561952,"18":-0.013868750931790623,"19":-0.10886975264364346,"20":-0.14181991441075145,"21":-0.009505807834285288,"22":0.03307463292243677,"23":0.1579388494032119,"24":-0.22050951958487586,"25":0.061476837899096505,"26":0.07180533211019914,"27":-0.21446457111304673,"28":-0.05044694340237946,"29":0.10037076023848392,"30":0.04397879487468439,"31":0.023001977284101624,"32":-0.028030131397784454,"33":0.09076200964625737,"34":0.15260482296389252,"35":-0.011391110160187446,"36":0.030061146726155716,"37":-0.0455235805839369,"38":-0.07594010694544844,"39":0.08596456939800008,"40":-0.11222961781890924,"41":0.19694780900502337,"42":-0.0798095287270976,"43":0.2935897073866959,"44":0.14822564515374725,"45":0.20302626877783883,"46":-0.04437116242863636,"47":0.02132729376226067,"48":-0.04630535219306732,"49":-0.09417131874560686,"50":0.08210497127704146,"51":-0.017426669365664876,"52":-0.019119910665138483,"53":-0.05569802528996295}},{"sx":1,"sy":1,"depth":54,"w":{"0":-0.07468748255713906,"1":0.037348979484974676,"2":0.10390528496830419,"3":-0.001604425053690198,"4":0.2174305868605774,"5":-0.08356993914154809,"6":0.06252202776222034,"7":-0.10631614783554699,"8":0.11231126225532947,"9":0.23076232691103332,"10":-0.20613341877124947,"11":0.05561564480602561,"12":-0.33265893950869035,"13":0.1188624567408137,"14":-0.0006540291564145314,"15":-0.06564628773349705,"16":-0.13524657323162184,"17":0.19490904569830228,"18":-0.0568418897984116,"19":0.1507004196805459,"20":0.10724069784991178,"21":0.0752915965734699,"22":-0.00884269819851942,"23":-0.028080806098714682,"24":0.15032873039988662,"25":0.05473059508712711,"26":0.07522453897405093,"27":-0.04209156786932171,"28":0.06432955833685766,"29":0.026611987156633387,"30":-0.09540260509284507,"31":-0.21276793363811286,"32":-0.18538685420252704,"33":0.04168767984311256,"34":0.1302839441337645,"35":0.027975602846576006,"36":-0.12500233695182011,"37":-0.0655274382380189,"38":0.20163792647481138,"39":0.09001520961365142,"40":0.013499711643309008,"41":-0.08738034502843729,"42":-0.09401470860191984,"43":-0.11011223280170788,"44":-0.07428188214593974,"45":0.009674184049135818,"46":0.07243504829951225,"47":-0.010807087888438094,"48":-0.12775400688382993,"49":-0.17841944710483237,"50":0.01874971769282881,"51":0.011301806775892261,"52":0.11097768091165246,"53":0.06540959941900848}},{"sx":1,"sy":1,"depth":54,"w":{"0":0.058427416515094234,"1":0.15635791709378818,"2":-0.14724837502372537,"3":0.16030343123019838,"4":-0.020950649737244496,"5":-0.11058448955783058,"6":-0.021747152923369904,"7":0.3278348794988308,"8":0.1262186099001217,"9":-0.0999458389811115,"10":-0.10905625147007615,"11":0.0474179559615497,"12":-0.20580895806718802,"13":0.010504440905566294,"14":0.0540555308259761,"15":-0.08339730624044292,"16":-0.22366673683739463,"17":-0.2148510213927474,"18":0.01359772416452017,"19":0.13541437759520963,"20":-0.09880050022090496,"21":-0.24698435663089552,"22":-0.030160180817694705,"23":-0.17965091295387203,"24":0.005505389121416529,"25":-0.11806796720184282,"26":-0.11313791737170086,"27":0.019970194686172008,"28":-0.05419903540318407,"29":-0.005256784018937331,"30":0.05656138097120727,"31":-0.2253231880917568,"32":0.13456831123295715,"33":-0.046591206897226456,"34":-0.05394694604498877,"35":-0.006356062163881967,"36":0.27992401355855945,"37":0.022085083226271205,"38":0.23585433848059056,"39":-0.03870282032943233,"40":-0.16345812702179266,"41":-0.051790560930118246,"42":0.007493811316826087,"43":0.23990944152267432,"44":-0.24355249289683398,"45":-0.0392001806933283,"46":-0.12633380898850652,"47":-0.1455700781593345,"48":-0.034645518798179994,"49":0.18667288687619749,"50":0.013272459850891332,"51":-0.03423494031409769,"52":0.03970752610997977,"53":-0.05658792781197938}},{"sx":1,"sy":1,"depth":54,"w":{"0":0.22779418520124048,"1":-0.017350404662524632,"2":0.02208949846694674,"3":-0.010878897537768582,"4":-0.005585459657870314,"5":0.009637761496394785,"6":-0.017610785935098617,"7":0.24663224772495598,"8":-0.06234350189470898,"9":0.0163960692414121,"10":0.2751165128009776,"11":0.15126320319388997,"12":0.06697198064284017,"13":0.1092599170891392,"14":-0.21151063744639947,"15":0.034005479541553356,"16":0.14283959007620955,"17":0.20727362981860176,"18":0.09104805390784891,"19":0.16127269966136842,"20":-0.10297609797912487,"21":-0.13112376560152472,"22":0.057220971823043414,"23":0.13981623148578476,"24":-0.33254726287471637,"25":0.09988163317467691,"26":0.1661552985017176,"27":-0.2054142467639345,"28":-0.19763353428339892,"29":-0.06515235058171358,"30":-0.06474210362673034,"31":0.020982450169607352,"32":-0.13780560118774793,"33":-0.046970648458255486,"34":0.024274599276049972,"35":0.044832342335872626,"36":0.003401391856681894,"37":-0.022196670528982592,"38":0.019626610603602313,"39":0.03860347662302259,"40":0.20761981129321466,"41":0.14817045823871788,"42":0.17602974444384203,"43":-0.02881124480506709,"44":0.12678599467638296,"45":0.02021717704889876,"46":0.0865548315024315,"47":-0.18833377242386012,"48":-0.09717147866333127,"49":0.03839702818128789,"50":-0.16524016979167883,"51":-0.09812382713756254,"52":0.14333951011477836,"53":-0.1375378768785797}},{"sx":1,"sy":1,"depth":54,"w":{"0":0.009164496537440588,"1":-0.04812052980938324,"2":0.14119357071262637,"3":0.14242775082078846,"4":0.0357594736120499,"5":0.15314562726848105,"6":-0.04161363016968768,"7":-0.05889223954835249,"8":-0.040258298874896944,"9":-0.14960680138452137,"10":-0.2141149002660723,"11":0.001025814590901253,"12":-0.108446527947533,"13":-0.08944125860789214,"14":-0.03294709524848216,"15":-0.23590887534729243,"16":-0.09628984700109129,"17":-0.18598182880961778,"18":0.2978951435728989,"19":-0.08918496277102078,"20":0.15904371186642793,"21":-0.011513752421412848,"22":-0.04941414130765631,"23":-0.06336509038560495,"24":0.07871100839481149,"25":-0.16623389583706785,"26":-0.12495565596205473,"27":-0.024631296781760577,"28":-0.03179613824506673,"29":-0.09772103383076147,"30":-0.12259430569458639,"31":-0.21113736781499362,"32":-0.19680933665506453,"33":-0.04039337498244962,"34":-0.048680431171263666,"35":0.042473349408652356,"36":0.13907378184591232,"37":-0.08817737177117307,"38":0.05202464197068352,"39":0.15843002366414966,"40":0.17192544085448344,"41":0.17300480146419708,"42":0.11521339086846018,"43":-0.19042946194297522,"44":-0.16695475422060257,"45":0.22506322950002838,"46":-0.07075854058576593,"47":-0.25223432841844623,"48":0.05095818029419979,"49":-0.0818462915079893,"50":0.1716912383866944,"51":-0.07310377734612071,"52":-0.11166783017492384,"53":0.00018146822775406943}},{"sx":1,"sy":1,"depth":54,"w":{"0":0.011760971234173188,"1":0.11403974051475443,"2":-0.02578437008316984,"3":-0.03707964611492637,"4":0.06352829773677608,"5":0.026849007355500297,"6":0.053465787209947296,"7":-0.06991157500007847,"8":0.011456494206423123,"9":-0.21195664511795118,"10":-0.03536722109847675,"11":0.13481081924330865,"12":0.19827640797881174,"13":-0.016951222272590702,"14":0.18674948117173207,"15":0.2652000546157369,"16":-0.015931691014617524,"17":-0.05395994824140965,"18":0.03361818359733309,"19":0.0033227446249209365,"20":-0.06216274573347456,"21":0.15055001075867244,"22":0.2745952333366632,"23":-0.07607316951460366,"24":-0.0022979697331958755,"25":-0.016995898375227754,"26":-0.07945794209386016,"27":0.1105578586418162,"28":0.004021415811533959,"29":-0.035445413208721195,"30":-0.09259674150277282,"31":-0.025776786433281546,"32":-0.01830869508303696,"33":-0.05880162705603927,"34":-0.1936348884851064,"35":0.06842377977691554,"36":0.02995586428239032,"37":-0.019456889386786518,"38":-0.25050699735836074,"39":-0.010765410038743943,"40":0.05050856004352473,"41":0.199112564095006,"42":0.10077496714235977,"43":0.1055284524553562,"44":-0.11693678146249574,"45":0.09550002319364652,"46":0.13908557983828174,"47":-0.012230960988110915,"48":-0.2213236561682611,"49":0.08590176735280224,"50":0.05391306380903111,"51":-0.09941095579230697,"52":0.12807235706313366,"53":0.03046490445893113}},{"sx":1,"sy":1,"depth":54,"w":{"0":-0.004247427701197327,"1":0.035653048851058855,"2":-0.069497972096365,"3":0.01432500102472801,"4":0.00020306548823098921,"5":-0.05912616595337936,"6":0.010734500844595088,"7":-0.2832840786091494,"8":0.08593543286865213,"9":-0.08953231395783412,"10":-0.1774594330072047,"11":0.10245660275654994,"12":-0.10169178036867749,"13":-0.3796098616125828,"14":0.19902718678521222,"15":-0.022808171280327354,"16":0.009505977477222564,"17":0.01896459251042076,"18":0.08319025332355727,"19":0.1429360981301902,"20":-0.0420063240237876,"21":0.14994350756330968,"22":-0.17661159262275217,"23":-0.24623384407105764,"24":-0.11628888028497934,"25":-0.13084982711573118,"26":0.04761918217999815,"27":0.050887275382249145,"28":0.15490360946303933,"29":-0.04397487686803595,"30":-0.002744700486289574,"31":-0.11825839692571946,"32":-0.06030168926998613,"33":-0.31040405989354647,"34":-0.1449479448423559,"35":0.07139227721763196,"36":-0.2882745750505532,"37":0.03730507681839781,"38":0.10230243523464863,"39":0.1566550896119807,"40":-0.15526943298914817,"41":-0.0708519753415666,"42":-0.02584185768454433,"43":0.09629598959057184,"44":-0.015774381566080874,"45":-0.07075216366403868,"46":-0.02478523333593738,"47":-0.03993898395388244,"48":0.11601154443754558,"49":0.1420255590643716,"50":-0.09037473553344934,"51":-0.021200955403146492,"52":-0.1030187771764003,"53":-0.04092198178733931}},{"sx":1,"sy":1,"depth":54,"w":{"0":-0.1513952926939909,"1":-0.02389882410954794,"2":0.027328207445445372,"3":-0.08623486421975322,"4":0.12691153243329759,"5":0.10868659098488258,"6":0.178361120051139,"7":0.013235305735811288,"8":-0.13101815675842965,"9":0.013249471763409435,"10":-0.34378887076285713,"11":0.12956969140661215,"12":-0.30153634686223585,"13":-0.01682350578971504,"14":0.08854169473204708,"15":0.33054677235314434,"16":-0.15788934495812657,"17":-0.21199015009652875,"18":0.10861730446273085,"19":0.16062565774505982,"20":0.10018125940894142,"21":-0.16350723369848208,"22":0.144009019474831,"23":0.17673424807323213,"24":-0.10569024394553297,"25":-0.22008552355455424,"26":0.12307803103771527,"27":-0.13712651101518858,"28":0.26176258328832386,"29":0.08277569068211603,"30":0.01652352412545741,"31":0.04778156067445393,"32":-0.18320707052501115,"33":0.15812993824728516,"34":-0.03527681546785181,"35":0.05180686580994274,"36":0.13820057338443706,"37":0.04932967102420605,"38":0.05993003772540224,"39":0.1706217259400701,"40":-0.141049006130943,"41":-0.06967322822130806,"42":0.16849872196816715,"43":-0.18142236442381257,"44":0.1137749463499295,"45":0.12396134809397735,"46":0.032346556489191464,"47":-0.12461883843311877,"48":0.16033886070643355,"49":-0.055595641826605126,"50":-0.2187448841733899,"51":-0.02262225190025032,"52":0.02338975078352515,"53":-0.13002944398848712}},{"sx":1,"sy":1,"depth":54,"w":{"0":0.16413762265496548,"1":-0.1925538773355347,"2":0.08794632476364378,"3":0.0002467417219735778,"4":0.1243412710929851,"5":-0.10485043669897788,"6":0.02560218278060224,"7":-0.06388327614462941,"8":-0.16058941561681675,"9":0.1417718714809619,"10":0.06351840798807165,"11":0.02197941903434053,"12":-0.058207291565132435,"13":0.08024071837475522,"14":0.0990349147890499,"15":0.07554445077561112,"16":-0.16892697613650892,"17":0.1450510255463135,"18":-0.012733436232400133,"19":-0.12610561273240886,"20":0.0042682823543185285,"21":-0.2594931268343973,"22":-0.03590863611511652,"23":-0.09138737258486136,"24":0.024461498601373526,"25":0.0040988998680942116,"26":0.20185971295287994,"27":0.06318221804834535,"28":-0.23639494441347883,"29":0.04624956966946978,"30":-0.26318720418475855,"31":-0.027811125613695878,"32":-0.2193671730453928,"33":0.008661314490152614,"34":-0.06164106424760867,"35":-0.11466237177105726,"36":-0.09532293685896367,"37":-0.29253897376801435,"38":-0.2082704571283717,"39":0.3441629271961704,"40":-0.10138127918248704,"41":0.041743501305613634,"42":0.00960496495331137,"43":-0.08692339629778738,"44":-0.2449579654900517,"45":0.09701369302911594,"46":0.07962062598644161,"47":0.2339794943039421,"48":0.21533923492615506,"49":0.2808635619236435,"50":-0.02485838024980151,"51":-0.12507506027004012,"52":-0.053009760723288404,"53":-0.03586242737866078}},{"sx":1,"sy":1,"depth":54,"w":{"0":-0.3001924133570636,"1":-0.005921213266851509,"2":-0.10509579275346818,"3":-0.06724064293449138,"4":-0.07636606219747191,"5":-0.131357448252015,"6":-0.013055604797399473,"7":-0.16979367856749533,"8":-0.025112983741410008,"9":0.13640949656770038,"10":-0.04917887364352314,"11":0.04604365530832954,"12":0.11229890505814102,"13":-0.010383581130286717,"14":0.03144050350838234,"15":-0.07663645202238108,"16":0.07819763876340428,"17":-0.13761898113270674,"18":-0.13920289476877537,"19":0.1918407351396895,"20":-0.09744097190412312,"21":0.079696681178027,"22":0.12366063546324096,"23":0.1066117929833214,"24":0.1329321085669133,"25":-0.04758500463266311,"26":0.19993546503699045,"27":-0.12426127675120234,"28":0.07543339911535449,"29":0.051912372887115116,"30":-0.035510945898687654,"31":-0.12646717922161482,"32":-0.052589159557071934,"33":-0.09515908905404516,"34":0.13606590258568513,"35":-0.12546187332999428,"36":0.2375011079500177,"37":0.0859967032002586,"38":-0.07481476932976083,"39":0.28161285707876543,"40":-0.03838707737611474,"41":0.14111474378730446,"42":-0.07149601259541753,"43":0.18147906370911981,"44":0.010391549285303073,"45":0.07985416354500466,"46":0.023000427243510042,"47":-0.039042220838791726,"48":0.05769932953504664,"49":0.07941310251871733,"50":0.08904667496420993,"51":0.06442423004422732,"52":-0.12301134723873268,"53":0.12322865407496117}},{"sx":1,"sy":1,"depth":54,"w":{"0":0.20896024258530235,"1":0.1522192246299689,"2":0.33473991589312824,"3":-0.3528036966507404,"4":0.040183636337597334,"5":0.021164126320487323,"6":0.0838737593179392,"7":-0.06362387286770481,"8":-0.20379131263044328,"9":0.07900214192077981,"10":0.11453418148264316,"11":-0.3173296847993559,"12":0.15014467012745628,"13":0.08243173677701553,"14":-0.08204085058374455,"15":-0.18977516967530703,"16":-0.22870981395962614,"17":-0.06513504945225139,"18":-0.04291518641382813,"19":-0.014359627084474934,"20":0.14879611075607227,"21":0.20703362213469478,"22":-0.12083864834452415,"23":0.0016877338016438655,"24":0.1916491667788997,"25":-0.050895374177247994,"26":0.19873221001014263,"27":-0.18365543276235577,"28":-0.08322905746286235,"29":0.04136847767853063,"30":-0.08442465301455762,"31":0.2673372069671583,"32":-0.05137297657206937,"33":0.07106798251839964,"34":0.09356838593535778,"35":-0.19257449740386923,"36":-0.18712663310623362,"37":-0.0054616203029896945,"38":-0.17005156238090247,"39":0.12338462298562307,"40":-0.05265384515636362,"41":0.06400361658635938,"42":-0.22052910861992214,"43":-0.1463833817167695,"44":0.06476911702284582,"45":0.11935909608198556,"46":0.05377733996646977,"47":-0.14767263542058331,"48":-0.10864064944679926,"49":0.1394248598432185,"50":0.2196728452538666,"51":0.009821935064678221,"52":0.06454475576449666,"53":0.08208201797109999}},{"sx":1,"sy":1,"depth":54,"w":{"0":0.06601679342186706,"1":-0.039149330480059155,"2":0.14044675870747766,"3":0.07481897366566614,"4":-0.030106789821959534,"5":-0.0980534393258077,"6":0.04058626765835881,"7":-0.01458530751422712,"8":-0.10241887572979895,"9":-0.06584199614132868,"10":-0.025836755742806052,"11":0.03462641706247946,"12":0.10274884084365309,"13":0.12967475096178022,"14":-0.040556295477263644,"15":0.2285736142459599,"16":-0.21521877838207476,"17":-0.28318486468862614,"18":-0.17813128596194375,"19":0.1456872109054577,"20":0.19732064220631818,"21":-0.10618665084370775,"22":0.10332214613450091,"23":-0.15447928845547854,"24":-0.021725412684625446,"25":-0.04396154601577115,"26":-0.19057044650406807,"27":-0.14464513694625056,"28":0.10182940199722289,"29":-0.15636297739413954,"30":-0.09587896092514735,"31":0.07232489957898537,"32":0.05242867309215191,"33":0.0158013564828192,"34":-0.07420663463697924,"35":0.20763326556223438,"36":0.08693512559831898,"37":0.20340672177816946,"38":0.09406642829925,"39":0.048124591990136474,"40":-0.026410449493865572,"41":0.12797103227956194,"42":-0.21512808592924618,"43":-0.0722729458602261,"44":0.07149580117645514,"45":-0.11429567263289446,"46":-0.05631294812641791,"47":-0.10601276712936128,"48":0.042964370868652235,"49":-0.06263788831517414,"50":-0.052307539771897546,"51":0.10777807546187197,"52":-0.2133072075799316,"53":-0.1917580926721482}},{"sx":1,"sy":1,"depth":54,"w":{"0":-0.19067710022106235,"1":-0.06378696974110197,"2":-0.07217891242127754,"3":-0.29103453021500847,"4":-0.03886052813099212,"5":0.1989256831251842,"6":-0.11276394831151937,"7":-0.025883961674000644,"8":0.05311633374846489,"9":-0.07211563913565618,"10":-0.10311421970257385,"11":-0.26053481823826846,"12":0.05029111865308868,"13":-0.09776521706556185,"14":0.05459757201482673,"15":0.0537703848466629,"16":-0.04189143280831099,"17":-0.19701807858783982,"18":-0.2064859596406264,"19":0.11849175053696018,"20":0.019116842259692828,"21":0.01727187478068467,"22":-0.03844567873163912,"23":-0.06640324047317939,"24":0.06766279891900565,"25":0.005369181351183632,"26":0.14868471628872565,"27":-0.29994651822663676,"28":0.00405786664224789,"29":-0.10310290165160237,"30":0.09824723343578826,"31":-0.16420348315210256,"32":0.01212953373673272,"33":0.08246098969125706,"34":0.07569082708377309,"35":-0.06634641020308096,"36":0.003368557580145326,"37":0.007250898373401456,"38":0.0767042115981945,"39":-0.018290379265118024,"40":-0.015560073680626658,"41":-0.24188632258636839,"42":0.11324998500084105,"43":0.030822100562687995,"44":0.2503167908944124,"45":-0.21060456457824417,"46":-0.1460310336914285,"47":-0.18695030454200937,"48":-0.10747340120756783,"49":0.0013032066574292385,"50":0.009259591845299429,"51":-0.17459232090595767,"52":-0.0093349040645749,"53":0.3202715708128419}},{"sx":1,"sy":1,"depth":54,"w":{"0":-0.00018705105777328549,"1":-0.02209633471125576,"2":-0.13832141156049016,"3":-0.023577501813667502,"4":0.03714738383467501,"5":0.06664428967319934,"6":0.02651220140453926,"7":-0.03361108665079921,"8":-0.17434437074036557,"9":-0.17446711781813115,"10":0.23935569812182594,"11":-0.21306054501196015,"12":0.10778237725943139,"13":0.09057990023208773,"14":-0.07050876443279472,"15":0.08382339185816326,"16":-0.00899842089083988,"17":0.1689279166043348,"18":0.19420465234410778,"19":-0.02915749792041575,"20":-0.08570152878845293,"21":0.01513712655904621,"22":0.14447572950414067,"23":0.09861363752189595,"24":-0.1359804454028763,"25":0.16344394892737713,"26":0.09084017254712592,"27":0.00638275456124583,"28":-0.09693884064083821,"29":0.21448560335015143,"30":-0.2523819384634298,"31":-0.0663153860603486,"32":-0.16071914139254068,"33":0.09804300926907755,"34":-0.11645812732676072,"35":0.07856193330974322,"36":0.008397947240242872,"37":0.05024052156507,"38":0.19181575576000517,"39":-0.17603068365723282,"40":-0.043164740403690394,"41":0.16622700826732364,"42":-0.024909984352354572,"43":-0.08992959120360249,"44":0.22767841243863168,"45":0.07472125667377648,"46":0.10435360336703625,"47":0.17157203928521944,"48":-0.04286193320131402,"49":0.09680446969321267,"50":0.13399996266114686,"51":-0.13217191181762575,"52":-0.15945472201389957,"53":-0.004638102499696331}},{"sx":1,"sy":1,"depth":54,"w":{"0":-0.007970800025512528,"1":-0.019745035770265585,"2":0.05617511182656565,"3":-0.04989405413742259,"4":-0.1178132443984019,"5":-0.09714276963734116,"6":-0.19801599199920913,"7":0.06042110965285978,"8":0.05662537631862314,"9":-0.1807814285096033,"10":-0.023070115433228573,"11":-0.08851099783070447,"12":-0.15522514298154927,"13":0.10908848082849211,"14":0.11942489026245702,"15":-0.07036864028407606,"16":-0.10376264164852966,"17":-0.09835158976959181,"18":-0.13606478747673717,"19":-0.02334070215346887,"20":-0.026306703669248747,"21":-0.09535201493379877,"22":-0.2252335008625356,"23":0.16745433436487547,"24":0.11273112586707226,"25":-0.07055063850941426,"26":-0.1271880889413211,"27":-0.15752890189627866,"28":-0.008756160170869966,"29":-0.21085578050873102,"30":0.11423780270423309,"31":0.13856857703476755,"32":0.059617990343074696,"33":0.06578340788758573,"34":-0.022790640601373553,"35":-0.1089072754292927,"36":0.02886986895264889,"37":-0.16654789390566135,"38":0.007605831050332833,"39":-0.11937782204790708,"40":-0.03061599325919418,"41":0.010134883156899541,"42":-0.05049818427571145,"43":-0.08102427533466315,"44":0.1061599943135747,"45":0.04436925877254221,"46":-0.21421369438483534,"47":-0.1631360586444112,"48":0.03694463262179252,"49":-0.10446202840759518,"50":-0.23824125891607148,"51":0.13180258507623813,"52":-0.10816258614154817,"53":0.13288913578119735}},{"sx":1,"sy":1,"depth":54,"w":{"0":0.03735344921855772,"1":-0.05427374726407494,"2":-0.23385835666739935,"3":-0.04914355708107095,"4":-0.03835935876004362,"5":-0.019844316397197102,"6":-0.035933990894943674,"7":-0.14527440492368288,"8":-0.1856207699511056,"9":0.023075514596561996,"10":-0.023289009302841314,"11":0.09775873461045298,"12":-0.18767581411086548,"13":0.24403943619211474,"14":0.05576527048836127,"15":-0.10026701898842022,"16":0.15830977868278648,"17":0.022084901439366943,"18":0.12483702135298433,"19":0.11080826626848835,"20":-0.06014936517699512,"21":-0.10502380739755578,"22":-0.0916646087484144,"23":0.0927378891874733,"24":-0.11028100453085377,"25":0.22187274636094287,"26":-0.12064398617686989,"27":-0.07217191238213683,"28":0.10320725345894052,"29":0.1253539421893784,"30":0.16578905112925693,"31":0.018834914478062556,"32":0.03142971525843692,"33":0.12930099366443457,"34":0.02003204212698664,"35":0.0676549092311538,"36":0.14641162343232875,"37":0.003284112818660885,"38":-0.07651388041761213,"39":-0.25629298423411784,"40":0.048223926225772006,"41":0.13024198785730337,"42":0.06476637093995044,"43":0.10044470844826622,"44":0.12901028981721663,"45":0.10359327131615734,"46":-0.07717216891098014,"47":-0.013899885477093787,"48":0.010372330651070865,"49":0.03901554217014853,"50":0.022910909013101804,"51":0.024269626825236746,"52":-0.029117860105703827,"53":-0.1899156245581768}},{"sx":1,"sy":1,"depth":54,"w":{"0":-0.038351789838601755,"1":0.021976004476793327,"2":0.2241385510272592,"3":0.04025119459881473,"4":-0.018127120803519633,"5":0.0347424821425401,"6":-0.017539992670456136,"7":-0.001251477901204788,"8":-0.06271791906841767,"9":0.10365773765057673,"10":0.009583085536833676,"11":-0.006148820731878571,"12":-0.1387833774949204,"13":0.031074164745836456,"14":0.20494237151975261,"15":-0.10794166413206208,"16":0.02832730251429893,"17":-0.02021073921746366,"18":-0.11366903812196529,"19":-0.019207677833019576,"20":0.08228435994746468,"21":-0.06905936884376351,"22":-0.06833767844855146,"23":-0.13084998549659713,"24":-0.07450506061428726,"25":0.030133433887293552,"26":0.021724681554026647,"27":-0.18718011150819847,"28":-0.0223060458393565,"29":0.18517388406550542,"30":0.2754514109814403,"31":0.012217388128507905,"32":-0.07198658336514041,"33":0.027062283673880576,"34":0.1275810525032252,"35":-0.0025575357896722374,"36":0.10328225895845004,"37":0.1449962279924454,"38":0.11316881902622267,"39":-0.023886732792092656,"40":0.20542403453880476,"41":0.09948676933928624,"42":-0.13193023617404462,"43":0.014878180685095478,"44":-0.03648295987623842,"45":0.13873614134023177,"46":0.22144340637838666,"47":0.04982405437146101,"48":-0.05714472860470117,"49":-0.04479311140032301,"50":-0.05948051222413617,"51":0.12619248220899926,"52":-0.16629507413202546,"53":-0.0747918421069421}},{"sx":1,"sy":1,"depth":54,"w":{"0":-0.10805552841671975,"1":-0.0955576207095328,"2":-0.06905536876923664,"3":-0.017961742111022798,"4":-0.007208357022760043,"5":-0.15056215793659075,"6":-0.01014138548816508,"7":-0.21669285852485715,"8":0.09157396587532948,"9":0.045088090821534546,"10":-0.12313849017192766,"11":0.07439302932600056,"12":0.09551101879670257,"13":-0.008507043286481756,"14":0.2336195371859601,"15":-0.21246229392165678,"16":0.16264376076462986,"17":-0.0879934196084456,"18":-0.05299498351009723,"19":0.05380295858786278,"20":0.16920142364279556,"21":-0.09609034724325895,"22":0.08987464591150193,"23":-0.0013853916231789227,"24":-0.003428625949291343,"25":0.23571167741306878,"26":0.11402658959809586,"27":-0.054995029664122196,"28":0.0846436894373475,"29":0.08116914963218465,"30":-0.052112834640655935,"31":-0.07366044070447508,"32":0.014285490814211738,"33":-0.0034469424869124467,"34":0.1661251493221535,"35":-0.015132494209501149,"36":-0.13731067388346815,"37":-0.03215103891618551,"38":-0.02589528398084929,"39":0.2986873108764054,"40":0.04021250097271809,"41":-0.11956833329895106,"42":-0.02306955598060036,"43":0.14746597324138455,"44":0.0649639282463962,"45":-0.1715406929129423,"46":-0.27006733643378167,"47":0.0680226347811619,"48":-0.06557040843468867,"49":0.10972911295418454,"50":0.25822171791766274,"51":0.07619535697560655,"52":0.251051985083263,"53":-0.0565996473487021}},{"sx":1,"sy":1,"depth":54,"w":{"0":0.025346180263415695,"1":0.2524975087367698,"2":0.10000822456693005,"3":-0.12079751453161316,"4":0.20120545056397862,"5":0.13910250634349755,"6":0.06277593401920105,"7":0.0987266844692322,"8":0.13329319540019885,"9":0.07035390523826962,"10":-0.14571678006701716,"11":-0.16045223810757897,"12":-0.053620302845491616,"13":-0.03856530990195794,"14":0.012331217190995829,"15":-0.03886349198729102,"16":-0.06951786396342498,"17":-0.10424703286468698,"18":-0.036057764963520554,"19":-0.16013180951639552,"20":-0.02964844647392164,"21":0.09020326013323364,"22":0.24611861603823107,"23":0.13079723053565112,"24":-0.07114133359593183,"25":-0.030442765642045407,"26":-0.13744431375097807,"27":-0.10324525532492664,"28":-0.1254919245447684,"29":-0.009671693862083714,"30":0.0877217537753797,"31":-0.19921237739035505,"32":-0.12561329982342867,"33":-0.20365523737835578,"34":-0.24076885387861133,"35":0.0032609093653092843,"36":0.0584586071627109,"37":-0.1707144559615931,"38":0.05123912709335136,"39":-0.16236372507358202,"40":0.18654940614222143,"41":0.16322803927350427,"42":-0.03237740202750026,"43":-0.01147616327007945,"44":0.0141977889803087,"45":0.07802868729811145,"46":-0.02337617490268093,"47":-0.3327194808054304,"48":-0.0387680153065831,"49":0.055116954802664736,"50":0.0676003977659289,"51":0.0346807730987828,"52":0.2296221184059505,"53":0.18609104782259478}},{"sx":1,"sy":1,"depth":54,"w":{"0":-0.1274524854459412,"1":0.006231687285761243,"2":-0.049220981796902624,"3":0.06226795228472585,"4":0.12919195510924272,"5":0.1601572363598606,"6":-0.01614702136679944,"7":-0.005138910417399129,"8":-0.07637384657147635,"9":-0.22169834694976367,"10":-0.15899432442951122,"11":-0.17550289885320275,"12":-0.13177370667728136,"13":-0.13913526077360253,"14":-0.021832495400895893,"15":0.08610204760882495,"16":-0.09288051082791253,"17":0.05184008936212232,"18":0.13141356056545977,"19":-0.11092717362923081,"20":-0.13172790114695573,"21":0.07931026173966049,"22":0.07800828623123594,"23":0.03400684646339883,"24":-0.05616990090678264,"25":0.005168715939280689,"26":0.20083987833088954,"27":0.01669129014807562,"28":0.0064762488294833,"29":-0.05658089292600209,"30":0.09105242005701607,"31":-0.00040136081937076353,"32":0.024726648409478743,"33":0.141156453722045,"34":-0.10137941898703787,"35":-0.07153556310619655,"36":0.12973084843430968,"37":-0.03272635157310816,"38":-0.08353487622534775,"39":0.09505650194775306,"40":0.02246489739227787,"41":-0.017206645382590893,"42":0.03798905731036217,"43":-0.2270227485157777,"44":-0.2702109476758578,"45":-0.0429195651355097,"46":0.18965880020387413,"47":0.21052273896671414,"48":0.04463326241389406,"49":0.06538196214477733,"50":0.05654536702060351,"51":0.15877864045721266,"52":0.2492586133081396,"53":0.07163479303556798}},{"sx":1,"sy":1,"depth":54,"w":{"0":-0.09316378393183417,"1":0.09979559814344686,"2":-0.1699345007154159,"3":0.2722879568574691,"4":-0.05634111362419742,"5":0.008651500889476412,"6":-0.09279948119515467,"7":0.08317303159266476,"8":0.005097682020812179,"9":-0.019047649904854844,"10":0.12972341319310843,"11":0.20019384336364338,"12":-0.2511144388906412,"13":0.11386552711181408,"14":-0.031117582399149926,"15":0.09347362429114017,"16":0.008293593720199331,"17":-0.015791500927495008,"18":-0.08924400057757322,"19":0.07036861276579388,"20":-0.05779788486339997,"21":-0.14179169410408504,"22":0.0018346287628307728,"23":0.18467481820992315,"24":-0.17382725740442848,"25":-0.000592534454165357,"26":0.042809910181665,"27":0.20174804867336582,"28":-0.04528219902138228,"29":-0.15263316093263424,"30":0.14628898873817325,"31":0.1405786368186315,"32":-0.026077642545221633,"33":0.005338829412052332,"34":-0.09044798011373437,"35":0.277913550921234,"36":0.2636711183654582,"37":0.021235897176649234,"38":0.37355086828694484,"39":-0.01563946605142949,"40":0.14035181313777567,"41":-0.029274341344183264,"42":-0.03298536194865457,"43":-0.1263039230526601,"44":0.1752820840005489,"45":0.09898803045262089,"46":-0.09606497430646191,"47":-0.024760366130656308,"48":-0.14327492109525344,"49":0.0015308295020860494,"50":-0.05494881920049115,"51":-0.07023980649141416,"52":0.07656463884608933,"53":-0.25720366504766023}},{"sx":1,"sy":1,"depth":54,"w":{"0":-0.03844185260419025,"1":-0.10631371920826041,"2":-0.18352656437801168,"3":-0.2102571632652839,"4":-0.019825957886118344,"5":0.032570413863198706,"6":0.07444535160206625,"7":0.14321030961022718,"8":0.1469800015778096,"9":0.014737389041337179,"10":-0.08986523474368194,"11":-0.05682158869746112,"12":0.04855318527992133,"13":0.01357636539870954,"14":0.01994960828250957,"15":0.25896962490885145,"16":0.1762287530509091,"17":0.023583576620911498,"18":0.1613361311006091,"19":0.10561073315241472,"20":-0.011242627575828645,"21":0.07887415612058607,"22":0.11763221477537904,"23":-0.14311571821032326,"24":0.07640248245901687,"25":-0.02178905345218905,"26":-0.2014509467123827,"27":-0.013400625210396555,"28":-0.03182579837696055,"29":0.031218892024356272,"30":0.015478643913643708,"31":-0.08249245073324965,"32":0.030751687478027916,"33":-0.15798250816465279,"34":-0.06508219610893638,"35":0.14974396250958422,"36":-0.0873192676367988,"37":0.006077839471967541,"38":0.24909135180290934,"39":-0.012884350330573155,"40":0.15940709440568582,"41":0.17315096970479552,"42":-0.0347272661482744,"43":0.00293494007439894,"44":0.2702048400567134,"45":0.07289555028979577,"46":-0.010659572480282797,"47":-0.15655724252466124,"48":0.16704879718587837,"49":-0.02272074503824961,"50":-0.12655432311459988,"51":-0.06856630260162465,"52":0.008315962230104083,"53":-0.06183545130697085}},{"sx":1,"sy":1,"depth":54,"w":{"0":0.09225934139543886,"1":-0.05334180425083049,"2":0.05169978970480806,"3":-0.12648306915082724,"4":0.02291571397358797,"5":0.006192836817145328,"6":-0.01588414247384172,"7":0.0024254258160762245,"8":-0.001077240997204643,"9":0.019797798674926727,"10":-0.08420422453646306,"11":-0.05314718251782193,"12":-0.07183083936807287,"13":-0.24230606633088053,"14":0.010683261081378724,"15":-0.0035219258572824386,"16":0.09722681853689637,"17":-0.05664561680262482,"18":-0.15444230820980798,"19":-0.04215913092888134,"20":0.108747933902096,"21":-0.24553105800235792,"22":0.09266242940002793,"23":0.11763445625956062,"24":0.08188214704977419,"25":-0.06536007740517798,"26":0.04302268749808788,"27":0.06799215700672527,"28":-0.14632097931697913,"29":-0.0422701424692141,"30":-0.13674095987227766,"31":0.257956892489276,"32":0.0742460412750498,"33":-0.115815093341142,"34":0.02858344388013848,"35":-0.2382486147523224,"36":-0.023572229275886564,"37":0.04908344725474487,"38":0.13045567108585826,"39":-0.01666197481421515,"40":0.11971115940683698,"41":-0.15038708742696835,"42":0.14101690104857728,"43":-0.11170675534729296,"44":-0.05514184262369695,"45":-0.23233883566651836,"46":0.18474815459458882,"47":-0.17796874553606468,"48":-0.07440790635046461,"49":0.18223326737022627,"50":-0.16310017328537998,"51":0.032200225827677,"52":-0.1699280352772376,"53":0.18387679876454377}},{"sx":1,"sy":1,"depth":54,"w":{"0":0.03992320169220036,"1":0.193043772774218,"2":-0.2579861476541832,"3":-0.16521922190499008,"4":-0.0983652469811077,"5":0.004965269798493935,"6":0.014147917427591557,"7":0.16922342083474134,"8":-0.1882474062006047,"9":-0.03476043727843663,"10":-0.08451942361704462,"11":-0.18239759719355308,"12":0.03699291047475232,"13":0.04201131536086628,"14":0.08644675149253406,"15":-0.13961886402164136,"16":0.04627551568001169,"17":0.06484837325819805,"18":0.1847503861825625,"19":-0.014447930240491806,"20":-0.06233737632764694,"21":-0.1881975333743975,"22":-0.08963248372796458,"23":0.019253099299947892,"24":-0.01506799665441742,"25":-0.0765633993909015,"26":-0.16125892306467318,"27":-0.12092444253319252,"28":-0.1268841853767538,"29":0.19322137342034423,"30":-0.16247091674013842,"31":0.08744735789342412,"32":0.04410909729913313,"33":0.07858524959165872,"34":0.06915989895900224,"35":0.047820469650565446,"36":0.021667474279875948,"37":0.16046667198147938,"38":-0.15078966082041403,"39":0.10890593266060865,"40":-0.07508287522685658,"41":-0.08712986459942167,"42":0.07278889689503873,"43":-0.04244230123309129,"44":0.15378790071094403,"45":-0.04177034891603835,"46":0.06546391879558525,"47":-0.21147497097637136,"48":-0.01603415723162725,"49":0.008656461392771653,"50":-0.016424974253472384,"51":0.002297971058790869,"52":-0.034525408988429686,"53":-0.0031588147422010973}},{"sx":1,"sy":1,"depth":54,"w":{"0":-0.1953254290967555,"1":-0.046338715458496355,"2":-0.1143176604225947,"3":-0.0959544012973744,"4":-0.08872889194209274,"5":-0.007504040324424752,"6":-0.052434912915572535,"7":-0.14701565156316224,"8":-0.0018271840164490016,"9":-0.19504638652799577,"10":-0.08180520890508934,"11":-0.0135703899858902,"12":0.31036036956170443,"13":0.07988206550523219,"14":-0.0452573575068165,"15":0.18329042659314287,"16":0.034577459543810855,"17":-0.009132544398470936,"18":0.0018951078678122052,"19":0.04894444600247099,"20":-0.27157560794838254,"21":-0.0760850786308197,"22":-0.10976344331993691,"23":-0.15527366438172166,"24":-0.010174717356207182,"25":0.011483755215553974,"26":0.24231474504438844,"27":-0.34648108544150663,"28":0.29396518741454475,"29":-0.1411336903382742,"30":-0.13132080218591974,"31":-0.10090280791564882,"32":0.021602165462955784,"33":-0.07331670172589841,"34":-0.08132787158539241,"35":0.05015520791718044,"36":0.21099291786289184,"37":0.028825572557415562,"38":0.09701400150353569,"39":-0.08983611812737659,"40":-0.08481606380072765,"41":-0.23992331051898966,"42":0.047691853370023386,"43":-0.10668631972824447,"44":-0.13871247558028812,"45":0.1726823979519845,"46":0.04738255134647532,"47":-0.05784584063494899,"48":0.04014571765854071,"49":0.021939323336031005,"50":-0.07126971390663746,"51":0.010988582640327546,"52":0.14436880629262122,"53":0.04594194196119276}},{"sx":1,"sy":1,"depth":54,"w":{"0":-0.13060306208523673,"1":0.13763725566803697,"2":0.042518077036290514,"3":0.21570536738385276,"4":-0.11927027497515205,"5":0.09096720932693554,"6":-0.02014628242331506,"7":0.2185539339863472,"8":-0.20089551396839544,"9":0.01738725291579416,"10":0.07368367250090302,"11":-0.21001403930268808,"12":-0.0524582002529067,"13":0.004277701761823662,"14":0.03281672798364921,"15":-0.1272067372406506,"16":-0.2198399984060098,"17":0.1734303729059186,"18":-0.07821570417416412,"19":0.0009507371673095899,"20":-0.013905562107050148,"21":-0.2193825775755253,"22":-0.08579561332654614,"23":0.06517425217279173,"24":0.01295703409589174,"25":0.11888889023971808,"26":0.021046806783209363,"27":0.21483602476184524,"28":-0.009687627652914164,"29":0.029438632354546312,"30":-0.09646787376973423,"31":-0.1449858183167424,"32":-0.17100182723698848,"33":-0.21536679102658304,"34":0.024959176622093363,"35":0.19430945360504273,"36":-0.08161620871043203,"37":0.09516166770735594,"38":-0.10841113117558433,"39":0.08745034448725171,"40":-0.04966530658751184,"41":0.13908766117961224,"42":0.14917342563177827,"43":0.061232935196590024,"44":0.03207190208249869,"45":-0.036654254081273416,"46":-0.09049723363148456,"47":0.16913134990705378,"48":-0.07138307067407747,"49":0.1327318209975611,"50":-0.0006585568542197283,"51":-0.13522966728112748,"52":0.07529466914796282,"53":-0.027805030368006863}},{"sx":1,"sy":1,"depth":54,"w":{"0":0.017616029709863056,"1":-0.29150160893386085,"2":0.11572686083291173,"3":0.08711089279993586,"4":-0.07224902884172571,"5":0.15284693186670884,"6":0.1177447334633531,"7":0.029835567064104222,"8":0.0017419015203534202,"9":-0.11980745242616889,"10":-0.06954589017002626,"11":0.17044255730447583,"12":-0.004494842802673573,"13":0.2930670062299002,"14":-0.260617723127466,"15":0.08352246170138836,"16":-0.15095027718267232,"17":0.12514981175075263,"18":0.24289621421995228,"19":0.12147897190278537,"20":-0.021124383672614936,"21":-0.2502262045316037,"22":0.19075983959884207,"23":-0.03942383287076908,"24":0.14168292062342897,"25":-0.0298138390345783,"26":-0.013955432952353358,"27":0.07766205508842253,"28":-0.07707912214762677,"29":-0.1725107879124352,"30":-0.08398123597821203,"31":0.07777648990745674,"32":0.14645056342005255,"33":-0.05176852019328671,"34":-0.00596950908954134,"35":-0.1301357733966977,"36":-0.06577367891411161,"37":-0.044028526187775634,"38":0.10968089647321773,"39":0.12549531398552183,"40":-0.029416148386786717,"41":0.14786164488816606,"42":0.05752136894195096,"43":-0.03591563787683635,"44":-0.06686892093523494,"45":0.1451151230634398,"46":-0.36035178341313256,"47":0.14954772015971368,"48":0.08769707651803593,"49":-0.2000847325751106,"50":0.17098056482775084,"51":-0.06376018251182093,"52":-0.15977097442531704,"53":0.010973471173373637}},{"sx":1,"sy":1,"depth":54,"w":{"0":-0.13507025911010376,"1":0.027771282500612563,"2":0.09644808451789147,"3":0.1166590315566766,"4":-0.05294911421915889,"5":-0.19354914737049167,"6":0.005016380517744771,"7":-0.003946396424257631,"8":-0.0293081299520029,"9":0.021784491681005644,"10":-0.034365365444890224,"11":0.33682611019624653,"12":-0.11396701768601843,"13":-0.015407929468855877,"14":0.07719025855936305,"15":0.012645438426004522,"16":0.07678469115757311,"17":0.09014101437712692,"18":0.22713510298806758,"19":-0.16985051224718004,"20":-0.005173264708243424,"21":0.010067164268885874,"22":0.28940341741031506,"23":0.009300633374965542,"24":0.12132957297063116,"25":0.2059215835782609,"26":-0.2813134685828002,"27":-0.019209808727232422,"28":0.3006723615163092,"29":0.051745768611500986,"30":-0.055222480952304004,"31":-0.12708405228944805,"32":0.06623337277501713,"33":-0.09903267860069462,"34":-0.11494776055550132,"35":-0.24966819939004975,"36":0.04655884900485078,"37":0.19761935224373736,"38":0.012163495742404586,"39":0.26814294415594314,"40":-0.14144812337154658,"41":0.21563124702271924,"42":0.035589673429997,"43":-0.05683809212790388,"44":0.01566730977980916,"45":0.1868504447004044,"46":0.1147936737639395,"47":0.014594581628583955,"48":-0.05772527286152728,"49":0.2595583521388189,"50":-0.14341122123886493,"51":-0.06895790101715085,"52":0.024716663119114763,"53":-0.052204468743224305}},{"sx":1,"sy":1,"depth":54,"w":{"0":0.10747608005892367,"1":0.24881849241789725,"2":-0.20152479537408627,"3":-0.18865764420739506,"4":0.022326534177325302,"5":0.08408956915569515,"6":-0.10012610576409783,"7":-0.1665224566738889,"8":-0.0025149092896804667,"9":-0.37750659613055654,"10":0.06841144870892683,"11":-0.2542894512132647,"12":-0.205622202677464,"13":-0.1496718945322302,"14":-0.04160835918677448,"15":0.08107019386195626,"16":-0.0447195707871442,"17":-0.1261301081828965,"18":0.1785413829332917,"19":-0.013115174727447098,"20":0.13674698617374095,"21":-0.001639919627313659,"22":0.11728785685187257,"23":0.0781009413342001,"24":-0.08583258443493429,"25":-0.10034542582738157,"26":0.0024206672700036523,"27":-0.09859048129177271,"28":0.020902610694919395,"29":-0.12704136146286119,"30":0.05884253623252033,"31":-0.028858778846395497,"32":-0.112842042355596,"33":-0.03760242404785345,"34":-0.016114720316540144,"35":0.011264345429343499,"36":0.053513180646414915,"37":0.16354873976578915,"38":0.17883859524006293,"39":0.03526830070382947,"40":0.17683387517860544,"41":-0.08258427157870754,"42":-0.03933319487848304,"43":-0.03902137321576176,"44":-0.15959578794987758,"45":-0.16017831418056713,"46":-0.11123420951259327,"47":-0.020518926563729514,"48":0.05534179242042946,"49":0.06561111383491708,"50":0.08310875756436807,"51":-0.2515081817547811,"52":-0.15135238596048797,"53":-0.08009496153540481}},{"sx":1,"sy":1,"depth":54,"w":{"0":-0.30118774797850173,"1":0.09024682978850873,"2":-0.01322123017921667,"3":0.09329937566479637,"4":0.17702417860891947,"5":0.20184928492914742,"6":0.09521714182075043,"7":0.04368128559372372,"8":-0.0363482488723927,"9":0.06088318145287949,"10":0.000671081328183414,"11":-0.08235489177067874,"12":0.19306732269553506,"13":-0.15224186719868063,"14":0.3010069398560394,"15":-0.13266090601611544,"16":-0.058920443070499325,"17":0.025027998200787892,"18":0.059684920614517314,"19":-0.0803885581578015,"20":0.22597923863385302,"21":-0.1543062245720448,"22":0.128546765629727,"23":0.04697600033770624,"24":-0.3017887218396784,"25":0.1056188641742263,"26":-0.25559471131900224,"27":-0.08831263123431368,"28":0.022512579402101253,"29":-0.04783560526514904,"30":0.0780950776212749,"31":-0.0809873340893706,"32":-0.27498361145704786,"33":0.08127326172768638,"34":0.09518515351073072,"35":-0.13942198995698316,"36":-0.06651163617104171,"37":-0.0011495724573653853,"38":0.17469827828665335,"39":-0.10155248960885463,"40":-0.3572989271896115,"41":0.08604063958390949,"42":-0.03395445879873297,"43":0.07653529422270973,"44":0.2527392431827209,"45":-0.0019662335034050927,"46":0.06876206602629566,"47":-0.10617237929140497,"48":0.08029611471618256,"49":0.019958907647005118,"50":-0.23943947462975493,"51":0.09643957055569807,"52":-0.14808257721390683,"53":0.025891721106820323}},{"sx":1,"sy":1,"depth":54,"w":{"0":-0.03355529736860694,"1":0.11224650028838465,"2":0.13585316608683393,"3":0.009761790305989197,"4":-0.350824731850781,"5":-0.20458390734841272,"6":-0.05795961453329024,"7":0.047918958760546526,"8":0.08662288026756837,"9":0.13870414448749327,"10":0.017314158466448168,"11":-0.04037355406520521,"12":0.09380038276207248,"13":0.38560277531157494,"14":0.15360139774007986,"15":0.10915135268038399,"16":-0.05628976948571131,"17":0.1044981869077471,"18":0.08935968391878821,"19":-0.04242430275469674,"20":0.11355514555366504,"21":-0.12937971757149205,"22":-0.00643664923816282,"23":-0.09644636637632745,"24":-0.1449442454788532,"25":0.0951344408145246,"26":-0.09524054510263977,"27":-0.12251175816132233,"28":-0.01887735583547317,"29":-0.008993320865063317,"30":0.012331630724898597,"31":0.056300766616976215,"32":0.054860223883003545,"33":-0.06165706622597265,"34":-0.01998124483506324,"35":-0.1429016232475448,"36":-0.23100709690794036,"37":-0.08304151929966812,"38":-0.09869883844017453,"39":-0.003382041703192313,"40":-0.3259369868186069,"41":-0.1046782126791342,"42":-0.03442534666822273,"43":0.08936219157781519,"44":-0.04390957091664373,"45":-0.12989171963502114,"46":0.027734501382385153,"47":0.10239576480579644,"48":-0.09181343018186883,"49":-0.06482341772929376,"50":-0.05754103950198889,"51":-0.00855699534871882,"52":0.13517890563856497,"53":0.003965941309237814}},{"sx":1,"sy":1,"depth":54,"w":{"0":0.06299903557061885,"1":-0.020712457624718097,"2":0.0033124259030816654,"3":0.17190881866480076,"4":0.006055991897832396,"5":-0.060824112813977864,"6":-0.08145153307766652,"7":-0.006130840810179814,"8":-0.0667742256110638,"9":0.15300721633766523,"10":0.18403336765970207,"11":0.09766757283242004,"12":0.029362384376729087,"13":0.12432762796369916,"14":-0.05658577120299919,"15":0.19634731669251168,"16":-0.23219704932675658,"17":-0.1629076724098132,"18":-0.059422475954027644,"19":-0.005611083253819204,"20":0.048200058893726014,"21":-0.06479291373609322,"22":0.020537143071299196,"23":-0.08833250028955743,"24":0.3262334825486324,"25":-0.14128201193929768,"26":-0.05228168640515285,"27":-0.14516136301288904,"28":0.008384196966160027,"29":-0.11309683137386849,"30":0.0297239042216582,"31":-0.2519998298239827,"32":0.13209262255273244,"33":0.06787105885888083,"34":0.0629815098822549,"35":0.14671169732263425,"36":0.041690387706274576,"37":0.15117634714361214,"38":-0.009553465472264199,"39":-0.15475444713977038,"40":0.14254337088980906,"41":0.011309716706821167,"42":-0.019797836346221693,"43":0.051255343387093234,"44":0.14951987862058969,"45":-0.0033574494243451343,"46":0.11478182943919396,"47":0.02883439361780856,"48":-0.23767539395454768,"49":-0.14756640508433178,"50":0.09402709725557971,"51":0.1839579482333715,"52":-0.04072870200330664,"53":-0.14794815705092246}},{"sx":1,"sy":1,"depth":54,"w":{"0":-0.04517260572144651,"1":0.1774116294636638,"2":0.03589725223904915,"3":0.11931337928022784,"4":0.038489923390818914,"5":0.13345014444655887,"6":-0.0035275069994839224,"7":0.06563097633413639,"8":0.26856027908121416,"9":-0.10199408826076725,"10":-0.06900974057493774,"11":-0.010473855441814894,"12":-0.04864709390036681,"13":0.15647878134293366,"14":0.124412920280854,"15":0.034760865535068936,"16":0.026881889767113365,"17":0.254655282906044,"18":-0.005409078032076837,"19":-0.1479471600020459,"20":-0.007866155565529383,"21":0.05723965799788942,"22":-0.08513043240114697,"23":0.0013161384888204072,"24":0.035021353610115394,"25":-0.2194699501384642,"26":0.11296920210048514,"27":0.028900421894885828,"28":0.10882202794682087,"29":0.09991988983997523,"30":0.208818283078461,"31":0.0754760858828197,"32":0.046151750472411296,"33":0.049015100897181946,"34":-0.08609063127886174,"35":0.06088062148491498,"36":-0.07001616847303646,"37":0.05321511958049468,"38":0.052831004560640014,"39":-0.08885725797684307,"40":0.2757501133582175,"41":0.08386691571901381,"42":-0.033916189995072676,"43":-0.03526901791453862,"44":-0.07612226028544418,"45":0.03316797903282588,"46":0.09168480579741069,"47":0.06430349829948216,"48":0.000558187457915341,"49":-0.03725922397762315,"50":0.01713175302563182,"51":0.08206691861044621,"52":0.16106383415437056,"53":-0.13503889291864563}},{"sx":1,"sy":1,"depth":54,"w":{"0":0.13324326183289262,"1":-0.0817564278407026,"2":0.07574225002571397,"3":0.03529644025111984,"4":0.1243264259851464,"5":0.04321618395419588,"6":0.015975006303813984,"7":0.0918900189180087,"8":-0.06138069000771887,"9":-0.11780660597283063,"10":-0.16548828941772806,"11":-0.03324972058732807,"12":0.04000155016674476,"13":0.09489405375052852,"14":0.09297347872689682,"15":0.2513518721253977,"16":0.14572403985129723,"17":0.012360339634607483,"18":-0.07611848367881408,"19":-0.014165430474037675,"20":0.04642366923545193,"21":0.04079168244912816,"22":-0.019861172056117576,"23":-0.161249667458408,"24":0.02802441074801031,"25":-0.029995229998808094,"26":0.0417400455755544,"27":0.2122018640502838,"28":0.06973476246912604,"29":-0.0227021877080726,"30":-0.14822338422205206,"31":0.04036643024540555,"32":-0.05441521070967931,"33":0.15203728936249197,"34":0.03070083513037636,"35":0.1354730025229991,"36":-0.3709887224351115,"37":-0.07643924208663185,"38":0.14890675800754025,"39":-0.20705687057492933,"40":-0.28242952351633394,"41":0.008924989050834485,"42":0.023153618901522663,"43":0.1478809078486816,"44":-0.06434807409862357,"45":-0.06942241317398774,"46":0.08606338718155696,"47":-0.09710105366298215,"48":-0.019174424758815492,"49":0.06924809703647355,"50":-0.05826248142765503,"51":-0.0305910783456847,"52":0.009792014751793853,"53":-0.0843562925516749}},{"sx":1,"sy":1,"depth":54,"w":{"0":-0.15296850741340107,"1":-0.034245777771540635,"2":0.28671429226898065,"3":0.02743982719472199,"4":0.13985364907872389,"5":-0.1808461396304929,"6":0.03183501983973199,"7":-0.05839220823136167,"8":-0.006192929153521536,"9":0.04351040016689586,"10":0.12995426464419402,"11":0.11603665754650336,"12":-0.01846663553867026,"13":-0.17452714792830867,"14":-0.07934668230054884,"15":-0.22312583156669602,"16":0.02640963335818041,"17":-0.10476583120130835,"18":-0.04406449501715921,"19":0.06655584823246793,"20":0.14554490431824874,"21":0.03490939862201268,"22":0.0493455033929928,"23":0.0828500823063967,"24":-0.06408506806707073,"25":0.040600526909183,"26":0.13224156118294483,"27":-0.1680684783587914,"28":-0.10430798321164576,"29":0.11457380853401851,"30":0.2241220321727655,"31":0.049006648322381524,"32":-0.04648490580350251,"33":0.0972032287954248,"34":-0.05450714681633863,"35":-0.07500304351524727,"36":-0.059715514587783916,"37":0.03452560907088373,"38":-0.13882952996884548,"39":-0.0399637967036611,"40":0.2771997186922212,"41":0.21977080640605062,"42":0.261750191604506,"43":-0.0628351974027866,"44":-0.11705966325883493,"45":-0.2560030576518883,"46":0.04647805610731101,"47":-0.1182433579204671,"48":-0.2924736102532158,"49":0.2161380427518513,"50":0.22140236029019378,"51":0.11829807539299647,"52":0.11436080424206004,"53":0.026152978052197132}},{"sx":1,"sy":1,"depth":54,"w":{"0":0.14427244906068326,"1":-0.1524590299109787,"2":-0.05108556480707999,"3":-0.3278567711477286,"4":0.06473478177644944,"5":-0.06179605031299516,"6":-0.0739313241530382,"7":-0.015004256167335356,"8":0.14107479674148404,"9":-0.07804203367010457,"10":-0.031197675168859417,"11":-0.19895208380473928,"12":-0.07535183153987902,"13":-0.04673624089996739,"14":-0.3184454957636799,"15":0.026497445828870977,"16":0.05418531801609335,"17":-0.10701927450812142,"18":-0.1075675446264181,"19":-0.07448403041586693,"20":0.15662278691215317,"21":-0.07031412797803817,"22":0.03409840907091296,"23":0.11365359962692469,"24":0.24163777064571762,"25":-0.012992339077609704,"26":0.12234845691483283,"27":-0.022238244489896645,"28":-0.13490241156916155,"29":0.028892128698965697,"30":-0.07398102431455955,"31":0.01647978432074145,"32":0.1894126141064532,"33":0.1190489872928591,"34":0.35960903338903527,"35":-0.0006448701452563615,"36":0.11188393438083218,"37":0.05647620402482565,"38":0.1556946117860154,"39":-0.18932191590741015,"40":-0.04797866750278853,"41":0.28618327687746814,"42":-0.12518709268229455,"43":0.04719154375805955,"44":0.15347409495858585,"45":0.08549318960255234,"46":0.19468401264722604,"47":-0.04106022284071357,"48":-0.3345028476772055,"49":-0.06513023377651148,"50":0.10219179631984271,"51":0.04821501972247552,"52":0.09444724289201009,"53":-0.11285821443819485}},{"sx":1,"sy":1,"depth":54,"w":{"0":0.09286506085221147,"1":-0.029733877783757575,"2":-0.20961221057202736,"3":-0.06613951886909927,"4":-0.024611094497046956,"5":0.016479530238772116,"6":-0.18915362195505225,"7":-0.22194674846133441,"8":-0.11385892153373948,"9":0.12664706244345664,"10":-0.05473039251656796,"11":-0.0223947935940949,"12":-0.15283921930327324,"13":0.21884163568432052,"14":-0.11321775171006902,"15":-0.026778615030176738,"16":0.046013522672309806,"17":0.06156120611664307,"18":0.05994283221923373,"19":-0.10116471748387133,"20":-0.3495159477335966,"21":-0.02700662286369059,"22":-0.035872378730391175,"23":0.056246268540705135,"24":-0.044351358423464396,"25":0.1888766777513782,"26":-0.17754471887923481,"27":0.07428626538914639,"28":0.09254988493575012,"29":0.08463648541344249,"30":-0.10931432934639594,"31":-0.17270736023165997,"32":-0.1438413372192469,"33":-0.249353423147401,"34":-0.2826720427862798,"35":-0.010023409954693675,"36":-0.020154703882114877,"37":0.048149642046574466,"38":0.03381595979885307,"39":0.06806454824854243,"40":-0.0985344346878193,"41":-0.09116479404975221,"42":0.19443149548360003,"43":0.05656748731745998,"44":0.025086394789892885,"45":-0.11160495130748573,"46":0.11218430206640176,"47":0.23225036227712548,"48":-0.06761984435098202,"49":-0.13765892316944933,"50":-0.03229062241926289,"51":-0.006058305366453513,"52":-0.030203041500126412,"53":-0.03358641706415797}},{"sx":1,"sy":1,"depth":54,"w":{"0":-0.06350946083281693,"1":0.16564328571004314,"2":0.066391466536563,"3":-0.050551903509557954,"4":0.03570117308242174,"5":0.04160858441193865,"6":0.15706835360046092,"7":-0.03195852939741279,"8":0.16469775061929734,"9":0.050642054181473405,"10":0.10448907082874652,"11":-0.1530569143418872,"12":-0.004623272532837353,"13":-0.09468901227645123,"14":0.13134527841115595,"15":0.09668530428579007,"16":-0.1678461421651297,"17":-0.11096421669094654,"18":0.12384645967201938,"19":-0.041495486168485106,"20":-0.05480316421192683,"21":0.12918667136803344,"22":0.13280027968295877,"23":0.09764792664175813,"24":0.06624806825552963,"25":-0.0979137237370968,"26":-0.237710898574214,"27":-0.21506036955433278,"28":0.17619244296884917,"29":0.008105579233214897,"30":0.205096041602822,"31":-0.31831327493437633,"32":-0.10786259830603136,"33":-0.3595543816665004,"34":0.12240282006119754,"35":0.14388365071081785,"36":-0.011857056855265554,"37":0.08035428351563981,"38":0.039168938852541114,"39":0.1494709204809701,"40":0.005165003236915382,"41":-0.0226694041813559,"42":-0.02305846775757479,"43":0.173793440254883,"44":-0.10907385906815767,"45":0.0190019477545543,"46":0.10453315311264075,"47":-0.06817210797821946,"48":-0.012241524911614888,"49":-0.19988825633077525,"50":-0.06894420118771676,"51":-0.11919486518709588,"52":0.010722615933227092,"53":-0.08290274797929563}},{"sx":1,"sy":1,"depth":54,"w":{"0":-0.09616152104002272,"1":0.06848223659241567,"2":-0.15276241794693785,"3":0.04822510681323569,"4":0.10226477189376892,"5":0.011049527381139875,"6":-0.17964035513276572,"7":0.08962579786979055,"8":-0.23185532240306295,"9":-0.03065944750218555,"10":0.011600022973543941,"11":-0.08963050918384255,"12":-0.30965494800764554,"13":0.15348312896599667,"14":-0.06210409207935383,"15":0.15100242556075,"16":0.14918684286081849,"17":-0.02377141193721127,"18":0.05003521542916019,"19":0.05318293902579632,"20":0.009363534571783757,"21":0.20718920822269235,"22":-0.05639708784467967,"23":0.3195548690736903,"24":-0.10150305085481993,"25":-0.22132363543915717,"26":0.06272772332046883,"27":-0.1137949705548141,"28":-0.020091021583682114,"29":0.2428762352747188,"30":0.2644078780169779,"31":0.07295637113236272,"32":-0.173577998577702,"33":-0.015437450734994857,"34":0.10703118137354599,"35":0.1121558777136224,"36":-0.038632697796656845,"37":-0.018764044788322835,"38":0.18824843796862928,"39":-0.11358744506984612,"40":-0.10516535320171158,"41":0.14436895565978197,"42":-0.19163691201283317,"43":-0.06813595257719725,"44":-0.028474240586718314,"45":0.0693569222123668,"46":-0.08839778885480319,"47":0.0015363098610852058,"48":-0.18148290902936157,"49":-0.16789734116262797,"50":-0.10773893763613877,"51":-0.110873815709496,"52":-0.04941182889602183,"53":0.16050778744760508}},{"sx":1,"sy":1,"depth":54,"w":{"0":0.029119696877610263,"1":-0.07164177237616333,"2":0.08614108278627057,"3":0.20886524376917756,"4":-0.002135012269389074,"5":0.1789740424203226,"6":-0.03734533777993453,"7":0.11171829673848879,"8":0.21158661178537602,"9":0.012566589280084592,"10":0.058112906632647746,"11":0.1981810680010331,"12":0.008160117857617515,"13":0.014971574028327564,"14":0.06232824632035477,"15":0.18270470340965234,"16":0.0555975402872002,"17":-0.06543710078499525,"18":-0.20714292277827726,"19":0.12437178790688665,"20":0.09552270756080246,"21":-0.06101097167447739,"22":0.39325633084712913,"23":0.0017429713176974192,"24":-0.05196053371829748,"25":0.2185534395191909,"26":-0.2443464163127499,"27":0.025033745517831284,"28":0.047519038457754355,"29":-0.1970285997164948,"30":0.21210758771988847,"31":0.19873568051661814,"32":-0.13501808633027304,"33":-0.1420964210991506,"34":0.038128497182030256,"35":0.08767253517361843,"36":0.10205917895363031,"37":-0.14098101760641088,"38":0.030767446725024516,"39":-0.13676041913112358,"40":-0.21455188644242862,"41":-0.3668039034919849,"42":0.18082423137137552,"43":0.05382749094760777,"44":0.10134298150070097,"45":0.20567804859456973,"46":0.07693514963444724,"47":0.15327807129317306,"48":0.053235515306990784,"49":-0.052893714879302556,"50":0.0011518020871429241,"51":-0.07402713433432791,"52":-0.05815631239321579,"53":-0.03928741425119712}},{"sx":1,"sy":1,"depth":54,"w":{"0":-0.11077269204557945,"1":-0.15778928349991542,"2":-0.06495515285436122,"3":0.13337635935386224,"4":-0.05751966641321518,"5":-0.13106260534009814,"6":-0.039420961725325256,"7":0.22288922249984566,"8":-0.02660797330571712,"9":-0.023106972533928,"10":0.018451245288784005,"11":0.19761203486654993,"12":-0.23353644445783223,"13":0.19956651506634548,"14":0.26097842611283784,"15":-0.22876302507072752,"16":-0.11466043318471582,"17":0.17995577277550845,"18":-0.08292347651970637,"19":0.019001746137718024,"20":0.14304607987965595,"21":-0.08481830636446012,"22":-0.03240717650996548,"23":0.1129161839014294,"24":0.04288477618816407,"25":-0.0380750490792477,"26":0.004590619768821942,"27":0.08801287208298164,"28":-0.32945173623379803,"29":0.021304538010100522,"30":0.08926309175849434,"31":-0.04035971722441173,"32":0.29136545041923984,"33":-0.15850429283162962,"34":-0.14095157322770055,"35":0.10191118109479534,"36":-0.04772573437346109,"37":0.07827714014441728,"38":-0.13467465978262463,"39":-0.09513097572869,"40":0.10941704654565362,"41":-0.006438433720497187,"42":-0.07213880558033765,"43":0.08623889406577417,"44":0.05208536056571655,"45":0.2056686499847524,"46":0.20351917727585794,"47":0.04543061637120139,"48":-0.11469589339391299,"49":0.09585864706327085,"50":-0.0005302189427159725,"51":-0.22108542594574782,"52":-0.12216670732097928,"53":-0.12930874419588165}},{"sx":1,"sy":1,"depth":54,"w":{"0":0.0018721601854972574,"1":0.07725847679352256,"2":0.10964968019631917,"3":-0.16831698848117907,"4":-0.14768969245199473,"5":0.043658346235995474,"6":-0.1273987971240839,"7":0.03204285205114553,"8":0.08133949085912716,"9":0.13126686332211626,"10":-0.1043084380149686,"11":0.08643490024119205,"12":0.07758352345185662,"13":0.02113970831198693,"14":-0.15387027166352873,"15":0.2172095422347228,"16":-0.03050410427653502,"17":-0.12059284371492666,"18":0.26213844266788794,"19":-0.00992725575848034,"20":-0.1928391497222408,"21":0.15186570357835316,"22":0.18057580048150634,"23":-0.15559323652042456,"24":0.0646888428461833,"25":-0.0963833079274791,"26":0.030477866963882036,"27":0.02638323451493485,"28":-0.17962261647939537,"29":-0.13920216102994185,"30":0.05090204348847652,"31":0.013332669514707055,"32":-0.01777950108551087,"33":-0.12618580930485687,"34":0.2063866447634792,"35":0.056884246964064106,"36":-0.010191110445387761,"37":0.055995175617996475,"38":0.31554092218603097,"39":-0.14237415289947242,"40":-0.029383903587214648,"41":-0.023029570028262055,"42":-0.2707555245879361,"43":-0.006090856120916621,"44":-0.16926648765293423,"45":0.23752816039838567,"46":0.126153548153332,"47":0.056435422544350654,"48":0.11401188911837735,"49":0.058948562794839864,"50":-0.04461765351427758,"51":-0.08540496785034675,"52":0.09573743077845505,"53":-0.09540993005400154}},{"sx":1,"sy":1,"depth":54,"w":{"0":0.023195699874159034,"1":0.058251014284317344,"2":-0.060626140416558595,"3":-0.10554138006460978,"4":0.03734753127993573,"5":0.0633193348602141,"6":0.055559635360878344,"7":-0.07220002092531884,"8":-0.15892826928591122,"9":0.09573664011817137,"10":-0.05102330097416981,"11":-0.3418052531640184,"12":-0.01492520336148977,"13":0.17893490489242878,"14":-0.0189653497424679,"15":-0.08813613675348296,"16":-0.1317253498218528,"17":0.14916830859109675,"18":0.0673071098338008,"19":-0.04104957459006225,"20":0.08923715144613804,"21":-0.0007416680443502128,"22":-0.01015813718154347,"23":0.2760553339938388,"24":-0.24153202717690547,"25":-0.10124514103145281,"26":0.06501916908982822,"27":-0.20158568976827515,"28":-0.22811204671186333,"29":-0.20571507944640943,"30":-0.017024256633328832,"31":0.18824660691625864,"32":-0.1057203307280758,"33":0.15106293168671228,"34":0.13987923588397475,"35":0.04621190996179468,"36":0.18359900930273793,"37":-0.04768768973032926,"38":0.018417246449715242,"39":-0.20807151094792475,"40":-0.010514104153545208,"41":-0.02511580303686876,"42":0.13326239310874605,"43":-0.1556368245793844,"44":-0.04883914336551732,"45":-0.1859468378166477,"46":0.14297609422349072,"47":0.06117219035670729,"48":0.06428401233136889,"49":0.17125616638289043,"50":-0.196422886599311,"51":0.13119363407099058,"52":0.09070072252182425,"53":0.018483352254583713}},{"sx":1,"sy":1,"depth":54,"w":{"0":-0.05102652504872559,"1":0.23770402251801864,"2":-0.027443694091178535,"3":-0.037571400959705986,"4":0.07553896025600876,"5":0.0371926937464975,"6":-0.2862784665538853,"7":-0.04631439154223063,"8":-0.09840518688385386,"9":-0.11976893492145207,"10":0.02666497460229231,"11":0.03709258651967793,"12":0.10490332075228609,"13":0.122309167229146,"14":-0.11779524491944923,"15":-0.21031325313358967,"16":-0.1156878652749818,"17":-0.04395634260071686,"18":0.006363832391496958,"19":0.05300752333109241,"20":0.12681622584895588,"21":-0.03339694446316507,"22":0.04651080749452114,"23":0.0013517518163223589,"24":0.16581057731624962,"25":-0.055281298488331215,"26":0.269720713454135,"27":-0.042821403866045236,"28":0.11313675715647555,"29":0.19313574470848943,"30":-0.06452292073835388,"31":0.03587578863642255,"32":-0.12723397249540072,"33":0.15991386209419006,"34":0.07247668751672488,"35":-0.1233802818459254,"36":0.0975267277044528,"37":-0.1443618244655377,"38":-0.05155428336770943,"39":-0.10221540936346672,"40":0.006624634305934675,"41":0.1326863498628622,"42":0.15337005203243786,"43":-0.06783391972087618,"44":0.09745898419570011,"45":-0.006520429342022246,"46":0.25055404350822996,"47":-0.07402913660424579,"48":-0.1321808819392939,"49":0.026525704302828072,"50":-0.05610048109472161,"51":-0.16274678708221857,"52":0.08127720984388741,"53":-0.023538860846282053}},{"sx":1,"sy":1,"depth":54,"w":{"0":-0.16878673251475138,"1":-0.2774695964040911,"2":0.1221151113432237,"3":0.21628575474155434,"4":-0.33033154099888723,"5":0.021559626254185844,"6":-0.026107705105482507,"7":-0.08065285026577718,"8":-0.022829696933304437,"9":-0.0000278248662845299,"10":0.24600731703702178,"11":-0.02463976293559085,"12":-0.14522830854109905,"13":-0.024882218274541703,"14":-0.09064719043968131,"15":0.03846994453215282,"16":0.15286932031332798,"17":-0.03036392516008728,"18":0.04408083938599962,"19":-0.004938515739200653,"20":-0.22176544916317398,"21":0.012963916282775292,"22":0.0035351172677392344,"23":-0.10062365902231685,"24":0.09266676830648246,"25":0.08006003917136398,"26":0.07664995794150475,"27":0.13285705859229502,"28":0.13748973097594622,"29":-0.0991619949859832,"30":0.16386599497342563,"31":-0.17896212088351787,"32":0.19185519903835924,"33":0.16697164359246164,"34":-0.06355830137387093,"35":-0.0434435836372199,"36":0.08678336425502947,"37":0.21736202890409315,"38":0.10982721693198759,"39":-0.05468982047067311,"40":0.08270512939487075,"41":-0.30161543970400495,"42":0.11453794471392244,"43":0.07964373639147787,"44":-0.1394659925612798,"45":0.038185812094151485,"46":-0.0397289537820489,"47":0.11262106994569471,"48":0.07539735219877429,"49":-0.13278222111383545,"50":0.13488930515639366,"51":-0.1691448594169793,"52":-0.09222855487243715,"53":0.05566878560558132}},{"sx":1,"sy":1,"depth":54,"w":{"0":0.38173808693157973,"1":0.08058267056825737,"2":-0.05252856627113538,"3":-0.08509305008076874,"4":-0.13780657497299084,"5":0.10144167602044052,"6":-0.24202643018903294,"7":0.23048942352700483,"8":0.04345352318570175,"9":0.12414834513587837,"10":0.2825491859123693,"11":-0.2479535452749211,"12":-0.028445272370843384,"13":-0.14582328840868616,"14":0.09660670011257914,"15":0.0890013358849192,"16":0.10227963135371275,"17":0.06242032049378044,"18":-0.1527369418310549,"19":-0.16937786667628718,"20":-0.21136847146008517,"21":0.014024763822256434,"22":0.04698695753281095,"23":-0.037603144652526135,"24":0.21517050610395524,"25":-0.06493748267060953,"26":-0.24417055911182353,"27":0.024013418995031524,"28":-0.018945653255234358,"29":0.15855260371032576,"30":-0.08639138424971841,"31":-0.025378398256189753,"32":-0.14523229611428695,"33":-0.07062697448878621,"34":0.046993954558605354,"35":-0.024318978770202983,"36":0.24375451062652842,"37":0.0912898736489939,"38":0.12504250323048197,"39":-0.03667382390682882,"40":0.14327323719509408,"41":-0.11937256728654792,"42":0.018988029140431417,"43":0.11051904332662267,"44":0.0869854221346005,"45":0.21728605314617735,"46":0.11656283588272061,"47":0.048561201995259526,"48":-0.12416522849362516,"49":0.20682990857106837,"50":0.17222307945125123,"51":0.13636625542390687,"52":-0.22865827725192658,"53":0.03235949696976741}},{"sx":1,"sy":1,"depth":54,"w":{"0":-0.19063162662144365,"1":0.15312707722854654,"2":0.014202515688045257,"3":0.14911954939086125,"4":0.09185062241479612,"5":0.19688263926646435,"6":-0.03614483314119035,"7":0.009241872314439294,"8":0.09091404628112627,"9":0.14230859312710445,"10":0.02306775417803698,"11":0.07051621564971215,"12":-0.07271071029223995,"13":-0.1947060825209535,"14":-0.13434212983260727,"15":0.11385577993001644,"16":-0.10881107371105746,"17":0.1300538336074559,"18":0.09209652251556219,"19":0.1844424084383837,"20":0.24793416646626992,"21":-0.025890598540147254,"22":0.1670731919705092,"23":-0.18323675306186185,"24":0.01721810446452066,"25":0.04033592315276066,"26":0.0014877655484192283,"27":0.1665589774636154,"28":-0.10394615190121204,"29":0.08942517926029012,"30":0.2109099073384577,"31":-0.1369203615514888,"32":-0.093018936312159,"33":0.10694785927722716,"34":-0.06880993432853895,"35":0.16362725434583908,"36":-0.26259868693426763,"37":-0.03619873537074218,"38":0.0507110472837433,"39":0.06758723946278627,"40":0.11131341981293366,"41":-0.08061933598847111,"42":-0.15966971233817515,"43":-0.14018719707250196,"44":-0.11362575836703342,"45":-0.016233095504041534,"46":-0.27181300776538747,"47":0.22599659169368594,"48":-0.004690515183181637,"49":-0.12075247410024732,"50":0.1696524514344131,"51":0.07783803657101764,"52":-0.2553339716208512,"53":0.0772117029502062}},{"sx":1,"sy":1,"depth":54,"w":{"0":-0.11840287179821693,"1":0.02763061769378048,"2":0.10313632253686428,"3":-0.0818475823552797,"4":0.06009704051761685,"5":0.15470251151457365,"6":0.0068118834164358835,"7":0.04342883868235791,"8":0.07586159714392576,