{"layers":[{"out_depth":54,"out_sx":1,"out_sy":1,"layer_type":"input"},{"out_depth":100,"out_sx":1,"out_sy":1,"layer_type":"fc","num_inputs":54,"l1_decay_mul":0,"l2_decay_mul":1,"filters":[{"sx":1,"sy":1,"depth":54,"w":{"0":0.05962311161910015,"1":-0.03015018673418501,"2":-0.08239753234827742,"3":0.0047435577673703416,"4":-0.008731966733681287,"5":0.024056274992593777,"6":-0.00891975197338154,"7":0.03498099691927597,"8":0.055832161149869344,"9":0.06984282319335243,"10":-0.03685477473423109,"11":-0.031305410156090084,"12":0.029919497889542065,"13":-0.017407042630389235,"14":0.010726157324622933,"15":0.02409290626817348,"16":-0.057119108102240995,"17":0.035705708483504114,"18":0.011056724612788067,"19":0.03720235431044986,"20":-0.004925106195361418,"21":0.05280187499052174,"22":-0.02370918632343047,"23":0.008784777310977935,"24":-0.04925918650987823,"25":-0.031195359985062086,"26":-0.04044794174206032,"27":-0.015128224819995763,"28":0.04654271282364445,"29":0.03128920358127125,"30":-0.008854213643321876,"31":-0.03795319293919847,"32":-0.04068560667440117,"33":-0.018871225404880763,"34":0.030740454734499115,"35":0.0034112166106498704,"36":0.0496373233970045,"37":0.01351382111982438,"38":0.08656021288490652,"39":-0.05960835892206065,"40":-0.03871342802710287,"41":-0.03275839654272243,"42":0.060257137431447436,"43":-0.005762730019676777,"44":-0.027518080291884513,"45":0.06866294823780512,"46":-0.011870153577677216,"47":0.035832562300643696,"48":-0.03157529933394683,"49":-0.048651229787292326,"50":-0.028864577962789767,"51":0.022483554529133407,"52":-0.013098006436841437,"53":0.0745517833846084}},{"sx":1,"sy":1,"depth":54,"w":{"0":0.08804381556442525,"1":0.1259084984761711,"2":-0.030688582533810755,"3":0.015300373138842954,"4":0.07973455420853323,"5":0.07557220435138459,"6":0.04772323405972719,"7":0.07639471918699822,"8":0.0364820629181546,"9":0.03843383662200425,"10":0.045564868041369035,"11":0.0748762601516487,"12":-0.05456028277918929,"13":-0.041826908663378515,"14":-0.035666112810608594,"15":0.026144141173618435,"16":-0.01793198302936408,"17":0.07014347993102796,"18":-0.06838516873308907,"19":0.01733836953829204,"20":0.04363187696079271,"21":0.08702789350741577,"22":0.10490980890504796,"23":-0.03535163904924123,"24":0.010000392472390377,"25":-0.047842343251808625,"26":0.00039324603791546887,"27":-0.025615635428151325,"28":-0.015226881413743367,"29":0.02365792222964496,"30":-0.014712334722962956,"31":-0.04297165649359107,"32":0.07542065288955026,"33":-0.05356928331156657,"34":0.01836465540495871,"35":-0.006904800290264123,"36":0.07291793202685747,"37":0.07522330259248919,"38":-0.0025720384694567487,"39":0.02537377728260449,"40":-0.031939117781861134,"41":-0.013190813584991537,"42":-0.04472678863239853,"43":-0.018221351913179588,"44":0.02166394435611439,"45":-0.016277381305419242,"46":0.04341422484824781,"47":-0.106181804143121,"48":0.003891471198629983,"49":0.08988245884867148,"50":0.00014315831698976406,"51":0.04490299882569909,"52":-0.039339705060057635,"53":0.08449233526494572}},{"sx":1,"sy":1,"depth":54,"w":{"0":0.022070491611193913,"1":-0.0017494174648811573,"2":-0.07646417885238724,"3":-0.01744519487290311,"4":0.02629511353406027,"5":0.045614804441262764,"6":-0.034510060275937254,"7":0.02610520530906857,"8":0.009658286980120027,"9":0.04473627250605167,"10":-0.002549956547524538,"11":0.030260954696631186,"12":-0.012393567127818932,"13":-0.04155682574398443,"14":0.03227655821506849,"15":-0.051399268858807266,"16":-0.011098048768214092,"17":0.055726567072284655,"18":0.06464299086949363,"19":0.008065348134047023,"20":0.018137917870425697,"21":-0.03088337863162359,"22":-0.014271342593692435,"23":-0.07742608083017799,"24":-0.04471279754737117,"25":-0.0077447700530669525,"26":0.017690623106156128,"27":-0.016290413828842904,"28":-0.06643605056267748,"29":-0.03722170236831828,"30":-0.0075009458460883974,"31":0.03783277763768843,"32":0.04591975065822749,"33":-0.011338171374942526,"34":0.08264299340956516,"35":-0.02687911696902333,"36":-0.10191709741755975,"37":0.022549636562709852,"38":0.018349056179395758,"39":-0.02275830481692008,"40":0.0475427330860357,"41":0.02210952241932934,"42":0.03152198225542555,"43":0.002462631405643749,"44":0.002757473441167719,"45":0.026937090860139283,"46":-0.0521674157489981,"47":-0.07003969266335247,"48":-0.062480897902627515,"49":-0.03018722739117129,"50":-0.012682472264519188,"51":-0.07645708767459286,"52":0.09920891310661711,"53":-0.0026838070556421518}},{"sx":1,"sy":1,"depth":54,"w":{"0":-0.01487575855271483,"1":-0.026458454044457548,"2":0.007259433953868038,"3":0.01665370093419492,"4":0.020201414956060783,"5":0.0029369123260109763,"6":-0.053562904667848854,"7":0.02563288816829586,"8":0.031936752408758456,"9":0.013461624632318451,"10":-0.06835934608633092,"11":-0.02214251837711586,"12":0.10642770612907032,"13":-0.05918877881523623,"14":0.03597868483210471,"15":-0.049109227713878975,"16":-0.08450955989761721,"17":-0.061799361299371476,"18":-0.07032418914879587,"19":-0.03847711479791814,"20":-0.02493070002156363,"21":0.04397117014476407,"22":-0.0607504953309932,"23":-0.04933967520530664,"24":-0.06610802448774764,"25":0.016518794097247106,"26":0.013642747299528066,"27":0.022085641841563846,"28":0.09091226494032378,"29":0.0005893586088795808,"30":0.017410344740325698,"31":-0.00795422257367926,"32":0.056753041346605866,"33":0.022192165673253543,"34":-0.03049323063078369,"35":0.010264439639959816,"36":-0.046856384540875595,"37":0.038523775322264114,"38":-0.037353571903776125,"39":0.033372821248571174,"40":0.0307697340292542,"41":-0.01829569090874457,"42":0.04345001193575861,"43":-0.026692286075416148,"44":-0.026450194996969812,"45":-0.06312694217136088,"46":0.08001165363349635,"47":0.008749593455941583,"48":0.04771919657240757,"49":-0.05324825685419758,"50":-0.04423166152481347,"51":0.007446452097478562,"52":0.03922618786379911,"53":0.025563522645791825}},{"sx":1,"sy":1,"depth":54,"w":{"0":0.02991933559723327,"1":0.030196838770377925,"2":0.0573705359848314,"3":0.04165326627201971,"4":-0.01827477937759543,"5":-0.021052834323613892,"6":0.023147827326274722,"7":0.03784969161964671,"8":-0.006898365465078037,"9":-0.009761365669471236,"10":0.005978711591958631,"11":0.020786190349020076,"12":-0.0620477402398222,"13":0.02034865996343738,"14":0.016038954569283052,"15":0.047301587276693,"16":0.026135091132078018,"17":-0.013017462235767304,"18":0.00028063441754896105,"19":-0.006976273382702422,"20":-0.06493907792200253,"21":-0.036931012640698126,"22":-0.021386270059079938,"23":-0.03280304917071159,"24":-0.039416031972660304,"25":0.02750346095113271,"26":0.02190834078180218,"27":0.007482392530870621,"28":-0.07775052487209834,"29":-0.02847821549371808,"30":-0.030350272763271634,"31":0.06723559893027324,"32":-0.039290447664555604,"33":-0.09545808045644591,"34":-0.00731271136010525,"35":0.02128829654567132,"36":-0.0671148799133067,"37":0.013138962212143947,"38":0.023630788250785885,"39":-0.03935287104018605,"40":0.048267975047627636,"41":-0.03722646376842318,"42":0.037696698668747954,"43":0.0008801982372955489,"44":0.030438339643974997,"45":0.008518320862446502,"46":0.040404287602284684,"47":-0.01715555704736058,"48":-0.07109915316882721,"49":0.022342569039840967,"50":-0.03542262791484408,"51":0.0013135732793578703,"52":-0.022082742174717077,"53":-0.02410773156147141}},{"sx":1,"sy":1,"depth":54,"w":{"0":-0.01472361936760291,"1":-0.055386271865073715,"2":-0.015283129822030665,"3":-0.03625414540803672,"4":-0.019398960423036987,"5":-0.020175471593660545,"6":0.016698781902264297,"7":-0.019916594893911285,"8":-0.019619675693640107,"9":-0.020276659004147348,"10":-0.05989779331592299,"11":0.0028276043691776074,"12":0.010623512702318141,"13":-0.0017251979032417205,"14":0.02391258937523178,"15":-0.007643940481264794,"16":-0.016182981381209445,"17":-0.0323060623598262,"18":-0.010205356175178733,"19":-0.03856767524627354,"20":-0.09300065296269797,"21":-0.07123446216426166,"22":0.011652991018141648,"23":-0.0458930938072119,"24":-0.07706263867573168,"25":0.014899486815466441,"26":0.008913842411998676,"27":-0.041763431449084294,"28":-0.06043311418539721,"29":-0.005243195180451003,"30":0.01730763404859147,"31":-0.027621136166013024,"32":0.0011117683987521883,"33":-0.08083417251095501,"34":-0.009135809883045829,"35":0.013889781424602388,"36":0.020601097999852866,"37":-0.017623935413955197,"38":0.009876074853355165,"39":-0.029499215619616485,"40":-0.007573104668393065,"41":0.03375983319125199,"42":0.03145542081793773,"43":0.014823827395185148,"44":-0.05625112422021946,"45":-0.08432337087821562,"46":-0.010019724702131463,"47":-0.01611349251122986,"48":-0.04412669284915344,"49":-0.04238393087608636,"50":-0.036215183534341666,"51":-0.0046098617090262915,"52":-0.011871622036924488,"53":0.06864767513381925}},{"sx":1,"sy":1,"depth":54,"w":{"0":0.022850450000315495,"1":-0.008443983274958338,"2":0.08212131552904163,"3":-0.02828707879907403,"4":-0.0242482318950675,"5":-0.06694161182578723,"6":0.008761442098354475,"7":-0.015124021181977998,"8":0.027380088115725513,"9":0.0332559259449521,"10":0.07518648422818702,"11":-0.029349921664850696,"12":-0.0028793642223076143,"13":0.002980842495661237,"14":0.0010206198993481467,"15":0.05202328674982031,"16":0.021729536437014675,"17":0.17563617767749312,"18":-0.01545608838600677,"19":-0.0339019645873242,"20":0.008890700169677792,"21":0.044438470868258494,"22":0.006266443753866399,"23":0.08669646423774098,"24":0.0058419068643514715,"25":0.025289488185006096,"26":-0.01827499553998917,"27":-0.012412685787481616,"28":-0.0025736011906208195,"29":0.01897105090334938,"30":-0.0108771496930317,"31":0.08121395023972536,"32":0.020122305587554692,"33":-0.011439933103887315,"34":-0.02955838692370862,"35":0.00982674252755313,"36":0.07013836215268347,"37":0.1238176714292195,"38":-0.043640220129672655,"39":-0.013588305009420959,"40":0.10232987564666596,"41":0.10056083120567484,"42":0.15690115688232073,"43":0.01483908317799812,"44":-0.008591192679909767,"45":0.019660848084861314,"46":0.034607916323164324,"47":-0.050059626810072845,"48":0.0008738014023143316,"49":-0.0006448799903416703,"50":-0.030567753911022538,"51":-0.03239423113109357,"52":-0.0339854706994858,"53":0.04183136655369019}},{"sx":1,"sy":1,"depth":54,"w":{"0":0.03706870729589462,"1":-0.019531668021332885,"2":0.01661232673615399,"3":-0.03419492038473231,"4":0.011771687542349524,"5":0.025869053749239982,"6":0.0534873346158375,"7":-0.02649961303639364,"8":0.07986198005234578,"9":0.032056111364846894,"10":0.004731055663948412,"11":-0.07607131762208977,"12":0.02693244178565572,"13":-0.043304382808373246,"14":0.021670326346084377,"15":-0.03041240644425299,"16":-0.03650505635816758,"17":0.007656932952236762,"18":-0.04169203109761938,"19":0.026164459935163573,"20":0.04234775050732795,"21":0.05535053872143856,"22":-0.017676689943202997,"23":-0.06535651595312574,"24":-0.04217834845769484,"25":0.03291102211625377,"26":0.0010375111772516043,"27":0.02114289493007106,"28":-0.03427705362865326,"29":-0.009855403869478916,"30":-0.022138221955645906,"31":-0.10922069891529446,"32":-0.059012452731207754,"33":0.06526999213173224,"34":-0.1584161437299286,"35":-0.050380293333237416,"36":0.016453116107749955,"37":-0.016121421529830142,"38":-0.05521754573187357,"39":0.05380516077132458,"40":0.07090435682772767,"41":-0.05379819502572891,"42":0.025289711469934674,"43":-0.05903117100797458,"44":-0.008860336373262586,"45":0.0077769310283065255,"46":-0.06328659762774422,"47":0.04134309016219606,"48":0.025662261473713265,"49":0.021803583673755986,"50":0.08324134836323668,"51":0.008280394995529879,"52":-0.003550245358479803,"53":0.034296473177042416}},{"sx":1,"sy":1,"depth":54,"w":{"0":0.02650653291263568,"1":-0.040452290251439954,"2":-0.030702226154222162,"3":-0.004452255300029946,"4":-0.00469801812229924,"5":0.04332556886302272,"6":0.013358605510188172,"7":-0.08922563716518872,"8":0.019356181580466744,"9":0.005418326446113153,"10":0.012744669435779166,"11":-0.059818991291339274,"12":-0.06809224904302016,"13":-0.0680029870090744,"14":-0.013910621746558058,"15":-0.007359016178839926,"16":0.01577047240792778,"17":0.0015893422993953452,"18":-0.054889189481589294,"19":0.018230223018002898,"20":-0.022743467815639577,"21":-0.029997815565058476,"22":-0.07828321498358483,"23":-0.01913152255572288,"24":-0.04718823227416369,"25":-0.0021744481351310134,"26":-0.024186906503449818,"27":-0.0025643604537063896,"28":-0.04926274868077797,"29":-0.01765672562620069,"30":0.010614609851719867,"31":0.022368405224607403,"32":0.031198044578634544,"33":-0.03614306593686936,"34":0.11682937599621093,"35":-0.04204301665494162,"36":0.014790157402722852,"37":-0.07501145311090074,"38":-0.042038560852452396,"39":0.04876524314534112,"40":-0.0012452358376211616,"41":0.07616264093210816,"42":-0.10221185873203988,"43":0.0218952389212776,"44":0.036992033604273736,"45":0.010471477120005858,"46":-0.03530623855954611,"47":-0.025937136793333128,"48":-0.006324912823310925,"49":-0.03775856967564704,"50":0.04679099536710267,"51":-0.03578473703841495,"52":0.038169517833492386,"53":0.03982970549743384}},{"sx":1,"sy":1,"depth":54,"w":{"0":-0.052437382536629065,"1":-0.00746445003183456,"2":0.07125308389470947,"3":0.04363409451957588,"4":-0.02530969205637296,"5":0.03145503659753524,"6":0.04866701214026218,"7":0.010019110728417152,"8":-0.03350532450243685,"9":-0.06725528476213541,"10":-0.07745716120855593,"11":-0.10533238077680769,"12":-0.07015625917769788,"13":0.0036033501337764313,"14":-0.006710398930502149,"15":-0.07142736645236936,"16":0.033154632135572834,"17":0.03615249587171302,"18":-0.03908992858549563,"19":-0.06995245042012056,"20":0.027774660664392326,"21":-0.007986230452513768,"22":-0.03301657010156811,"23":-0.030166300107071678,"24":-0.005431433005440165,"25":-0.10192321745386942,"26":-0.023758095770832727,"27":-0.011654515166480939,"28":0.014511783750017906,"29":0.00827820824506324,"30":-0.002010476345604809,"31":-0.03192581045674487,"32":0.033090489487373455,"33":-0.05029827240009491,"34":0.05329767562324692,"35":-0.020701710641147245,"36":-0.04449319299550459,"37":-0.06826293496312691,"38":-0.011955949362639415,"39":0.029050691577257034,"40":0.018026118911014875,"41":-0.04345504950593205,"42":0.04410199529870864,"43":-0.0029095647287366183,"44":-0.010558253972335544,"45":0.051467335144626515,"46":-0.031140442690040338,"47":-0.06382054648536849,"48":-0.08762052644830572,"49":0.0021715050708516264,"50":-0.021493490037553624,"51":0.03465495646966457,"52":0.046610860632101216,"53":0.02152342675605851}},{"sx":1,"sy":1,"depth":54,"w":{"0":-0.0376636802043827,"1":0.025252075344284905,"2":0.023226515932952784,"3":-0.011058653362249095,"4":0.02015107413634949,"5":0.038632388205992636,"6":-0.0030997269447004434,"7":-0.002207875498078259,"8":-0.04412980298234114,"9":-0.04828769916341704,"10":-0.030174598847948087,"11":-0.032735981787569306,"12":-0.07650139053225798,"13":-0.016225605837594897,"14":0.01365564061297666,"15":-0.004968187100239744,"16":-0.016780252265681413,"17":-0.01703133329138128,"18":-0.02958799342022083,"19":0.02753332992437084,"20":0.06425853686113422,"21":0.06278599161624569,"22":-0.05687464817297729,"23":-0.047554771758357754,"24":-0.04491475724401594,"25":-0.0167635258572394,"26":-0.007984640793070704,"27":0.042396474913625325,"28":-0.052750254420537664,"29":0.015245439356332314,"30":-0.04676153589929122,"31":-0.010421293108096218,"32":0.0471209001057272,"33":0.038010768438094485,"34":-0.06135585775233731,"35":0.03710706832039806,"36":-0.08109226779094442,"37":0.021911299316632337,"38":0.0043719108121752165,"39":0.038376271612069586,"40":-0.05025562286644692,"41":0.050934935563813406,"42":-0.028628997218897265,"43":0.024010522488432526,"44":-0.0035874185112528077,"45":0.02762407368203438,"46":-0.06856290891986613,"47":-0.00012994437479832668,"48":-0.07194021015008961,"49":-0.008752808435057798,"50":-0.03190594100888864,"51":0.0024385323867555787,"52":-0.019022475226060064,"53":0.12144138662327744}},{"sx":1,"sy":1,"depth":54,"w":{"0":-0.026536197633556916,"1":0.051917871052191054,"2":0.08899205095690728,"3":0.12252702580820787,"4":0.0390421045152834,"5":0.022110498743519627,"6":0.04294707829046754,"7":0.009381316851158571,"8":0.012171576413687662,"9":0.024242477384080804,"10":0.029384123227498116,"11":0.02878218745106938,"12":0.06256636582822189,"13":-0.006384121414503497,"14":0.018751766959589383,"15":0.06327451686263379,"16":-0.009218278434081753,"17":-0.010781383727315855,"18":-0.007428648912344625,"19":0.02521579989035711,"20":0.027620924163522968,"21":-0.00877640138364285,"22":0.02583169869832606,"23":-0.036777005887583064,"24":0.11458105483518234,"25":0.07594329949969489,"26":0.0455608126272512,"27":-0.0253016989446778,"28":-0.0268575107823538,"29":-0.023750589214450606,"30":0.028645109429037776,"31":0.0075785184665394375,"32":-0.012112363640406288,"33":-0.007814794907266356,"34":0.0033203651146165407,"35":-0.025958765882945777,"36":-0.03516280029779461,"37":0.013908723951121997,"38":-0.05318912881001894,"39":0.006745402952164353,"40":0.018560312170963503,"41":0.032507871856524755,"42":0.033512104029345346,"43":-0.056480331378646,"44":0.009953908780840555,"45":-0.00034124325886044797,"46":-0.0124331214980475,"47":-0.04490638786811443,"48":-0.021248696704463912,"49":0.07563604953471315,"50":-0.0537377758379915,"51":0.008760959163372604,"52":-0.03870331264247774,"53":0.02380213895214997}},{"sx":1,"sy":1,"depth":54,"w":{"0":-0.09889483281011295,"1":0.0048518916660833245,"2":-0.018247172830000824,"3":-0.0787236467457518,"4":0.03327203454326322,"5":-0.062174786439557435,"6":-0.005689236635477718,"7":0.011471464232031481,"8":0.020624579808574437,"9":0.007191200078080514,"10":-0.006092340939359151,"11":-0.02096109320379166,"12":-0.06237841636425099,"13":0.008051238242317802,"14":-0.033639104603398064,"15":0.04878546659840489,"16":-0.0024607105485288344,"17":-0.04467425945316232,"18":-0.0015517904202314557,"19":0.001841789568046539,"20":0.016683055558450455,"21":-0.044162441425473126,"22":0.03072747050824218,"23":-0.023755748200141043,"24":0.0100485814270368,"25":0.03205411712962184,"26":-0.09164899723691529,"27":-0.029729284720102202,"28":-0.0057674422932268155,"29":0.04504055143481581,"30":0.023096053589485733,"31":0.053202162422522625,"32":-0.018314743536295024,"33":0.03148035726098035,"34":-0.041619896449297235,"35":0.08789888253748278,"36":-0.07374479717296656,"37":0.04289832036098441,"38":-0.0488520214528756,"39":-0.11467099573708919,"40":-0.03448557111957639,"41":-0.10986882211049835,"42":0.006555588611470338,"43":-0.0375999700239482,"44":0.04565097956986149,"45":-0.005422663506989582,"46":0.0712381830553609,"47":-0.054651422825980116,"48":-0.06916786498242823,"49":0.011238833412115309,"50":0.05706372661550273,"51":-0.0419886059342584,"52":0.06694989714680274,"53":-0.019578897699195956}},{"sx":1,"sy":1,"depth":54,"w":{"0":-0.0339267300126212,"1":0.0004020214067862273,"2":-0.02126626221562015,"3":0.08394458390292181,"4":-0.028265861232319937,"5":-0.05308876916793421,"6":-0.005425175935163451,"7":0.00450812578141034,"8":0.005609777258494642,"9":0.014862531320308847,"10":0.04956848175642402,"11":-0.024119881612242756,"12":0.02089776091644163,"13":0.004241002402189053,"14":0.002767142923107304,"15":0.021002755585143543,"16":0.003955524680974114,"17":-0.012466297578354194,"18":-0.029143067390167476,"19":0.10167933505087391,"20":-0.06793149810979342,"21":0.032954507754281506,"22":0.058573801812274034,"23":0.0033313451594244444,"24":-0.06706109241502739,"25":-0.029779440456591137,"26":-0.028114427253860787,"27":-0.035922680915547824,"28":-0.007225248306981921,"29":-0.04012416112208163,"30":-0.014585748314048153,"31":0.039011145654749044,"32":-0.020667095778321792,"33":-0.051597086345894765,"34":0.012611804401075268,"35":-0.012323077634698065,"36":-0.03468563153293951,"37":0.060476626627234534,"38":0.009807086554229377,"39":-0.02626542780045315,"40":0.062242423659269436,"41":-0.055434215255345934,"42":-0.1116446790527974,"43":-0.042494814148774894,"44":0.03240158490353706,"45":-0.007430384626232426,"46":-0.05358641033619754,"47":0.0015359576892467674,"48":0.07373667851472554,"49":0.0011890270932614765,"50":0.04361059768217163,"51":0.05390312174436972,"52":-0.04463823285223863,"53":0.026685647912152596}},{"sx":1,"sy":1,"depth":54,"w":{"0":-0.006842103706939268,"1":0.012401697418550323,"2":0.040994167812605765,"3":0.08423335532794587,"4":0.016920448954325873,"5":-0.053104098864070075,"6":0.07961843935834503,"7":0.12476474084803763,"8":-0.007952149105506172,"9":-0.05260440273697463,"10":-0.01383253663577153,"11":0.02091183629697144,"12":-0.03924414657834792,"13":0.021627784746234547,"14":-0.032551190856286945,"15":0.058804613843187206,"16":-0.0025155759085493533,"17":0.08682474982317208,"18":-0.04618362020366408,"19":-0.020480638253012832,"20":0.0019360027988296349,"21":-0.0045874108307045304,"22":-0.03324319852469603,"23":-0.036916608060805975,"24":-0.006478146068656295,"25":-0.02112528071643451,"26":0.03433555866950722,"27":0.06419046348187603,"28":0.027489721472285716,"29":0.009682466923924759,"30":-0.010621348155115905,"31":0.049687621321147395,"32":0.05864202800970565,"33":0.073486982138843,"34":-0.02964386510937581,"35":-0.04126267067011187,"36":0.0728754506966608,"37":0.00623153760066837,"38":-0.004199756355916504,"39":-0.031955171132604855,"40":-0.03664137877735185,"41":0.021212052067682095,"42":0.016942227665977222,"43":0.06961853654996719,"44":0.05966996870793442,"45":0.002649892314126752,"46":-0.0021229303165122178,"47":0.0015150422355668317,"48":-0.04230332863677789,"49":-0.018885642369673338,"50":0.030824878464951855,"51":-0.05944260983915237,"52":-0.0017268577072663853,"53":-0.022779819682724613}},{"sx":1,"sy":1,"depth":54,"w":{"0":0.04702233648728435,"1":0.05748129009775796,"2":-0.011866581890830489,"3":-0.03198475580646221,"4":0.022805142493131453,"5":-0.038976948718548204,"6":-0.021724761814418878,"7":-0.07675220074181364,"8":-0.030978221859750302,"9":-0.00741506401193433,"10":0.025764358148177145,"11":-0.007367926416559305,"12":0.0072395968355659255,"13":0.044549270083122594,"14":0.09117129254435535,"15":-0.03853934599608274,"16":-0.01602216012337244,"17":0.027007614653172682,"18":0.004619572856054322,"19":0.0025590111155121523,"20":0.0389803740095346,"21":0.03983012786999202,"22":0.005665122142483269,"23":0.010081163969582604,"24":0.015040787238285992,"25":-0.0001749391578807577,"26":-0.051048879722426235,"27":0.015716508193899387,"28":-0.02362582051595576,"29":-0.04976085837850042,"30":0.0946731362172513,"31":0.013461503114698122,"32":-0.06407831656235624,"33":-0.05614278072257235,"34":-0.04119920084202524,"35":-0.017766879573207058,"36":0.0053974715935272395,"37":0.09797680285415972,"38":-0.005275864242683104,"39":0.06830667553125283,"40":0.0033891254159396055,"41":-0.011666616987192902,"42":-0.08231440418937164,"43":-0.0128802237586838,"44":-0.004196855288152667,"45":0.035332397103338194,"46":-0.04466542827486459,"47":-0.022893013660584164,"48":0.02060193349673333,"49":-0.030002355824527448,"50":0.023989081564808928,"51":-0.02916694785316195,"52":-0.053437975772084506,"53":0.013609476394545997}},{"sx":1,"sy":1,"depth":54,"w":{"0":0.009940198329638604,"1":0.09492799310163941,"2":-0.042715548262810515,"3":-0.041042243881237526,"4":0.03405793278910231,"5":0.0004884522965024828,"6":-0.16960295729634947,"7":0.04484080461391752,"8":0.15258801339432027,"9":0.014748162744584473,"10":-0.005147636409765147,"11":-0.03405500817346331,"12":0.0032970272431982954,"13":-0.003481261509296274,"14":0.03959420418461516,"15":0.00955725184594238,"16":0.038479594402070966,"17":0.05327253868285587,"18":0.07171694713438058,"19":0.048580262867747644,"20":-0.010444979659806487,"21":0.03558215371255134,"22":-0.008145748503167393,"23":0.003819296917627752,"24":-0.00433127078471005,"25":0.0330232874737664,"26":0.016993036621568754,"27":0.04626547685541524,"28":0.019456136298560467,"29":0.030700269652368984,"30":-0.013302542659064378,"31":-0.18169590934141971,"32":-0.038249889313094185,"33":0.08437280990973271,"34":0.005148971675738242,"35":-0.026109129253672085,"36":-0.005986044856123937,"37":-0.027026304249639897,"38":-0.0017583986650439836,"39":-0.005644267459068664,"40":-0.004500482218981821,"41":-0.06871020026566027,"42":0.029074734272363796,"43":0.02793351764597343,"44":0.05649048716983961,"45":0.008572448528942239,"46":0.014634208512555367,"47":0.018046041198786392,"48":-0.023879698003210548,"49":-0.05409955021781998,"50":-0.011532129444073174,"51":-0.013080078717476106,"52":0.03415625459121349,"53":-0.05592848478993309}},{"sx":1,"sy":1,"depth":54,"w":{"0":-0.015840702632964592,"1":0.007450268520489354,"2":-0.0073643258353958034,"3":0.004104243069713742,"4":-0.06654652437833118,"5":0.006503651234931648,"6":0.00225778876908504,"7":-0.08151194704701414,"8":0.04069741488347281,"9":-0.002581198822150828,"10":-0.055738908078130714,"11":0.17977652573048175,"12":-0.024802543148835777,"13":-0.035902592023187914,"14":0.0098624448584083,"15":-0.022356042356360635,"16":-0.0434581245228026,"17":0.07448145249953532,"18":0.01651730185914455,"19":-0.03572872790362523,"20":0.05337741087553442,"21":0.040852916440941814,"22":0.05380664518104531,"23":0.017042050934796635,"24":0.0024923124045838937,"25":-0.006422913307132974,"26":-0.007778370427858661,"27":0.023414644266958617,"28":-0.020689623379908866,"29":0.02921777297535753,"30":0.07082907076631069,"31":0.006534006030679018,"32":-0.03195472373155493,"33":0.05153915613455653,"34":-0.007568195256334169,"35":0.0540268816379464,"36":0.17702013446820206,"37":0.051846116800540985,"38":-0.0019332667758372366,"39":0.0113400883537423,"40":-0.010346472281573276,"41":0.1373793897968771,"42":0.10860965601624764,"43":-0.0682514619496021,"44":0.03887052254960473,"45":-0.03649419823498885,"46":0.005544430885278874,"47":0.0008893656780265775,"48":0.032489184030017645,"49":0.06101235325742892,"50":0.04870471210764567,"51":-0.022070114389392652,"52":-0.02268521034079638,"53":-0.0329958253398127}},{"sx":1,"sy":1,"depth":54,"w":{"0":0.03461258355259594,"1":-0.02762848806621278,"2":0.03520017267395827,"3":-0.037070490372241915,"4":-0.0002584807269688228,"5":0.00019294857197860166,"6":0.030421885316634107,"7":-0.008838720105656887,"8":0.006863589006113826,"9":-0.06657478747456244,"10":0.041955035755505354,"11":-0.009145752474126388,"12":-0.021163528032422812,"13":0.018571193309929603,"14":0.013001261031160909,"15":0.0006474183835479304,"16":-0.017079331312880485,"17":0.1013946858306203,"18":0.03062251687140564,"19":0.009548393114684826,"20":0.0429656888481173,"21":0.04002000938500155,"22":0.0048224414081093955,"23":0.007113655502025233,"24":-0.04556747837358314,"25":-0.0240306511325739,"26":0.011452676383902408,"27":-0.032835412823670175,"28":0.017226437765296258,"29":-0.028408553241739624,"30":-0.010964983987112634,"31":-0.004185307511516224,"32":0.0013873465249545365,"33":0.07098740626476603,"34":-0.0140865629618913,"35":-0.02003710928066056,"36":0.05018200754768862,"37":-0.10075018232950592,"38":-0.03620492871461592,"39":-0.04043905920071223,"40":0.03259000563511307,"41":-0.0035144332126195305,"42":0.027427757843293713,"43":-0.022624799246375563,"44":0.05241520672344793,"45":-0.0069078359183222466,"46":0.08179778177704794,"47":0.02584289884757907,"48":-0.024080869042206857,"49":-0.007386981850840491,"50":-0.012594685556215799,"51":0.04948120718171283,"52":-0.01764781196869718,"53":-0.03054352524567104}},{"sx":1,"sy":1,"depth":54,"w":{"0":-0.0028976549843351255,"1":0.052683553043076536,"2":0.006464797308816221,"3":-0.01343438821316622,"4":0.07553242139939141,"5":-0.04991275968998226,"6":0.0727925753457707,"7":-0.15615626365359425,"8":0.047716272071474594,"9":0.0022793849673087186,"10":0.01832412418973819,"11":0.0987832967575752,"12":0.06399492424045726,"13":-0.04345925774933805,"14":0.06933020532028858,"15":0.04662965692505101,"16":-0.129718042602062,"17":0.12731310931164874,"18":-0.1498137780212869,"19":0.06897965525640046,"20":-0.0775250173166866,"21":0.011458549795357013,"22":0.05007320540659944,"23":0.0394022916558447,"24":0.07868783110355464,"25":0.05421334885727311,"26":0.030112064494735837,"27":-0.000053305731231602354,"28":-0.031028715364026658,"29":-0.032989218941948485,"30":-0.019973229132798073,"31":0.09958132307169434,"32":-0.15905451627822956,"33":0.09037044615515778,"34":-0.027667959250397032,"35":0.03341606245031993,"36":0.00015851708812810204,"37":0.11835329136453064,"38":0.007250931026516452,"39":0.03857979528577516,"40":-0.0047470174214882255,"41":-0.12239882076169038,"42":0.03740642083986126,"43":-0.11992489495468352,"44":0.01061948739848294,"45":-0.0036584983710957384,"46":-0.016634070055251464,"47":-0.006252809598529679,"48":-0.01013723430135627,"49":-0.009475686751609187,"50":0.00990292911467118,"51":-0.00489379121268093,"52":0.056557087623013196,"53":-0.0017880320784536305}},{"sx":1,"sy":1,"depth":54,"w":{"0":0.06649385460620558,"1":0.03082599965367738,"2":-0.015304548443453792,"3":0.03970014557553932,"4":0.030059891567405704,"5":-0.0226578013237607,"6":-0.05586227447643969,"7":-0.05458342569452858,"8":0.05027297287740907,"9":-0.03283942249524107,"10":0.011047803046458913,"11":-0.08546175299653712,"12":0.006397139572109837,"13":0.05137167627832378,"14":0.004503608151115359,"15":-0.02782947172360677,"16":-0.020936167882386156,"17":0.0116775861338013,"18":-0.03768655918075189,"19":0.007981521462073711,"20":0.032829060145856175,"21":0.05828596346667269,"22":0.021141449782819472,"23":-0.006034257008758112,"24":0.0020488153189482804,"25":0.017642594400489955,"26":0.027252991512169634,"27":0.02150463940145151,"28":0.059034281568936614,"29":-0.0010964844402729897,"30":0.07791265003588135,"31":-0.018777940621959786,"32":-0.05108843423818565,"33":0.05151891968412962,"34":-0.05950835290696053,"35":0.017464647784775963,"36":0.04540386796063748,"37":-0.03832549594647352,"38":-0.06796763150954753,"39":0.013222404096363143,"40":0.012241352324948966,"41":-0.025155046490167924,"42":0.030597688488886915,"43":0.018303357126677598,"44":0.006970653851000207,"45":0.05503861165826361,"46":0.03335147174458527,"47":0.005075825496347425,"48":-0.05455816598857454,"49":-0.06811804237301844,"50":-0.055414437587973986,"51":0.0017805505976064787,"52":0.047615501406542415,"53":-0.002537146855046825}},{"sx":1,"sy":1,"depth":54,"w":{"0":0.01766077785686219,"1":-0.003905673040870389,"2":-0.019380233228106364,"3":0.004442931678843538,"4":0.0278495047696072,"5":0.01862573165783513,"6":-0.06297962425749111,"7":-0.03713433819895002,"8":0.0031707803539227954,"9":-0.006509205154097987,"10":-0.041607359094939525,"11":0.08058376587295991,"12":-0.0258989847231067,"13":0.05899115625973216,"14":0.04071531248235534,"15":0.09114881447110694,"16":-0.10905930327888577,"17":-0.07426755364650259,"18":-0.02062012670449225,"19":-0.025146506326250727,"20":0.0008071537618375581,"21":-0.004266962017242556,"22":0.04291396992702907,"23":-0.010585556111090367,"24":-0.024799726425031435,"25":0.01002865634204635,"26":0.029262519633810012,"27":0.033876689931742074,"28":-0.00857184136945032,"29":-0.008687191538735858,"30":0.052045968302624875,"31":-0.10814869685834903,"32":0.009059190407488489,"33":0.02402236128231366,"34":-0.0025846081527374394,"35":-0.00877450081225999,"36":-0.004446269074551815,"37":0.046887159901048,"38":-0.02646815343874336,"39":0.028349877980079912,"40":-0.02500585918888567,"41":-0.0687491143986126,"42":-0.05688790009087295,"43":-0.029804716113140003,"44":0.03994992042305625,"45":-0.006949338760329592,"46":-0.001293718495005905,"47":0.035420358849319294,"48":0.021937652650179485,"49":0.025090168315936613,"50":-0.029751693965341573,"51":-0.06359365714049152,"52":0.0012225791501305253,"53":0.0769495473771217}},{"sx":1,"sy":1,"depth":54,"w":{"0":-0.029851010917028294,"1":-0.05226662650741958,"2":-0.11120999411020878,"3":0.017519994990897104,"4":-0.040459513945291195,"5":-0.03714752850270736,"6":0.0726411512595722,"7":-0.0036466032244051507,"8":0.07923946941471137,"9":-0.053238047366885456,"10":-0.037507466236787544,"11":-0.004442392508497672,"12":0.040100293078658554,"13":-0.039136731320354466,"14":-0.02211156601727881,"15":-0.034063154756121726,"16":0.03763929090175474,"17":-0.07988057755649505,"18":-0.04880327503028556,"19":0.02151402226440164,"20":-0.006314152938462648,"21":-0.04974801603770903,"22":-0.04615494226000175,"23":0.02387358420969752,"24":0.019854297940000914,"25":-0.009144991960031535,"26":-0.07779131469724736,"27":0.023185320254429778,"28":0.017503560030972812,"29":-0.0163477662259839,"30":0.005629886454302475,"31":0.012775278301789587,"32":-0.04967937733979097,"33":0.0547835454026184,"34":-0.08151375837839749,"35":0.04718830717065125,"36":-0.04969302001693079,"37":0.023127657105041458,"38":-0.03497643700919504,"39":-0.04833388304923988,"40":0.010023876205497816,"41":0.07906118474678488,"42":-0.051385996790532185,"43":-0.034631323028750965,"44":0.017361935307612934,"45":0.08763264307530289,"46":0.03531327966329218,"47":0.013840571678110695,"48":-0.0343459987500691,"49":0.0171782391299823,"50":0.0058377563018958125,"51":0.0759675697158624,"52":0.046181578829068114,"53":0.03388423163282137}},{"sx":1,"sy":1,"depth":54,"w":{"0":-0.034031329311185916,"1":-0.01703862683265734,"2":0.04557693059684511,"3":0.033383443498825036,"4":0.03579545240472227,"5":0.03246605179463026,"6":0.07589422267309096,"7":-0.016259999553319235,"8":0.0616914055719295,"9":0.10165075528240622,"10":-0.005446447781286887,"11":0.004454093933498653,"12":0.07275176907586679,"13":0.013944020951474416,"14":0.035049659122996624,"15":0.028912492609153833,"16":0.07569468877011316,"17":0.18604716183416622,"18":0.09268488179671222,"19":0.014857122066276242,"20":0.05404116672290053,"21":0.06368440361502294,"22":0.036869193097756534,"23":0.12917297491873653,"24":0.03615051672080149,"25":-0.021778251984882903,"26":-0.05093705010484156,"27":0.0005654594550366241,"28":0.01974566273548879,"29":0.009791926806979549,"30":0.006902161879756596,"31":0.07312784964613518,"32":-0.04211610907499549,"33":0.06341003979825172,"34":-0.0041087079352733966,"35":-0.034198060102838074,"36":0.001528031930359185,"37":-0.06496868219603892,"38":-0.04926249224559356,"39":0.008003150610029191,"40":0.04480846501782899,"41":-0.006286143562818887,"42":-0.05214063799762313,"43":0.007163380562391941,"44":-0.02155415083538423,"45":-0.026766629581832842,"46":-0.0668414883813188,"47":0.021548407396823666,"48":0.02246033548626531,"49":0.013520750840652815,"50":-0.0018480426798754416,"51":0.03806352519696263,"52":0.011932770561973194,"53":-0.03706436046662419}},{"sx":1,"sy":1,"depth":54,"w":{"0":-0.05011128283347983,"1":0.08206378560273676,"2":-0.0349528863606642,"3":-0.03940510503658472,"4":-0.025824452553616376,"5":-0.02369575428655325,"6":0.03530897055130569,"7":-0.10672162192338859,"8":-0.041903279914832996,"9":-0.0006524689075096154,"10":-0.030418511241845202,"11":-0.04001525953710194,"12":-0.03714502194125995,"13":-0.00368860629071533,"14":-0.01623652154275106,"15":0.02035698027215355,"16":-0.039514008796671524,"17":0.03273956183972071,"18":-0.07039833406441358,"19":0.03034615368503455,"20":-0.030767454638432615,"21":-0.009042131024257598,"22":-0.04646915359298076,"23":-0.04341358471984054,"24":0.001756275279840919,"25":-0.006116418868160073,"26":0.031618921517756596,"27":-0.03954497637319501,"28":-0.08552572093056116,"29":-0.08455396295625878,"30":0.01968856009237077,"31":0.03497468461336934,"32":-0.06012361683074494,"33":-0.07901407996564537,"34":-0.0045691339836768695,"35":0.00419542307088091,"36":-0.007017580577976032,"37":0.05193327540016944,"38":0.045710971425754386,"39":0.014858604929135462,"40":-0.005004962854500015,"41":0.015349455508500361,"42":0.10467934532401196,"43":0.010715432233100316,"44":0.021822025601919284,"45":-0.020655311356282915,"46":-0.006521333060982685,"47":-0.038403172217956034,"48":0.03826758409975432,"49":-0.05912947153053702,"50":-0.024925654449090708,"51":0.04445291442538645,"52":-0.030217187074974197,"53":0.0412172032208417}},{"sx":1,"sy":1,"depth":54,"w":{"0":0.060877437484704686,"1":0.0353741728489214,"2":0.011990995589013915,"3":0.025498880389943666,"4":-0.03651206494700619,"5":0.062004665979659174,"6":-0.04681344820952386,"7":-0.012840010077465758,"8":0.04393820878580624,"9":-0.01622657234482234,"10":-0.03374888512970695,"11":-0.06327494407105017,"12":-0.014888646945343014,"13":0.044822218598802324,"14":0.004333035934602564,"15":-0.09762561358025677,"16":-0.042141461283307285,"17":0.029815618552543405,"18":-0.07258891680032753,"19":-0.023137365927234067,"20":0.0749549702027447,"21":-0.014520817373318713,"22":-0.053827318623594196,"23":0.000045984907394846455,"24":-0.015980719556468286,"25":-0.025531205529650373,"26":-0.04155529960981049,"27":-0.041266024959827494,"28":-0.003296421388080526,"29":0.008070531322463834,"30":-0.0101578523856387,"31":-0.007363530898407544,"32":0.024527985742659127,"33":-0.017531751053722858,"34":0.026907173981614567,"35":0.05704662035313979,"36":-0.0034503884973469826,"37":-0.02691869452225654,"38":-0.019961418695174808,"39":-0.011707545469613214,"40":-0.043341255063626606,"41":0.003637022319164943,"42":-0.048796526630799725,"43":0.02628429841849767,"44":-0.07233347460027781,"45":0.07776375380684705,"46":-0.005337120180689116,"47":0.002241771896345832,"48":0.06554354979380089,"49":0.03822820750819644,"50":-0.04114936623781914,"51":0.016948585769025862,"52":0.05981807868097794,"53":-0.0402206522710794}},{"sx":1,"sy":1,"depth":54,"w":{"0":0.05223721256960411,"1":-0.030950885531824575,"2":0.02776138856265365,"3":0.05233016225402395,"4":0.00013058754427499743,"5":0.00417175441838753,"6":-0.04893456132240289,"7":-0.06225339961576685,"8":-0.03168061101224073,"9":-0.030212591939197928,"10":-0.03325860111355682,"11":-0.061086400744494444,"12":-0.09589910625317238,"13":0.03749328783515519,"14":0.045645199297845565,"15":-0.09057533167793283,"16":-0.03495061426216805,"17":-0.031528848239837225,"18":0.03525008975505771,"19":-0.04665186973833879,"20":0.09896504309957523,"21":-0.049488274442165775,"22":-0.08448723355822564,"23":0.004895150686049278,"24":-0.05110712011465905,"25":0.013842732936569218,"26":0.08052269149594034,"27":0.012754226125212098,"28":-0.07428696861052302,"29":0.044138213129777316,"30":-0.008994040364862968,"31":0.014063641268784842,"32":0.009788384685658083,"33":0.010580699410730136,"34":0.02166698692422429,"35":0.06160089626996854,"36":0.009133679154068128,"37":0.09885882467059073,"38":0.1123973650277552,"39":0.07540033637664326,"40":0.03546323984541354,"41":-0.07241523230552084,"42":-0.021457011302360104,"43":-0.027236179706083236,"44":-0.07349317142794366,"45":0.035161466768004045,"46":0.020549283427839588,"47":-0.048446091673191805,"48":0.0056167693912222575,"49":-0.02201334672835636,"50":0.003963527088838204,"51":-0.03425442598071271,"52":0.0860445961829142,"53":0.017026356815899233}},{"sx":1,"sy":1,"depth":54,"w":{"0":0.01381119864267691,"1":-0.040250509198027924,"2":-0.029366855123923806,"3":0.0612390163527708,"4":-0.014260951782194333,"5":-0.02884042974396822,"6":-0.15634155927812005,"7":0.09995233201400892,"8":-0.12892536762220896,"9":0.039729807595095104,"10":0.061329075093101,"11":-0.1109152733240524,"12":0.11378530228892623,"13":-0.1389551629778936,"14":0.04189878240909791,"15":-0.056563060573451174,"16":0.029415534157030722,"17":-0.03477725287256347,"18":-0.03767392750904354,"19":-0.00027832022748117146,"20":-0.027064474609439258,"21":-0.008934293367869436,"22":-0.012545514264529904,"23":-0.01424091365191007,"24":-0.008675611243154836,"25":0.008747564810616556,"26":0.05555421303241921,"27":-0.038830565827011665,"28":0.021267057652080718,"29":-0.04469363113034697,"30":0.051608964247421375,"31":-0.07243902803828034,"32":0.0389414738832761,"33":-0.06872170976946493,"34":0.0481413964463106,"35":0.01639788603476034,"36":-0.022013815107127674,"37":0.07800820769315761,"38":-0.07100520774471732,"39":0.003131800869480409,"40":-0.019467736856096686,"41":-0.05561101334897422,"42":-0.008062279421548982,"43":-0.016521481551141023,"44":0.03681675137419352,"45":0.02039210250211566,"46":0.00805268384184197,"47":-0.022174449584917905,"48":0.018679598202017002,"49":0.0001887887076833339,"50":0.053371877887227394,"51":0.0022976895384411128,"52":-0.033390797269657546,"53":-0.004955898058106336}},{"sx":1,"sy":1,"depth":54,"w":{"0":0.012873582362997304,"1":0.027212730729802372,"2":0.028417952882214097,"3":0.06885553409986081,"4":-0.06399528902296983,"5":0.055087428250179815,"6":-0.007082958727698812,"7":-0.07847449648379479,"8":-0.07899654806859645,"9":-0.01898354469855064,"10":-0.047916657162532884,"11":-0.014911643067680926,"12":-0.023096068682215053,"13":-0.04528367313915789,"14":0.029315645070512472,"15":-0.061389682579670805,"16":0.0291467109282366,"17":-0.05508416235994784,"18":0.002706927591126287,"19":0.016408397204464447,"20":-0.00748532397373569,"21":-0.03372546328804451,"22":0.018360630961626278,"23":-0.021603430632568244,"24":0.013216467397060486,"25":-0.039648776341186374,"26":-0.0038934701612093727,"27":-0.004352944997151555,"28":0.04167127736360062,"29":0.021543105642120648,"30":0.048094043160100935,"31":-0.011780023513946336,"32":0.0798721244008721,"33":-0.01186461767574887,"34":-0.07550972297464842,"35":0.011712542662185339,"36":0.061318872516729676,"37":0.06367561123002695,"38":0.010545590714472397,"39":0.00002477673786597207,"40":-0.03880166074627441,"41":0.05867060253561242,"42":0.05116354522973554,"43":0.03112693145705931,"44":-0.015360008724691268,"45":0.06900920360326668,"46":-0.07413954085267796,"47":0.02236835058575775,"48":0.035898543667570795,"49":-0.062106260723815226,"50":0.03337455191626762,"51":0.0318735526105839,"52":-0.017211045615910848,"53":-0.03672420563914272}},{"sx":1,"sy":1,"depth":54,"w":{"0":-0.007750055459782721,"1":0.015856637768417833,"2":-0.06330317979134545,"3":0.01765188782811382,"4":0.08636224979180626,"5":0.016575020301135057,"6":-0.0199857530591777,"7":-0.04790625230797573,"8":-0.008503047892077377,"9":-0.000991472984430519,"10":-0.034063033983588786,"11":-0.0353355209896308,"12":0.013524326474541425,"13":-0.0429563173208784,"14":-0.08073467011513966,"15":0.07529466881353145,"16":-0.0823855519986574,"17":0.03354583592305263,"18":0.01565917298793496,"19":0.06224881209930403,"20":0.006606866137076062,"21":-0.025955132072435903,"22":-0.00392912148970295,"23":0.03052439957059827,"24":0.059763579040561565,"25":-0.07522165303963299,"26":0.006870066933259368,"27":-0.06816772960201609,"28":0.030305147088967224,"29":0.026582865038797247,"30":0.0020177126026900906,"31":-0.0853001958092429,"32":-0.11860968783790747,"33":0.007417245640236725,"34":0.03450080699457186,"35":0.018296447350099006,"36":-0.0781813485717513,"37":-0.026801319025985898,"38":0.071360089479088,"39":0.033179115422533566,"40":0.04621939727247283,"41":-0.0003866697197242972,"42":0.05318583087995753,"43":0.01848546383436065,"44":-0.00015843776258451215,"45":-0.04512706738921044,"46":-0.04986787887669853,"47":0.014322150349697726,"48":0.03404997195382579,"49":0.028410988021965917,"50":0.09386997000860535,"51":-0.032650422939775346,"52":0.002949761255752573,"53":-0.03193978265046231}},{"sx":1,"sy":1,"depth":54,"w":{"0":-0.04793639260194829,"1":-0.02063745478962691,"2":-0.024878907689907862,"3":0.00042097328387563946,"4":0.07912571733938535,"5":0.007774044571890298,"6":0.08853653420290589,"7":0.04164483353896422,"8":0.04430267977040679,"9":0.08679508729874659,"10":-0.035783787163056816,"11":0.03572552571655702,"12":0.027492147408610463,"13":-0.03128203421002152,"14":-0.003985479694110268,"15":-0.022303044800309615,"16":-0.021663343157014757,"17":0.03314324514215412,"18":-0.015245155583724712,"19":-0.033074360634904265,"20":-0.022804487715301098,"21":0.03307028392181777,"22":-0.07043806056755224,"23":-0.010726847101627916,"24":-0.027254161489284237,"25":0.021965152222550997,"26":0.0011999730959251528,"27":-0.08068507411183197,"28":0.02367719542484366,"29":-0.04964918232093989,"30":-0.0021242815160016793,"31":0.046101007892616355,"32":0.0408395471160059,"33":0.011975760651428073,"34":-0.0058159873684505495,"35":-0.0157732635485201,"36":-0.008824801846506854,"37":0.00277206154447423,"38":0.037466360793494316,"39":-0.06818529292143793,"40":-0.013150318555400312,"41":-0.0202442167623347,"42":0.03853971900992519,"43":-0.02995998219987331,"44":0.048242348882736374,"45":-0.0522895178169877,"46":-0.011470072252327308,"47":0.0037883895943643235,"48":-0.026981385066622635,"49":0.0021731376122662324,"50":0.03516367361316129,"51":-0.06900279618182817,"52":-0.016406919965435342,"53":-0.011375898218706194}},{"sx":1,"sy":1,"depth":54,"w":{"0":0.002895710941177442,"1":-0.0935323112779626,"2":-0.05557258354550964,"3":0.05643439616922569,"4":0.03432939857195014,"5":-0.02467671865616613,"6":-0.039123067983247065,"7":0.10792934829463909,"8":0.08899409770610904,"9":0.021876018425077155,"10":0.028382962942536585,"11":0.09951956698780245,"12":0.02300253196401137,"13":0.011344419213251541,"14":0.006461939502808665,"15":0.006787354938701855,"16":-0.03665973769699331,"17":0.04578779481946641,"18":-0.04695518900890723,"19":-0.04186642995597561,"20":-0.0554419656714347,"21":-0.10375233733462833,"22":0.019142362249656274,"23":-0.04648552455967028,"24":0.004969699981734717,"25":0.007176016784485056,"26":-0.018195079390740356,"27":-0.04886335928440121,"28":0.03280926039846177,"29":0.05581235486804784,"30":-0.06183866508861265,"31":-0.04998619577002409,"32":0.0027503269278024204,"33":-0.0020957203445782667,"34":-0.0253765085457926,"35":-0.012583448027834404,"36":0.008711081062729286,"37":0.004792086501334668,"38":-0.07540758357516407,"39":-0.07285603060573059,"40":0.03413023136491069,"41":0.07033773806413315,"42":0.03579488715374117,"43":-0.017310343511471742,"44":-0.01836347462161699,"45":-0.08746979537950429,"46":-0.07346667730837116,"47":0.04267310408886784,"48":-0.03898901594394918,"49":-0.05558740526203896,"50":0.022413531690196685,"51":0.042534942032041126,"52":-0.030265584762229313,"53":0.039073002452097064}},{"sx":1,"sy":1,"depth":54,"w":{"0":0.024883335958394943,"1":0.06040106899448069,"2":0.0028894100738178514,"3":0.02186181513885115,"4":0.04067221946244936,"5":-0.018506264440095753,"6":-0.0653206440665139,"7":-0.07152919027692733,"8":-0.011446856482529938,"9":0.0302445306079618,"10":0.06555530170559297,"11":0.03383046900451658,"12":-0.010072932754027411,"13":-0.015471404551468722,"14":0.011427429493344883,"15":0.06804228240696664,"16":0.022122264179054368,"17":0.008574021972058733,"18":-0.09181587064642642,"19":0.012864383766080786,"20":0.01471366483574354,"21":-0.042094586090179346,"22":-0.0681392077345218,"23":-0.07718685301528588,"24":0.038143660597581217,"25":-0.01822024733512084,"26":0.044136798706890384,"27":0.047833051900263865,"28":-0.07007443698856253,"29":-0.0333922390051933,"30":0.06776886622830573,"31":0.026734538563520392,"32":-0.07817340727081147,"33":0.08436574773799564,"34":0.014278395301218279,"35":-0.10293497199990309,"36":0.04864680810322914,"37":0.011175085783591204,"38":-0.03967763873602151,"39":0.052058071602125076,"40":0.02743001253217835,"41":0.0018009466045567283,"42":0.026080651624066795,"43":0.027491519601122786,"44":-0.07106553159346846,"45":0.02642453766446543,"46":0.07729622709078764,"47":-0.02643423201386296,"48":0.019814554899431912,"49":0.04394873562329353,"50":-0.009148045137401736,"51":-0.0010419491043693208,"52":0.018294343356628745,"53":-0.0006032735883549816}},{"sx":1,"sy":1,"depth":54,"w":{"0":0.025302280790167095,"1":0.06093318414444614,"2":0.020010932525599143,"3":0.04097739309526281,"4":-0.0864657792594857,"5":0.04495584773529622,"6":0.03025817858249088,"7":-0.06378165003173548,"8":-0.031077553633100694,"9":-0.06679327501060676,"10":-0.004609491505997606,"11":-0.006273279735898947,"12":0.020909453218269813,"13":0.01690066723469813,"14":0.014123969138293724,"15":0.02197652830419347,"16":-0.010172715666424728,"17":-0.060092411259505575,"18":-0.07770567284954122,"19":-0.006606764938939856,"20":-0.04005577863951551,"21":0.019390413663049322,"22":-0.0027061937435761975,"23":0.03227145499297704,"24":-0.02086840625880442,"25":-0.05059927802053763,"26":-0.042324789055286645,"27":-0.014295992440851713,"28":-0.03922461078042169,"29":-0.10310457581112487,"30":-0.04374156266094115,"31":-0.06199537570859153,"32":0.011830371002499233,"33":0.04799184340065045,"34":0.015660304696839603,"35":-0.03164376699929983,"36":0.10699555208808692,"37":-0.046037521963230014,"38":0.009715281054731614,"39":-0.029110531264769694,"40":0.06924298998402748,"41":0.0003177939914779621,"42":-0.023098556647720196,"43":0.033945074830704816,"44":0.010143128518675347,"45":-0.003088442773838742,"46":-0.018730215548408376,"47":-0.0374774943774925,"48":-0.01888911200791593,"49":-0.014349964116526849,"50":0.013849057195932102,"51":-0.028923665453847287,"52":0.03603531805718388,"53":0.01034445748795596}},{"sx":1,"sy":1,"depth":54,"w":{"0":0.009857319792024281,"1":-0.009098885328853053,"2":-0.014067343712857911,"3":0.08337575819965748,"4":0.014812426279354833,"5":0.06209234004262111,"6":0.07509026796285202,"7":0.10324842029155858,"8":0.05600268659085816,"9":-0.09052570543231424,"10":0.09887096706139843,"11":-0.11049231574103252,"12":-0.07762345674105688,"13":-0.09929768808659559,"14":-0.06715566388665607,"15":-0.0033345027343196078,"16":0.0472191410813329,"17":-0.04981741427681457,"18":0.09170613726975949,"19":0.06284404001033649,"20":-0.031079092474527076,"21":-0.003036932861365689,"22":0.056357369631434145,"23":0.024538559148003684,"24":0.049662844295709656,"25":-0.00968895277906367,"26":0.032107463132045266,"27":0.014113543305066737,"28":0.04944649302129536,"29":-0.027400009256415298,"30":0.039141728340892745,"31":0.10514107655409054,"32":0.189654816434652,"33":-0.048131186499414065,"34":0.04792133650183199,"35":0.10262617895979663,"36":0.019459278976074922,"37":0.01987392326265527,"38":0.03915214672652746,"39":0.011489184167894633,"40":0.08009909939460408,"41":-0.034835428501759,"42":-0.0257602386116893,"43":0.04803321534796059,"44":-0.003690950077206929,"45":0.014657862063537518,"46":-0.009348661040204343,"47":0.06036374230526342,"48":0.04884572951423299,"49":0.06526559166366155,"50":0.032725514993930664,"51":-0.010709387946525485,"52":-0.0004500881110498896,"53":0.02332366960956864}},{"sx":1,"sy":1,"depth":54,"w":{"0":0.02135761970950689,"1":0.009358848864706655,"2":-0.04719242555403555,"3":0.1140651917074823,"4":-0.017943615720599524,"5":0.11935748235631499,"6":0.04379356848797478,"7":-0.08637337531282019,"8":0.044164170352805746,"9":0.04761740090963697,"10":0.0020486210851843557,"11":0.119838025219538,"12":0.0015103346486845296,"13":-0.05806129516744388,"14":0.0036037234078186322,"15":0.03756012911551609,"16":0.06964848515836616,"17":0.12101601189701128,"18":0.04067469916229811,"19":0.009685624328302174,"20":-0.03397750257390961,"21":0.03727206343474948,"22":0.06823422901704096,"23":0.036813577925968455,"24":-0.02830460970577559,"25":-0.019468483746877045,"26":0.07555973131611031,"27":-0.06495852887593072,"28":0.029011361330825946,"29":-0.013345106503915377,"30":0.0680377900063724,"31":-0.08028420393761874,"32":-0.006249723420228768,"33":-0.0023124170075285023,"34":-0.12418335076760961,"35":0.007702050894379038,"36":-0.0263301634925999,"37":0.0600695434493849,"38":-0.00707023731976753,"39":-0.06397980031453947,"40":-0.0745958709135503,"41":-0.06640050130826002,"42":-0.04812403423772198,"43":0.042011723675935767,"44":-0.02863287420860482,"45":0.03316058829893636,"46":-0.10754053189432562,"47":0.004833745626207618,"48":0.03347194865763306,"49":0.01796898243172462,"50":-0.002020817971911296,"51":0.021718621532209825,"52":-0.011441838637603749,"53":0.026209987630201402}},{"sx":1,"sy":1,"depth":54,"w":{"0":-0.012034241735060546,"1":-0.04818366130544823,"2":0.030318271513813052,"3":-0.016861735059475566,"4":-0.012997591926377386,"5":-0.007152340526108118,"6":-0.019742252287992514,"7":0.044495748737057854,"8":-0.0030540697363739162,"9":-0.03689994516622772,"10":-0.09364386224624073,"11":0.07817738284472246,"12":0.02254112888954612,"13":0.05288831037271948,"14":0.03201085113197707,"15":-0.07938781873423355,"16":-0.059241364897683925,"17":-0.12623236904448742,"18":-0.06606466944823036,"19":-0.05134010703391644,"20":-0.04340511710256785,"21":-0.05142645973605795,"22":-0.06516834215399393,"23":-0.03520267579014924,"24":-0.0008952413121412917,"25":0.033325495754265265,"26":0.05768508053875025,"27":0.024358068597174903,"28":-0.016707843838191332,"29":0.011436496899574924,"30":0.04136478168837644,"31":-0.021246154197522547,"32":0.033898799050021765,"33":0.004220107683357935,"34":0.04525354432811728,"35":-0.013562051794045243,"36":0.10118028666513722,"37":0.05271564692453741,"38":0.021964337835404902,"39":0.0648959924414149,"40":0.06119205343115913,"41":-0.015595622439142262,"42":0.038817952131858416,"43":-0.04735161279605667,"44":-0.016785795393885933,"45":0.11320557732883373,"46":0.019082929365637113,"47":-0.03295554934869989,"48":0.07558522423371794,"49":-0.013547532457204784,"50":0.05943405261771409,"51":0.017728324004664384,"52":-0.05053682330873154,"53":-0.014025910631663809}},{"sx":1,"sy":1,"depth":54,"w":{"0":0.0204106351000348,"1":0.01343140289382744,"2":0.03823116415310667,"3":-0.026058780319469895,"4":-0.07205665947831387,"5":-0.03958143961469896,"6":-0.08292797511335406,"7":-0.06934239820821426,"8":-0.03796381402532618,"9":-0.005175676512143377,"10":0.017405516653760823,"11":0.04925433015069639,"12":0.05966929803661972,"13":-0.013645677324052528,"14":0.016498768727577103,"15":-0.05489655392514996,"16":-0.009695703910873696,"17":0.028702386079804094,"18":0.047924156765276164,"19":0.056196611164099325,"20":-0.009110438311984383,"21":0.02664699664355568,"22":-0.035754198002800955,"23":-0.04973473120053762,"24":0.02015881284769744,"25":-0.07136583052553287,"26":0.1065655148390023,"27":0.0745304174457302,"28":0.02037872675399538,"29":-0.04275711172135724,"30":0.01641969447282431,"31":-0.048202059157609035,"32":0.0554913808331239,"33":0.001628404058897723,"34":-0.013738356055524632,"35":0.03555620718534104,"36":0.08170040405183153,"37":0.1003800748510633,"38":0.01180714943062454,"39":-0.05255674751766307,"40":0.012506301797706565,"41":-0.05518824503975144,"42":-0.02841347501480955,"43":-0.05904557590234593,"44":-0.0013074394277429382,"45":-0.014842100517916734,"46":-0.0026952700394459596,"47":0.0028021560853195666,"48":-0.040855991981041076,"49":-0.023144603429729967,"50":-0.05224229797314232,"51":0.03310879170130727,"52":-0.028158217887480016,"53":0.010033572546660421}},{"sx":1,"sy":1,"depth":54,"w":{"0":0.08991743948135936,"1":0.07371421219586571,"2":0.12112560757265678,"3":0.027812014348771206,"4":0.045411635452298524,"5":-0.021387481881618584,"6":-0.0033609992359377536,"7":0.03859481578912624,"8":0.0936329274292342,"9":-0.018331565254097223,"10":0.03434852708614334,"11":-0.00273692033704122,"12":-0.04230704013632233,"13":-0.07085697812752262,"14":0.03906362343733174,"15":-0.12011758138354708,"16":0.05097975547156995,"17":-0.006126934003966372,"18":0.02293953613972211,"19":-0.0674779851395994,"20":0.011453342654009038,"21":0.015189792201246966,"22":-0.025524347708217814,"23":-0.02417148666253318,"24":-0.0478149693967952,"25":-0.07042906997421194,"26":-0.035990419695346915,"27":-0.00016215966590192314,"28":-0.04359835761723987,"29":-0.04149396757335574,"30":0.039625416121472114,"31":-0.0009353605063586782,"32":-0.014176905321959688,"33":0.031999853660498734,"34":-0.008574634827298526,"35":0.008294433653897424,"36":-0.03973061770827382,"37":0.1139639405197931,"38":-0.07657599919120182,"39":0.07382971319653034,"40":-0.01846260519033384,"41":-0.004515606247094524,"42":-0.033851204090409585,"43":0.025702092978492613,"44":0.009679967187613728,"45":0.003732305381360375,"46":-0.031087157284803706,"47":0.024128046280639828,"48":-0.02929650518854813,"49":-0.020387614511991874,"50":0.08588594782495364,"51":-0.013490347787013319,"52":-0.03537117232316808,"53":-0.007507701929444115}},{"sx":1,"sy":1,"depth":54,"w":{"0":-0.0203745376072693,"1":-0.040132121688330004,"2":-0.039096152581265864,"3":-0.08146183796915968,"4":-0.1440684982022762,"5":0.020900298181850834,"6":-0.012525043740752724,"7":0.018376675545212925,"8":-0.003545421917493835,"9":0.007697345262401953,"10":-0.026985652346229527,"11":-0.03649285247303644,"12":0.04740935349483255,"13":0.004656285069817808,"14":-0.041055277385515225,"15":-0.08823066143825294,"16":0.07241813193668238,"17":0.06521374632157347,"18":-0.024776989636308644,"19":-0.02392154979687443,"20":-0.10627615471612252,"21":0.010703870093636023,"22":0.0006225948929890547,"23":0.0578837991281744,"24":0.035350604917632214,"25":-0.024807946776264553,"26":-0.0158220125004096,"27":0.019525117504183117,"28":-0.04106893935364296,"29":-0.05070232722487887,"30":0.0017396133421713794,"31":-0.04072338273298249,"32":0.041502608529489254,"33":-0.04784364215746038,"34":-0.04358848940022209,"35":0.029479903353128504,"36":0.03824759639698496,"37":-0.03533308665233695,"38":0.0027943663343412434,"39":0.04685360315480592,"40":-0.0709501723424801,"41":0.03535539194829836,"42":0.04428674662633302,"43":-0.028834499175833566,"44":-0.0051043085762437716,"45":-0.05511812407104105,"46":0.013963687258888751,"47":0.049231468612179974,"48":-0.02820331662362664,"49":-0.028891235577577157,"50":0.04902690714789744,"51":0.042266041150479744,"52":0.07608399271915492,"53":-0.0256177056625925}},{"sx":1,"sy":1,"depth":54,"w":{"0":0.08346931123789848,"1":0.01237965014753612,"2":-0.06362571847464907,"3":0.04373755057542749,"4":0.044454974879759475,"5":-0.006697509105767389,"6":0.011537018535580154,"7":0.04113997037400108,"8":0.11311059629102743,"9":0.027511948931148573,"10":-0.029017627928865204,"11":0.06745994189680815,"12":-0.020116527191581503,"13":-0.07938600036517114,"14":-0.02497473418891934,"15":-0.020371185775175344,"16":-0.07186466712000279,"17":-0.10408062938476659,"18":-0.037844325600645996,"19":0.04565254008817007,"20":0.06584133687202923,"21":0.06072638127816959,"22":-0.07034153618670053,"23":-0.003796497565484519,"24":0.06612495799613523,"25":-0.026218567824532867,"26":0.04518945091168814,"27":-0.022541355102845953,"28":-0.01897863283103863,"29":0.0727205357820625,"30":0.022809807190820708,"31":-0.08115312465046721,"32":0.08165178229219401,"33":-0.038686007086578066,"34":-0.05773688422757872,"35":0.0017063416264071463,"36":0.10587112077143297,"37":0.05256918604675261,"38":-0.01217895481447532,"39":0.017561088823846542,"40":0.06390207108727682,"41":-0.023256557468846903,"42":-0.03593492890715967,"43":0.05949792529719586,"44":-0.027562376780336753,"45":0.023353585426746155,"46":0.0060194427177875445,"47":-0.022091985117942668,"48":0.049485137481380545,"49":-0.004398294427283981,"50":0.02215787008772285,"51":0.029823662285517718,"52":-0.04287710018156381,"53":-0.03307210188959565}},{"sx":1,"sy":1,"depth":54,"w":{"0":-0.10874713420729475,"1":-0.09074324594218879,"2":-0.015746365347474645,"3":0.013241433995403996,"4":-0.13504053795190152,"5":-0.05986771246358878,"6":-0.015007819398858023,"7":-0.01535751688119847,"8":0.005168983660323349,"9":-0.0027816810763300883,"10":-0.0326059515998138,"11":-0.09095103375332649,"12":-0.015255904207001054,"13":-0.027174573759080115,"14":-0.04216741533733803,"15":-0.08677799951235894,"16":-0.1520641866794272,"17":-0.06415464311542739,"18":-0.0412995316107907,"19":-0.016035235864525713,"20":-0.11923182036763179,"21":-0.03075549695075278,"22":0.02099928875745174,"23":-0.01158793852561956,"24":-0.02769528284092311,"25":0.012168862471776226,"26":0.03497836576874286,"27":0.002978337413239547,"28":0.05732475166999106,"29":-0.05397240847351617,"30":0.03287827272432335,"31":0.010393316089527939,"32":0.05114359673813426,"33":-0.04189469752227455,"34":0.005392935110605179,"35":0.02759234067766513,"36":0.06511557014394573,"37":-0.0000944512140229858,"38":0.07207375608820776,"39":0.009438182391674084,"40":0.03157969389217794,"41":0.03684122665227801,"42":0.08247664994725891,"43":0.06865633863263888,"44":0.04494814809959921,"45":-0.042255981010204065,"46":-0.026239035779051335,"47":0.08047302679216509,"48":0.06370090931885103,"49":-0.035214332022003324,"50":-0.0398728986282544,"51":0.022752990888373858,"52":0.03280953984005077,"53":-0.003070185379019574}},{"sx":1,"sy":1,"depth":54,"w":{"0":-0.038585050103911264,"1":-0.050367417538013104,"2":0.0062898371268301605,"3":-0.060340621066205,"4":0.05511956671758583,"5":-0.017743035334765806,"6":0.03515250785592391,"7":-0.0759415673021549,"8":0.08008555323436528,"9":-0.020379175824582384,"10":0.08502388049649952,"11":-0.06318395937972378,"12":0.10819308888871663,"13":-0.06761611260635236,"14":0.009464176527995118,"15":0.08922273684388403,"16":-0.07788950593338263,"17":-0.02550449839857653,"18":0.12027095362314706,"19":-0.09514525649177702,"20":0.0019051192732271014,"21":0.016010499690030544,"22":-0.0023592399358458725,"23":-0.05178687400416089,"24":0.0059295768726787546,"25":0.024011664310778256,"26":0.07884890473790156,"27":0.05398633409837239,"28":-0.029578823895748868,"29":0.06091689390664122,"30":-0.03756415467696988,"31":-0.02454983173149544,"32":-0.01451264727643147,"33":0.15143162098143445,"34":-0.03110493712291171,"35":-0.004062107943382888,"36":-0.06567723659732612,"37":0.053210927281884,"38":0.024134365719076067,"39":0.06889910583999395,"40":0.10347278291874112,"41":-0.07533463726354359,"42":-0.04956442535332825,"43":0.08483179045685509,"44":-0.03837574279891178,"45":0.054898015354363276,"46":0.01779130253466136,"47":-0.02528104661546363,"48":-0.04878777645013451,"49":0.01428501565527665,"50":-0.007532061826365873,"51":-0.006194519497069463,"52":0.06498878488567134,"53":0.05912267403398864}},{"sx":1,"sy":1,"depth":54,"w":{"0":0.08736002069824314,"1":0.030785953805158518,"2":0.04876448474130303,"3":0.07619341912692805,"4":0.0010710945388070093,"5":-0.050393424574026145,"6":-0.05805541128938418,"7":0.010250500714613097,"8":-0.010047704403386726,"9":0.018003326746323645,"10":0.022998347941581527,"11":-0.05132604301268441,"12":0.020341081405720836,"13":-0.002261922820108259,"14":-0.03335551615915747,"15":0.04881104194840811,"16":-0.01385609833697573,"17":-0.08576283779494522,"18":-0.03149688072446591,"19":-0.02706597143272551,"20":0.021246582038978095,"21":0.027321581128449474,"22":0.0686906515534153,"23":0.12272255106414334,"24":0.0243579083372597,"25":-0.03852417584722362,"26":-0.03573247275651008,"27":-0.0034584143188749607,"28":0.009402190234395901,"29":0.0461170770759797,"30":0.0027541408213687347,"31":-0.0703570968815374,"32":-0.05579043341156122,"33":-0.07423275337110391,"34":0.0429386794759505,"35":0.06848362316632692,"36":-0.03090404456776588,"37":-0.0018264954391313624,"38":0.027411674419787053,"39":-0.003280131400424505,"40":0.1113838609829907,"41":0.05214735807605538,"42":-0.0620919630169059,"43":-0.03416220326307671,"44":0.10326747116074249,"45":0.058398745516135726,"46":0.018478366635284738,"47":0.09767862816610932,"48":0.03782840344443356,"49":0.0333373590082342,"50":0.02670202356426534,"51":-0.018447352134158667,"52":0.004138813893351313,"53":0.08608965688875074}},{"sx":1,"sy":1,"depth":54,"w":{"0":-0.05621474543994189,"1":-0.040510075088769484,"2":0.03400697751179956,"3":-0.00461556928223508,"4":-0.021712287828275268,"5":0.03038739182706405,"6":-0.0009494535089929186,"7":-0.08900281876255875,"8":0.0441537633331708,"9":-0.08176270964713825,"10":-0.010586150220550832,"11":0.07717384291365768,"12":-0.0265440898066978,"13":0.05966854221083151,"14":-0.010874482742249822,"15":-0.027467689873645215,"16":0.06010388880803756,"17":-0.08838086482705143,"18":0.03391798424414897,"19":0.02896577874714944,"20":0.04429676280346728,"21":0.04122334660218361,"22":-0.08534701880306078,"23":-0.012432705884717043,"24":-0.04426724736627162,"25":0.07563857515734404,"26":0.022650992210377245,"27":0.059231987574222364,"28":0.04305330472272554,"29":-0.038400952926287014,"30":0.0006052108346127644,"31":-0.04630039541811253,"32":-0.045751749856385915,"33":0.011657622535196553,"34":-0.07629873974416729,"35":-0.01655506181297124,"36":0.047784079926727424,"37":-0.031490850143625675,"38":-0.006150186074238235,"39":-0.05770573686134165,"40":-0.09553831425464683,"41":-0.0025128733812376813,"42":-0.08573937672909436,"43":-0.018105936480451692,"44":-0.01784818160173084,"45":-0.031216348276538408,"46":-0.05977765821438071,"47":-0.04300845592734525,"48":0.041240614545453205,"49":-0.05226890070032913,"50":-0.03931805542000515,"51":0.001634626778625497,"52":0.021136873266289477,"53":-0.06527172689060105}},{"sx":1,"sy":1,"depth":54,"w":{"0":-0.007483323498741135,"1":0.0020504388332932898,"2":0.06045469838128903,"3":0.07791184932375235,"4":0.08410752000616778,"5":-0.011679658057361774,"6":0.08234338605887837,"7":-0.05397062191070636,"8":0.08298559678245157,"9":-0.08876355771401025,"10":0.008853258504554562,"11":-0.12823327382825503,"12":0.011702697418761534,"13":-0.002227651771150367,"14":-0.011828568695375592,"15":-0.045812896731715284,"16":-0.09362227288052109,"17":0.028762922750988407,"18":-0.03665878557649477,"19":0.03324964743745837,"20":-0.0036409417749517356,"21":0.0674229005457599,"22":0.011582579679806623,"23":0.034849616147629124,"24":0.06050566611896818,"25":0.03572451571340942,"26":0.01487016047728763,"27":0.03331838404676326,"28":0.0012286688812638976,"29":0.03294556382920503,"30":0.04664406954333125,"31":0.059150041283918715,"32":0.03435761203279628,"33":0.020408086100591513,"34":0.05650708593104938,"35":0.038914043296946484,"36":-0.032537593342961926,"37":0.02886406200305897,"38":0.02565083186065331,"39":0.012516501760701902,"40":-0.00993934757391666,"41":0.08738642664322924,"42":-0.05508827189191498,"43":-0.04738086354538229,"44":0.046432197253080024,"45":0.02321352383187192,"46":0.0032840762470856574,"47":-0.09531653542618249,"48":-0.037738728344304605,"49":-0.03460240687310974,"50":-0.00269854489692874,"51":0.014085996702350003,"52":0.0067304060359163805,"53":-0.048569765109458894}},{"sx":1,"sy":1,"depth":54,"w":{"0":-0.011441692993444849,"1":-0.017083749336561854,"2":-0.07759818128514316,"3":0.05785986072181027,"4":-0.04160214083645005,"5":0.03742985306431217,"6":-0.011747942207095014,"7":-0.0030662718556373173,"8":0.03931842297106059,"9":-0.034509139981293874,"10":-0.03125258758811514,"11":0.09451147262381383,"12":0.007308865663363553,"13":-0.0004034347239960828,"14":0.005070451438195724,"15":0.04731787849665122,"16":-0.0410660382769668,"17":0.09784692843107447,"18":-0.06776774613408387,"19":0.07865938680547627,"20":-0.021771940721087124,"21":-0.0440626218503202,"22":0.011499225910496453,"23":-0.07170693496316609,"24":-0.02521240132636018,"25":-0.05156165751203234,"26":0.02617736091508555,"27":-0.005154507029474508,"28":-0.06581919126050276,"29":0.0042473565104262445,"30":0.046184377908298255,"31":0.04274632559048386,"32":0.07974364997332088,"33":0.0947944771284257,"34":0.06132157945070842,"35":-0.011328239485619803,"36":-0.0033511815338976075,"37":0.07863866692766029,"38":0.026872318434400713,"39":0.0034224448916137925,"40":-0.05859732414291839,"41":-0.037405165710128294,"42":-0.011411129418409736,"43":-0.04395930405507079,"44":0.043097454658464214,"45":-0.034136032308420515,"46":-0.0017481870570224343,"47":0.08041857206941744,"48":-0.11393984064442937,"49":-0.04620013506747595,"50":0.020866783830063382,"51":-0.015493527670368632,"52":-0.014899903544971591,"53":-0.04449289662193063}},{"sx":1,"sy":1,"depth":54,"w":{"0":0.03307446462768023,"1":0.0312208918264094,"2":0.05420762043631632,"3":-0.03104481779375938,"4":0.08433750299654989,"5":0.017596176823352808,"6":0.05461447605425271,"7":-0.13197268189065955,"8":0.013474943138613329,"9":-0.02869949866875701,"10":0.03704639321020746,"11":-0.0350296419207261,"12":-0.022501018814319106,"13":0.028133383580949183,"14":-0.03100333656762571,"15":-0.1143427056389963,"16":-0.028038799027574862,"17":-0.02550295205354906,"18":-0.058194902311044926,"19":0.02582252710345268,"20":-0.03151953550712441,"21":-0.06840071530911822,"22":0.02044323348569912,"23":0.025262995797033557,"24":-0.021860342079934755,"25":0.02448743666079897,"26":0.04138780516269157,"27":-0.027438041351663126,"28":-0.0176495515840579,"29":0.04804886374965339,"30":-0.0044442183162187385,"31":0.08211890815218521,"32":-0.12116041058492433,"33":0.03635374243763656,"34":-0.06518552982720513,"35":0.024972329734227087,"36":-0.0784594379572864,"37":-0.005590350676247481,"38":-0.008789086952375565,"39":-0.051100923901488245,"40":-0.06953962056795632,"41":-0.01464272390908892,"42":0.0674123241788222,"43":0.002221616202547835,"44":0.07113483395733788,"45":0.0038708463006799634,"46":0.1275610770228032,"47":0.06967410488125966,"48":0.01689923315045797,"49":0.01644276520228452,"50":0.047199088595550685,"51":0.024506993919999803,"52":-0.022617009057805375,"53":0.012972287650870601}},{"sx":1,"sy":1,"depth":54,"w":{"0":0.08299799213293602,"1":0.05655155038618452,"2":0.006468914689498198,"3":-0.060349868601828886,"4":0.0003892297977464622,"5":-0.02061615257360933,"6":0.05922353568539661,"7":-0.08238361375915154,"8":0.045768685013338625,"9":0.07261443959809484,"10":-0.05695677320631539,"11":0.009139774648165863,"12":-0.0027739702222394635,"13":0.0004851777423659526,"14":-0.005791164977849054,"15":0.01905625003611676,"16":0.059008731189046086,"17":-0.029818082514455516,"18":-0.08022446821527525,"19":-0.061160701023396206,"20":0.045444135758913984,"21":0.0057821629339372405,"22":-0.06551936520095353,"23":-0.028334724780171256,"24":0.04538474820044573,"25":0.06918538621475816,"26":0.006746367551373441,"27":0.04032362865717434,"28":-0.07960131480928298,"29":0.03894997528774743,"30":0.0027962879559340743,"31":0.0027003943217691357,"32":-0.10276642547190944,"33":-0.0691397805905915,"34":-0.024712355889356063,"35":-0.044344404924397195,"36":-0.07077879362327963,"37":0.03157549674512541,"38":-0.019966133770591293,"39":-0.014493400842139608,"40":-0.00012885109244855942,"41":0.020595127113643974,"42":0.062161669116694726,"43":0.0063997234012003,"44":-0.04881677382776371,"45":0.025981311841625342,"46":0.12232079257893509,"47":0.04681420473834686,"48":-0.030510478019058047,"49":0.004203420432505214,"50":0.015510006946100923,"51":-0.08130915959544228,"52":0.03580539669922326,"53":0.007311980734199806}},{"sx":1,"sy":1,"depth":54,"w":{"0":-0.024095769362325582,"1":-0.038970551079772354,"2":-0.06859966664437991,"3":-0.03317663555162296,"4":-0.04903847944109633,"5":-0.006205639903081563,"6":-0.03779327984792866,"7":0.03608374648318335,"8":-0.039937453385893766,"9":0.02429403201197429,"10":0.03263029506859995,"11":-0.03292960247753252,"12":-0.00620066802359838,"13":0.035087689337197685,"14":-0.03910998898024431,"15":-0.08951795019161006,"16":-0.016358377363558406,"17":0.013243741739346825,"18":0.12207836104212363,"19":-0.015232610644847783,"20":-0.08608345356266274,"21":-0.07668552160057134,"22":-0.08501213738346894,"23":-0.05527326380612215,"24":-0.02552667182870822,"25":0.004912717536299477,"26":0.007228152500543024,"27":-0.11724983113028822,"28":0.03244775915964139,"29":-0.03546316717399261,"30":0.02857101449662849,"31":0.08052131829942819,"32":-0.03658829704030057,"33":-0.030141561031779913,"34":0.007793863618854457,"35":0.04887308946488873,"36":-0.012672662934739787,"37":0.03453787501577224,"38":-0.09545981580489797,"39":0.04077202375042614,"40":-0.02245459466848176,"41":-0.014459706627284748,"42":0.05818192395910142,"43":0.07725825754960776,"44":-0.04523811142633546,"45":0.015416678255142827,"46":-0.03502754836356714,"47":0.05114429125885308,"48":0.03188771382055672,"49":0.00820960884133164,"50":0.022884796935723147,"51":-0.0038119960209522462,"52":0.00945126771836917,"53":-0.009248821131489162}},{"sx":1,"sy":1,"depth":54,"w":{"0":0.07714041493133895,"1":-0.006483590169093067,"2":0.0512834505733531,"3":0.015495973332682433,"4":0.045505077224527436,"5":0.0192333851031501,"6":0.041906846606238245,"7":-0.0060658849380715255,"8":-0.012194307292219654,"9":0.06573997126005358,"10":-0.014781996028527622,"11":-0.04300137901853808,"12":-0.011091072505470903,"13":-0.012003650874082134,"14":0.0329851861151665,"15":0.04952270064303501,"16":-0.0545815436708604,"17":-0.01941965601263043,"18":0.02283791665857379,"19":0.03228435924677426,"20":0.07229382818115121,"21":-0.03509656263805394,"22":-0.001601400107324024,"23":-0.0006475088679067058,"24":-0.018180975891029162,"25":-0.011712875871405282,"26":0.028294058609963677,"27":-0.016575156414581155,"28":0.047813529855651425,"29":-0.008117997650007607,"30":0.11643883004642891,"31":0.012959940849225254,"32":0.0204584365164125,"33":0.044063005598638225,"34":0.030763162710720375,"35":0.01275053776568472,"36":-0.04402699455258341,"37":-0.0774187939099658,"38":-0.026143642310819212,"39":-0.0495936460159444,"40":0.046512978345189665,"41":-0.07165128879579008,"42":-0.009067833921386837,"43":0.054168775025094214,"44":-0.005599185216702134,"45":0.038147797404086844,"46":-0.004609419568254941,"47":-0.04593265486731619,"48":-0.04837206881826261,"49":0.05323766058743696,"50":-0.04764202816806955,"51":0.0030252228139621465,"52":-0.053984935041952196,"53":-0.07340937702617634}},{"sx":1,"sy":1,"depth":54,"w":{"0":-0.09266867966120959,"1":-0.013001952405424493,"2":0.006022086036462495,"3":0.010782562328951839,"4":-0.0815441351951473,"5":0.03021904890227128,"6":0.02291919046279616,"7":0.022999831606403537,"8":0.02845277992570338,"9":0.030315374084762533,"10":0.09178294688940813,"11":-0.11541633678250979,"12":-0.21783785928833282,"13":0.01386871586579162,"14":0.06311164020639919,"15":-0.03234869878971329,"16":0.009378233245889692,"17":0.08723388224939221,"18":0.02594175215002174,"19":0.05886999540264743,"20":-0.06357055909348709,"21":-0.026898434820727634,"22":0.027533529533062463,"23":0.02520767467862018,"24":-0.0630706423772047,"25":-0.04263008838469397,"26":-0.030132174553491677,"27":0.005013370655201078,"28":-0.013280596590439528,"29":-0.08901850127842723,"30":-0.0807742806704844,"31":0.011852546783838028,"32":-0.026087411577170126,"33":-0.007174604365463094,"34":-0.05366056010668597,"35":0.021053334111033755,"36":-0.07615539097454531,"37":0.0030924738652416866,"38":0.019493025140093444,"39":-0.03179676286659852,"40":-0.005630948952795241,"41":0.036876070156301954,"42":0.012776196623801726,"43":-0.03196694156697513,"44":-0.13288020039274176,"45":-0.013836924821694994,"46":0.0255545594830493,"47":-0.017466204697204647,"48":-0.026034625054403286,"49":-0.05622235897791823,"50":0.006752574316338479,"51":0.0016073716272679644,"52":0.03774262270502141,"53":0.0026557745037052998}},{"sx":1,"sy":1,"depth":54,"w":{"0":0.008307599968993712,"1":0.030833312267396325,"2":0.013489924698916371,"3":-0.03968355450849054,"4":-0.07527200761674449,"5":-0.030105331785313938,"6":-0.04186125164449612,"7":0.06699653382210594,"8":-0.017431759094420737,"9":-0.04958378548276537,"10":-0.041970720143687745,"11":-0.03667720694239636,"12":0.013425627941536681,"13":0.01866222641210473,"14":-0.05077513842243693,"15":0.05882306157619791,"16":0.016872926149582787,"17":0.02107685517385249,"18":0.03239546843297787,"19":0.03389883760936559,"20":0.04019701850274445,"21":0.041067758882521066,"22":0.022763189413391345,"23":-0.04973948644031021,"24":-0.027519354884824605,"25":0.001488688084731507,"26":-0.038387814467525205,"27":-0.02722963745241783,"28":0.010510265995125502,"29":-0.05843405405902833,"30":0.004093780777188501,"31":0.03221788397627331,"32":0.06140909547215761,"33":0.06430427258445852,"34":0.005904132306676294,"35":-0.002917202435294516,"36":-0.07658739977679767,"37":-0.009692146311183446,"38":-0.02089160752846221,"39":0.017979438366380433,"40":0.00887539704480528,"41":0.027130500226896427,"42":-0.04113350491741967,"43":-0.034694567423427386,"44":0.040876349597648194,"45":-0.035028133045127204,"46":-0.025204185536913424,"47":0.030360342276383116,"48":-0.07390305748229715,"49":-0.02014884223338662,"50":0.016384480765130972,"51":-0.007786789743954662,"52":0.07372640346344783,"53":0.0017293527309410557}},{"sx":1,"sy":1,"depth":54,"w":{"0":-0.02873942552452617,"1":-0.033751200161237074,"2":-0.031720241965480005,"3":-0.013400817710992682,"4":-0.02207185702354509,"5":0.005156980554287358,"6":0.0704491832660698,"7":-0.020529552682862273,"8":0.024839046381769092,"9":0.02587451638877147,"10":0.021621407847978308,"11":-0.008474017654914547,"12":-0.03852823203424636,"13":-0.04435351037368752,"14":-0.021869854042434227,"15":0.016641623109729355,"16":-0.13811971181823193,"17":-0.08569117842661589,"18":-0.0004951598357126264,"19":0.060121171227751014,"20":-0.0066842096092453425,"21":-0.036274494572448794,"22":-0.06266438937452617,"23":-0.028503562898637598,"24":0.054926423141915315,"25":0.03788139957513379,"26":-0.04145068472680723,"27":-0.06750915179060595,"28":-0.09443025650045314,"29":0.017272008479618035,"30":0.012259419521089636,"31":0.06812376026108757,"32":-0.041143000400829716,"33":0.08420746382556654,"34":-0.07156238491708397,"35":-0.0029574282651302006,"36":0.01693136996845928,"37":-0.06595058218798716,"38":-0.0038020295608275252,"39":0.025795193159014594,"40":-0.035988863264866264,"41":-0.07007897457417667,"42":0.062328691330134904,"43":0.10566935616652082,"44":-0.030348320174230753,"45":0.03451102625084542,"46":-0.048010915076196134,"47":-0.01540494915781722,"48":0.023671150968203686,"49":0.036016562976906884,"50":0.015658982337834748,"51":0.05006728998800694,"52":-0.04457489965549769,"53":0.04639972284953757}},{"sx":1,"sy":1,"depth":54,"w":{"0":0.016119347179594085,"1":-0.03074901556340247,"2":0.008145157625314495,"3":-0.013543388757024722,"4":-0.05084477056640663,"5":-0.0055458678608092775,"6":0.004854355226299495,"7":-0.09212727583374351,"8":-0.06441592888145407,"9":-0.03229597839199957,"10":0.0000651283218384425,"11":-0.025076936703736452,"12":0.02604396595110117,"13":0.03241199545871904,"14":0.08104024606462185,"15":0.0048317968089781,"16":0.07827787668166614,"17":0.005904474767911159,"18":0.03379584340979189,"19":-0.10184607322476365,"20":0.014410036030400713,"21":-0.0005938625063539268,"22":-0.0023348015600526384,"23":-0.03571525939965275,"24":0.01412823582997103,"25":0.018404523951659056,"26":0.009712619522716555,"27":0.0763897115089032,"28":0.036924689564788976,"29":0.044444972188741064,"30":-0.017524420797232425,"31":-0.06123778406806331,"32":0.10614938129257151,"33":-0.08835439447428019,"34":0.026166589040133813,"35":0.005444449074029181,"36":-0.08869445261635843,"37":0.023373669640734004,"38":0.06074925320284711,"39":-0.0031597610445142717,"40":-0.00980440086642809,"41":-0.0007573043704263516,"42":-0.028371914979851174,"43":0.033916260849172805,"44":-0.024085841734581462,"45":0.008462706976151577,"46":0.005549468743826521,"47":-0.007841842609172624,"48":-0.013955669098415002,"49":-0.04959602876051936,"50":0.01875723787899613,"51":-0.05451371675636213,"52":-0.05279862920753683,"53":-0.052836369813577894}},{"sx":1,"sy":1,"depth":54,"w":{"0":-0.06828170278623005,"1":-0.06931564360912001,"2":0.026749533959477233,"3":0.009175360112050035,"4":-0.0798662036997211,"5":-0.0838823539132376,"6":-0.011567533208754513,"7":0.0022750361049046096,"8":0.014639235193956173,"9":-0.031902884760481254,"10":-0.008329526481186048,"11":-0.004646130500262125,"12":-0.04295065065923949,"13":-0.019029126237554178,"14":-0.020248643984387745,"15":-0.05685945473552688,"16":-0.02890069398660118,"17":0.05931308592339926,"18":0.04462755806014433,"19":0.037244860324253865,"20":0.02110594079225783,"21":-0.042795057345385495,"22":0.007987321240481286,"23":0.0672022510099583,"24":-0.018993793496015262,"25":-0.028217034642347875,"26":-0.03627093970555133,"27":-0.0037370427129311437,"28":0.0748780719844791,"29":0.014247614304914771,"30":-0.10181571413921454,"31":-0.016123170030725907,"32":-0.06631214701040909,"33":0.02310399102529907,"34":-0.030132605719038943,"35":-0.04138271030262749,"36":0.013251779753015044,"37":0.0028919471521352143,"38":-0.013322456312702225,"39":-0.027324373389102614,"40":0.07360196638786234,"41":-0.13259276256233216,"42":0.09497113158654968,"43":-0.07643112685897709,"44":0.008098989774463826,"45":-0.08089198012501972,"46":0.12363758563826692,"47":-0.0292300515375032,"48":0.018676340063687676,"49":-0.049508336606040586,"50":-0.06245342103189488,"51":0.009432525038592834,"52":-0.003534970105352256,"53":0.005673612670824242}},{"sx":1,"sy":1,"depth":54,"w":{"0":0.04076174904766648,"1":0.019456424718215227,"2":0.0629265852223457,"3":0.014350577846926959,"4":0.015009072918023005,"5":0.06801407373779474,"6":-0.05939406442346958,"7":-0.04757712725523476,"8":-0.046867809826264366,"9":-0.04101596322896105,"10":0.00022015755098012308,"11":-0.010242075041774134,"12":0.013086240097143546,"13":0.039121153334876486,"14":-0.002666754146800464,"15":-0.011852794671564155,"16":0.03129043940711844,"17":0.00779493699127268,"18":0.001304152088733434,"19":0.06280975521039096,"20":0.02552578672663376,"21":0.040455396585772706,"22":-0.016557195023495137,"23":0.008609678368146915,"24":0.04766984245507202,"25":0.02130801634718457,"26":-0.06623675604048757,"27":-0.007419203499942797,"28":0.11124570895275292,"29":0.037027955707499616,"30":0.08462874637044317,"31":0.07494145948139619,"32":-0.0068806537756217374,"33":-0.09760203921966029,"34":-0.005921265908802981,"35":0.011190332931802218,"36":-0.05434085663687144,"37":-0.00440943942373299,"38":0.05834791889169482,"39":-0.009815622387559059,"40":0.041174694656696334,"41":-0.03193763805986345,"42":-0.08502319887687272,"43":-0.04213132740852532,"44":0.07434614770537747,"45":0.039041405326357984,"46":0.04159470904162165,"47":-0.01917783258160135,"48":-0.012040957212050963,"49":0.018871215327641147,"50":0.003093950091401779,"51":0.03759604768504638,"52":-0.04669067656477764,"53":-0.005551313174586339}},{"sx":1,"sy":1,"depth":54,"w":{"0":0.045358228016381015,"1":-0.013012897556226793,"2":-0.042335862381356525,"3":-0.06747625619825479,"4":0.050505628691571394,"5":0.03908521272951458,"6":0.05254958472692294,"7":-0.030688981916271472,"8":-0.03170668743230787,"9":-0.0014515786690103953,"10":-0.06657999520837593,"11":-0.05354793898904562,"12":0.04234071328020986,"13":0.0068993945089214645,"14":-0.07980126138846767,"15":-0.02410968428525628,"16":0.024752279392464882,"17":0.03318654430965188,"18":0.04766992658755581,"19":-0.019251457404280182,"20":0.06601549688323728,"21":-0.061207578082596505,"22":-0.03241816726930692,"23":-0.016297288735413574,"24":0.00743775610194883,"25":-0.025478182962773686,"26":0.028333907096204043,"27":0.0034538250440979386,"28":-0.029528369642840682,"29":-0.014154847880696384,"30":0.03976445822768786,"31":-0.004270827827550237,"32":-0.01877221008081249,"33":0.006636570303310463,"34":0.03244562865178178,"35":0.03642091194594017,"36":0.001260722780692374,"37":0.14504883091658405,"38":0.012935641397290755,"39":0.012820195081332574,"40":0.0416749133356287,"41":-0.016006783475819485,"42":0.058585576100009605,"43":0.05576380804221067,"44":0.008814406696617153,"45":0.073702258621372,"46":-0.05199921123221463,"47":0.053802412707946674,"48":0.020298751893940974,"49":0.014216687112776145,"50":-0.03419714858266887,"51":0.017974583557344482,"52":-0.06331549603132065,"53":-0.020516582619009786}},{"sx":1,"sy":1,"depth":54,"w":{"0":-0.009608788316053767,"1":-0.049793838678175224,"2":0.08270921463457252,"3":0.01507779464749372,"4":0.0012134415852920024,"5":0.0039165923993607805,"6":0.086643209627434,"7":-0.02217052158080414,"8":0.010027729734986945,"9":0.06595391669230194,"10":0.03221708085211396,"11":0.09225340290765525,"12":0.03317979202123606,"13":0.005544233297515414,"14":0.022471867918352217,"15":0.001752906249488883,"16":0.12720919777162867,"17":0.025174651995396737,"18":-0.005377779518235937,"19":-0.04181155422474531,"20":0.06939070502630318,"21":0.08385590712034076,"22":0.0784051153238211,"23":0.08901028112273393,"24":0.07228624716213944,"25":-0.02471785301889475,"26":-0.10411574543987316,"27":0.0341281923318674,"28":0.07008049053107826,"29":0.04920821944594638,"30":0.05829427168258853,"31":0.055916425378513726,"32":0.013296152131653163,"33":0.04486911434108735,"34":0.004167825148602623,"35":-0.010598413017566742,"36":0.04346689245512523,"37":0.03005554184642441,"38":0.05732854737525761,"39":0.04992388950867702,"40":0.044012563098647546,"41":-0.03570043113678689,"42":0.0338412194950747,"43":0.014790212200752478,"44":-0.03913819903370658,"45":-0.028894576908767847,"46":-0.009328820034607383,"47":0.04245908284780308,"48":0.03150351330747579,"49":0.027838827375224435,"50":-0.10398105193132554,"51":-0.013992572182434519,"52":-0.021466201307787577,"53":-0.01782746802127245}},{"sx":1,"sy":1,"depth":54,"w":{"0":-0.01810119187373007,"1":-0.05614057382597726,"2":-0.015350401343718205,"3":0.013509633022457298,"4":0.06789669939800837,"5":-0.06022444038971215,"6":0.053900606268882635,"7":-0.025139764186185135,"8":0.0479261438276929,"9":0.07567917415109007,"10":0.033734856346517204,"11":-0.002780902718579715,"12":0.0882202201811379,"13":0.05933749210534716,"14":-0.03541397735419573,"15":0.03747716524364607,"16":-0.033993267578078315,"17":-0.033106241911223626,"18":-0.016758815753440306,"19":0.015909456484744615,"20":0.025865692160834168,"21":-0.019554334649727067,"22":-0.07135718498922751,"23":0.02139279620826192,"24":0.04486570766516181,"25":-0.02975593388612817,"26":-0.01713135244800203,"27":-0.025305965483767148,"28":0.006838324138789603,"29":0.10731416838767689,"30":-0.00840882518948282,"31":0.03707046647253544,"32":0.019786227546327282,"33":-0.02622240229418155,"34":0.030712124175767193,"35":0.04054271794908479,"36":-0.07026532633658836,"37":0.03024940657122206,"38":0.013044520306314825,"39":-0.03198718445920063,"40":0.023754104599187274,"41":0.06562066091418292,"42":-0.059818261382414764,"43":-0.048853000192083974,"44":0.011033053282687744,"45":0.0133896498685834,"46":0.010749818866024783,"47":-0.012891955808257824,"48":-0.03130936160024374,"49":-0.017774648385848406,"50":-0.022348364415017512,"51":-0.03570162273379941,"52":-0.01364559933949091,"53":0.054153523170957354}},{"sx":1,"sy":1,"depth":54,"w":{"0":-0.05895235759948296,"1":-0.0878528110026691,"2":0.04553501318387462,"3":-0.025727468470206006,"4":-0.08406339429357682,"5":-0.018727051591247476,"6":0.10985865567580137,"7":0.09120203166322921,"8":0.049245907020751926,"9":0.08735741527717232,"10":0.060827366088057756,"11":0.10393748493352631,"12":0.12743129367780573,"13":0.06180743179019893,"14":0.02132715372193035,"15":0.03291986436828002,"16":-0.052751073962596415,"17":-0.040096007686725235,"18":-0.01794565015667815,"19":-0.03507301759667007,"20":-0.03881898593908236,"21":0.039257255031552994,"22":-0.047437621638948664,"23":-0.06117776675732533,"24":0.014448617754082446,"25":-0.06362881590435394,"26":-0.08314218363963316,"27":-0.026882395895802484,"28":0.042336622890448816,"29":-0.021178614802802625,"30":-0.011743908515940652,"31":0.03134641835779584,"32":0.02216689436261746,"33":-0.017672692792760104,"34":0.03987518843371056,"35":0.04186066499272437,"36":0.04307106701261268,"37":-0.07459764329310463,"38":0.04175389707559983,"39":0.03279178891504294,"40":0.018896392679426013,"41":0.023983389023447228,"42":-0.03068510295290111,"43":-0.07602206870283118,"44":-0.06776772940681917,"45":-0.01256327783849459,"46":-0.03746737425499668,"47":-0.08570227919637459,"48":-0.02348946645240435,"49":-0.07196109549839852,"50":0.1007577500697833,"51":0.0225202660374092,"52":0.04546699922973869,"53":-0.0068373351632923605}},{"sx":1,"sy":1,"depth":54,"w":{"0":-0.06924068291652255,"1":0.018283318298729003,"2":0.01386583978129769,"3":-0.004019822846547737,"4":-0.06972866957248089,"5":-0.08262941706970524,"6":-0.007310834483582106,"7":-0.050252411064431735,"8":-0.00037935755612634683,"9":-0.13065633425573223,"10":-0.018964809815597044,"11":-0.03327307403373322,"12":0.050896544205382255,"13":-0.059885003901850975,"14":-0.06409755114539722,"15":-0.04475961913383809,"16":-0.006345050861109247,"17":0.09867211858545347,"18":-0.05892602749733225,"19":0.043036500832659225,"20":-0.03628647045752078,"21":-0.002984529326776593,"22":0.03581859717345283,"23":0.01970412569183386,"24":-0.0038123922552731875,"25":-0.07997103571151351,"26":0.021800726840765294,"27":-0.038911969564112595,"28":-0.07774711078127913,"29":-0.11075210246114536,"30":-0.02822060812178551,"31":-0.06628346421966412,"32":-0.008404405079451576,"33":0.056778954524091686,"34":-0.054633882468340465,"35":-0.038365570444724516,"36":-0.04753299382709363,"37":-0.04509696807886567,"38":-0.029585304672237443,"39":-0.030423157861429285,"40":-0.07141297898039847,"41":0.035629353016549854,"42":-0.015858441796804595,"43":-0.021287322657149926,"44":0.05454372832320874,"45":0.009688994952653206,"46":-0.048087668817101366,"47":-0.042870924270663475,"48":0.029183267920147315,"49":-0.13397166945782438,"50":0.01148483825842527,"51":0.07217877082331708,"52":0.0017740375685023307,"53":0.0718291899191973}},{"sx":1,"sy":1,"depth":54,"w":{"0":0.005980240598003324,"1":-0.01183889468879414,"2":0.04071123135681547,"3":0.002955347117502301,"4":0.05700551321357773,"5":0.027771984782889586,"6":0.010691927311352167,"7":-0.007517291889956594,"8":0.02737166653132624,"9":-0.00112974283060269,"10":0.04198061496597022,"11":-0.051167163275192655,"12":0.014989041571578767,"13":0.036071867620573225,"14":0.09572531889376565,"15":0.05962335208999015,"16":-0.015137881868630564,"17":0.01604219206540046,"18":-0.03541019336174348,"19":0.07624192790867566,"20":0.04812934049055619,"21":0.06064900859521983,"22":0.04983570655434142,"23":0.06319710485983188,"24":-0.011831940771926796,"25":0.04554214824757612,"26":-0.0574230325879123,"27":-0.02708368036202444,"28":-0.02499724211849678,"29":0.03394144691311402,"30":-0.010759173248500639,"31":0.01821082216283609,"32":0.010597349526711333,"33":-0.07799924009953754,"34":-0.025638882477107775,"35":-0.023537841543104572,"36":0.041449783214778685,"37":0.022096746951068596,"38":-0.06460661465994864,"39":0.03116591503808611,"40":-0.05627063022563167,"41":0.007057603059399778,"42":-0.009275574073245677,"43":0.0105445703298464,"44":-0.025020974250836922,"45":0.04571762679477972,"46":0.037862753074886686,"47":-0.03145071404893385,"48":-0.027710336621177424,"49":-0.023654464030430734,"50":-0.014590113315743261,"51":0.028922333361596164,"52":-0.04979343935368118,"53":0.016767983150904196}},{"sx":1,"sy":1,"depth":54,"w":{"0":0.006514688600546962,"1":0.06870601534978894,"2":0.019869574751063674,"3":-0.05234771852150201,"4":-0.00004642595913632626,"5":-0.0121083970959773,"6":-0.03118327957033708,"7":-0.01794253040024054,"8":-0.09261393491552322,"9":-0.0466508535595023,"10":-0.008944439306822876,"11":0.16157954241566153,"12":0.04474459947096341,"13":0.06837901872468806,"14":0.00596031265886639,"15":-0.09519316031076935,"16":-0.01644679049932027,"17":-0.056425403007945116,"18":0.08117474576000432,"19":-0.04907414400469657,"20":-0.048812667128385334,"21":-0.013926364823015385,"22":-0.09243585924352732,"23":-0.0426449510799346,"24":-0.05183741074056982,"25":-0.03824768263210034,"26":0.06142186899574327,"27":-0.013084614690915297,"28":-0.021464615143211373,"29":0.015172308208163086,"30":-0.06679522211469435,"31":-0.11498131043727364,"32":0.12219805104003252,"33":-0.014216161346428623,"34":0.04545658283380781,"35":0.03043312351778851,"36":-0.01773937835713817,"37":0.04027356610861552,"38":0.04555665670475278,"39":-0.02498802404695554,"40":-0.05334433616151744,"41":0.025866591449216807,"42":-0.029055644138527282,"43":0.025594858228367212,"44":-0.08714756176307893,"45":0.008651461988812122,"46":0.015718666396151843,"47":-0.049095712860307394,"48":-0.003515277120539835,"49":-0.056992115403493034,"50":0.0626024429180416,"51":0.037050883267469276,"52":0.054482010784194776,"53":-0.0060303375302615606}},{"sx":1,"sy":1,"depth":54,"w":{"0":-0.06455135221228663,"1":-0.03506605733404456,"2":0.01961368789924625,"3":0.08669496827919228,"4":-0.010620283452559488,"5":-0.0057321993361784005,"6":0.02818072058717517,"7":-0.05274580386070991,"8":0.06987587276767451,"9":-0.11758401721392477,"10":0.05000637999308762,"11":-0.022531597860791223,"12":-0.027749568495430848,"13":0.04311984556693619,"14":0.010050269654260462,"15":0.03175577562458079,"16":0.00393022337487107,"17":-0.04107533048952041,"18":-0.01401533883730876,"19":0.0952499788607802,"20":-0.06059283854700338,"21":0.016050577958565015,"22":-0.05073289309679871,"23":0.04136751140029389,"24":0.028466283391768963,"25":-0.12911214897004603,"26":-0.04441210579468036,"27":-0.02492923481096812,"28":-0.06654335913408335,"29":-0.027003666684986043,"30":-0.06799366531111611,"31":0.09185825905411288,"32":-0.05896613741521818,"33":-0.013037331513541615,"34":-0.07765377826911544,"35":0.007539263621093135,"36":-0.11093174103608229,"37":0.11000020111632823,"38":-0.11428681207520633,"39":0.08839407302709062,"40":-0.062412639963584246,"41":0.11862728034618887,"42":-0.09466374069803694,"43":0.04674669533083114,"44":0.008482867449832572,"45":-0.04065145884608476,"46":-0.08316075224964245,"47":0.04403562014632718,"48":0.006354817361743947,"49":-0.04457811623519794,"50":0.0016345230009075504,"51":0.0011401850061434618,"52":0.004435777475164186,"53":-0.02264431090437891}},{"sx":1,"sy":1,"depth":54,"w":{"0":0.02348950605340949,"1":0.005582510119695495,"2":0.021495953414058334,"3":0.016301568821187395,"4":0.001540001767164346,"5":0.018704193152752485,"6":0.03172346485156729,"7":0.010065923626709463,"8":-0.006035388865728566,"9":0.043725784589912,"10":0.0030406729327040805,"11":-0.04813493180518444,"12":-0.04904011666195142,"13":-0.0890003654830653,"14":-0.029951926430169803,"15":-0.09802550608688472,"16":0.010094293702216466,"17":-0.05029203674901526,"18":-0.06306075275990164,"19":0.07465755458208859,"20":0.026314692720715627,"21":-0.03595221343029967,"22":-0.010306375106142197,"23":-0.02085485441315162,"24":-0.023087813189890744,"25":-0.0425711551914227,"26":-0.04107919204313762,"27":0.0310926765307967,"28":0.015276263631033748,"29":-0.020154038300284394,"30":0.01643608104113279,"31":0.08288757366812927,"32":-0.01187915473099198,"33":0.07471011384641565,"34":0.022316550636551663,"35":-0.01776983372478846,"36":-0.03685421067552595,"37":0.07472050775311607,"38":0.00828896200180701,"39":0.060887048028594744,"40":-0.06514785204287803,"41":0.05400284209501676,"42":0.020292266035163195,"43":0.010791146640755157,"44":0.067470396523342,"45":-0.044197067633120604,"46":-0.07803239929635652,"47":-0.03756463849966831,"48":-0.06357242951061962,"49":0.018450736460346666,"50":-0.019402767664645455,"51":0.028743809663287576,"52":0.057441764397098465,"53":-0.006656033043785351}},{"sx":1,"sy":1,"depth":54,"w":{"0":0.027185798769941816,"1":0.04111887778484977,"2":-0.00022774799239381335,"3":-0.010564368627599742,"4":-0.01040237846580654,"5":0.030411630851425817,"6":-0.01644923156385379,"7":0.006861802947325945,"8":-0.06991747658522604,"9":-0.035109879554347,"10":-0.055138438534431684,"11":-0.0015649040012632896,"12":-0.04038769509993319,"13":0.06807552758760069,"14":0.04998945300658043,"15":0.015865304675573108,"16":0.05995980614802962,"17":0.02150171611854171,"18":0.09149645183375459,"19":0.06531376070517872,"20":-0.06614914312593385,"21":-0.05120082056643324,"22":-0.07308145134706673,"23":0.04825209835612093,"24":0.04493702813262171,"25":0.07306378044537547,"26":0.005278902801227538,"27":-0.006726154482522174,"28":-0.02740934056086935,"29":-0.011561087724382402,"30":0.020933825376895827,"31":0.08558185884466732,"32":0.07739690897309975,"33":0.020627772363112713,"34":0.09963136318499768,"35":-0.05848953618099606,"36":0.030189216725818677,"37":-0.023768721681934526,"38":0.07547747783283895,"39":-0.035462965064997486,"40":0.05598597544753998,"41":0.03830716933618043,"42":-0.03174260099753118,"43":0.11438114308721019,"44":-0.017593824908991133,"45":-0.07417322645904684,"46":-0.09101824439188319,"47":-0.022743792615162108,"48":-0.08392224948252414,"49":-0.08606202437220767,"50":0.0009588569543718721,"51":-0.0033899147704472645,"52":0.02639712068797855,"53":-0.03060217281610648}},{"sx":1,"sy":1,"depth":54,"w":{"0":0.07883346393622076,"1":0.026400048553722653,"2":0.01122754740159019,"3":-0.0506372288873883,"4":0.016321206472864065,"5":-0.02543737085965416,"6":0.07494961387814163,"7":0.016320666882050444,"8":0.05458453357127584,"9":-0.07882810699084716,"10":0.06653122316179673,"11":-0.04767339165600805,"12":-0.024402272341174147,"13":-0.01490670252794104,"14":-0.03116989930987917,"15":0.06045563540707029,"16":0.025348065696970318,"17":0.02940141667272896,"18":-0.0063521747788218615,"19":-0.016030348723323228,"20":-0.024644520688790496,"21":0.03716981712903347,"22":0.019928783344773576,"23":-0.018470511168002603,"24":-0.009994054684145907,"25":0.04931730468373884,"26":-0.010723266308865623,"27":-0.036526795517963,"28":0.0007922591758968658,"29":-0.0045209940134907315,"30":0.0379826662781245,"31":0.02930554873054119,"32":-0.026401343983687226,"33":0.0606713834970917,"34":0.06750226511276962,"35":0.023175840414937556,"36":-0.003988385359288497,"37":-0.017672916932349948,"38":0.025815201338532646,"39":-0.007409738780899578,"40":0.05547901662635475,"41":-0.013728250912914314,"42":-0.037842948779014514,"43":-0.0398444067134812,"44":-0.00786035870790745,"45":0.03505746570949677,"46":0.002130344894325819,"47":-0.02119525318362621,"48":-0.03615049405591634,"49":-0.05100746346834878,"50":-0.04409373183906023,"51":0.03861077233976266,"52":0.023164026587767405,"53":0.018339051476086995}},{"sx":1,"sy":1,"depth":54,"w":{"0":-0.01552889021532218,"1":-0.03497554576337883,"2":0.0050798978715252225,"3":0.0004101551491495772,"4":0.05753012096735542,"5":0.023890804818533402,"6":-0.004422614141687942,"7":0.028006841684361787,"8":0.001711665812472008,"9":-0.06176366105548128,"10":-0.030114549633197884,"11":0.00567645554238755,"12":0.02446879549237106,"13":0.0025958116446207755,"14":0.04027943819295923,"15":-0.005496396936447283,"16":-0.04329029933645004,"17":-0.022901035889944465,"18":0.029003505525541866,"19":-0.000628261577296767,"20":-0.05593253069573306,"21":0.013256877609872752,"22":0.074879711761328,"23":-0.0382652856032555,"24":-0.0478137278293176,"25":0.000612198922713463,"26":-0.08648035010147923,"27":0.009448831387908023,"28":-0.006030369447919254,"29":0.07020293690450195,"30":-0.009431834865236386,"31":-0.03574282418759275,"32":0.029785628698705397,"33":-0.02693144452878972,"34":-0.020483058973428118,"35":0.037408937052610766,"36":0.040892036043003316,"37":0.04016709233932834,"38":-0.017019441084212033,"39":0.007366994830556812,"40":-0.0032343265869397854,"41":-0.10337415422791182,"42":-0.016917013373803396,"43":0.02438017986544271,"44":-0.020191829282371718,"45":-0.04522949032168615,"46":0.030972069362589668,"47":0.035562660802460226,"48":-0.07588145552817759,"49":0.02324130768712268,"50":0.02180984882117455,"51":0.044181663403409704,"52":-0.02200735114886634,"53":0.036316500437824265}},{"sx":1,"sy":1,"depth":54,"w":{"0":-0.05283583799204924,"1":0.0036775303159961945,"2":0.06300273040049656,"3":0.0038007647640133954,"4":0.027117364530022076,"5":-0.022960698965601302,"6":0.009851920770657024,"7":-0.021726018565587358,"8":-0.03249950792077591,"9":-0.029005390656051268,"10":-0.0472419026992604,"11":0.07528743051371915,"12":-0.10487776942643262,"13":-0.016147136015783322,"14":0.023566260252238482,"15":0.0019487613796432704,"16":-0.03210311415630186,"17":-0.08331596171477382,"18":0.014856412845898143,"19":0.012150846424840857,"20":-0.0503950165214609,"21":0.011589583369625962,"22":0.007107494127564039,"23":-0.005948069412168646,"24":-0.036084947478831175,"25":0.021590204884358262,"26":0.047287201672259145,"27":-0.028510465707562424,"28":0.004047039755072891,"29":0.05054258420601714,"30":0.02591714042282526,"31":0.012152525030298254,"32":-0.08124773018489284,"33":-0.02971027493700772,"34":-0.03394619141897085,"35":0.021048843680714375,"36":0.06993118508117216,"37":-0.13005878305331872,"38":-0.08079908592732525,"39":0.030427298789433652,"40":0.033658533010068645,"41":0.05512814727059882,"42":-0.07094321739583112,"43":0.046137051200023246,"44":0.023223247534604724,"45":-0.03519524731219985,"46":0.06716677080468952,"47":-0.0012739583766530585,"48":0.0012212991970227001,"49":-0.02615684491129526,"50":-0.010507267335676808,"51":0.009386407982999393,"52":0.0040637576465354765,"53":0.019261540095426792}},{"sx":1,