{"layers":[{"out_depth":104,"out_sx":1,"out_sy":1,"layer_type":"input"},{"out_depth":100,"out_sx":1,"out_sy":1,"layer_type":"fc","num_inputs":104,"l1_decay_mul":0,"l2_decay_mul":1,"filters":[{"sx":1,"sy":1,"depth":104,"w":{"0":0.016582474362404925,"1":0.08293410813135647,"2":-0.044887139511446184,"3":0.10208765882344885,"4":-0.09651481334530969,"5":-0.029632432839963835,"6":-0.08092656300699082,"7":0.12312954761364558,"8":-0.13408155517945572,"9":0.04442315240759446,"10":0.004017135430093832,"11":0.1421317813095835,"12":0.06071248090643154,"13":-0.07511869011343972,"14":-0.03651171750260305,"15":-0.0051146773980533505,"16":0.08554348480314546,"17":0.20893721724988326,"18":0.06908205101423,"19":0.014967426545132397,"20":0.13456212793268316,"21":0.062248589222127525,"22":0.04555988078251826,"23":0.015589663935079393,"24":0.025251852942255616,"25":0.07631004688257699,"26":0.11126647108155475,"27":-0.06342507818790176,"28":0.019623139133478226,"29":0.024553796129099213,"30":0.06575763109851414,"31":0.19251748261215057,"32":-0.0054648310619249355,"33":-0.03699152109019955,"34":-0.08679723651726333,"35":0.03525839495656602,"36":-0.005166016543900915,"37":0.006865693881405902,"38":-0.10012512403640696,"39":-0.1147644715574016,"40":0.0345860459055026,"41":0.04146634322400031,"42":-0.017361829135665814,"43":-0.07172386071231923,"44":0.04261686406677335,"45":0.14419160203032913,"46":0.08388681862095203,"47":0.0076340607240623585,"48":0.037183324518146835,"49":-0.012824952925210584,"50":-0.06433050336861298,"51":0.043213216219042845,"52":0.046740561952809394,"53":0.025857452172667245,"54":-0.09513279831697417,"55":-0.016548848699471246,"56":-0.10354891486764875,"57":-0.07991617120324694,"58":-0.052260516097737776,"59":0.035559780175077015,"60":0.0449173687835204,"61":0.07801226328866424,"62":0.07622909038187127,"63":0.08447857522300804,"64":0.011175794152500123,"65":0.04622140356972916,"66":-0.010754497742612997,"67":-0.02727469204547104,"68":0.04862833791692174,"69":-0.021758018935618243,"70":0.01661637327240579,"71":-0.0007095152647673564,"72":0.00796093793389493,"73":-0.009024838750319363,"74":0.03326768666250568,"75":0.03634644645051287,"76":0.14250485297368246,"77":-0.0005096726397541985,"78":-0.020632906670761144,"79":-0.02752725673266694,"80":0.0760684610104522,"81":0.04843113808993018,"82":0.01789499031304015,"83":0.00769995797304597,"84":0.06541103644116898,"85":0.06193987442216868,"86":-0.012308239998983908,"87":0.09116147153368116,"88":-0.13200986234357232,"89":-0.021270969546323442,"90":0.05783807978385425,"91":0.12691968305107726,"92":0.05679177687388506,"93":0.050384840438207866,"94":-0.012812572741800112,"95":0.15516751924826905,"96":0.05679555989183762,"97":-0.007902826679546573,"98":-0.07399681120268495,"99":0.06157594070947657,"100":0.0046999282800781915,"101":-0.027260047285987885,"102":-0.048762522257857766,"103":0.003986638346151869}},{"sx":1,"sy":1,"depth":104,"w":{"0":0.04849242859216938,"1":-0.046611526327862966,"2":-0.021963222383496184,"3":0.0513229352788273,"4":0.1014263977327486,"5":-0.07045403707290909,"6":-0.06063543125773098,"7":0.06815947031330408,"8":-0.10061875295376743,"9":0.030302330458099058,"10":0.014152785298948237,"11":-0.006603759434226724,"12":0.007873178911199333,"13":-0.04553836510171824,"14":-0.14237476626105325,"15":-0.03227550373505626,"16":-0.0350758074880611,"17":0.03521957907926341,"18":-0.008228909203391114,"19":-0.02937768027709715,"20":0.07846789787565002,"21":-0.019082495802893087,"22":0.12619158959004972,"23":-0.0010469072756101518,"24":-0.00005989301946144439,"25":-0.0002960350136474381,"26":-0.01786180071191345,"27":0.07346501587099935,"28":0.013493748510344886,"29":0.08935231236126152,"30":0.15417890726778632,"31":-0.03983646139328831,"32":-0.07546855093333213,"33":-0.08069424942180557,"34":0.014600929773075333,"35":-0.06999056180434561,"36":0.03893715401872627,"37":-0.061362732633977776,"38":-0.027354408779484186,"39":-0.016812442500242334,"40":0.04607819355555485,"41":0.0389197882950981,"42":0.05999843440805242,"43":-0.0029498709939857117,"44":-0.04929473710856988,"45":0.005353060423215832,"46":0.05420009542449155,"47":0.01549853200555469,"48":-0.027308555218843393,"49":-0.12242082534716758,"50":-0.05000173164644845,"51":0.03767168965706503,"52":0.03493705202675998,"53":0.028027496745695556,"54":0.021524899192860554,"55":0.016945847331211353,"56":0.043738126216162666,"57":0.12554224296117358,"58":-0.08152500745015952,"59":-0.08833930219971589,"60":0.021229384057980617,"61":0.016557167763686365,"62":-0.1384543735363279,"63":-0.046102688594774295,"64":-0.006683900215592352,"65":0.06847959289393914,"66":0.017981748730821825,"67":0.004575867472905834,"68":0.07334977450438197,"69":-0.03054574058701173,"70":0.07627588283700491,"71":0.0409530617625682,"72":0.008807361137064674,"73":0.06226481399341802,"74":0.05304417960727749,"75":-0.01286433743436161,"76":0.015812594954725232,"77":0.08161887097042889,"78":-0.05432219691406919,"79":-0.07614041899583744,"80":-0.09114953921665013,"81":-0.023113688037487923,"82":-0.011032018736641407,"83":-0.04112697962978372,"84":0.0824470758468075,"85":-0.03163351560367281,"86":-0.05368929241995053,"87":-0.13725057196442464,"88":0.11539956670210386,"89":-0.05342856607527738,"90":0.13561976430195288,"91":0.040535391631707655,"92":0.007771884237820794,"93":0.005024983412529081,"94":-0.05948013769084174,"95":-0.11306901990515715,"96":-0.0040585690704747265,"97":-0.0075636942814324,"98":0.0476883511603662,"99":-0.009862878779667246,"100":-0.039369882356411985,"101":0.014482966807861609,"102":0.006107589272745914,"103":-0.056665356771633556}},{"sx":1,"sy":1,"depth":104,"w":{"0":-0.20952096185625416,"1":0.22928845156835698,"2":0.22666844175427725,"3":-0.09326584195480736,"4":0.021310095685990446,"5":0.06692290609195474,"6":-0.10510205631037078,"7":0.29807556391441203,"8":0.10688779201080159,"9":0.04719615050711057,"10":-0.18394552133586067,"11":0.061512023965289125,"12":-0.06591542797681835,"13":-0.10650337442516904,"14":-0.1677400789416601,"15":-0.017934721061673018,"16":-0.07856228050571504,"17":-0.033734897545782426,"18":-0.11676216422807095,"19":-0.019370705705356744,"20":0.011889927750541212,"21":-0.27544756670930864,"22":0.021212363729533005,"23":0.13564245663773586,"24":-0.0006416495093563985,"25":0.11835700257286275,"26":0.2777178150567442,"27":-0.20328346836346514,"28":-0.18818642002671215,"29":0.11533325382930736,"30":0.21382186766093503,"31":-0.43471542125892837,"32":0.05629511586137602,"33":-0.23265483322834504,"34":-0.0582840064955159,"35":0.055344367664939775,"36":0.057520442239054385,"37":-0.09081327431868921,"38":0.08284135688640107,"39":0.019304828086948497,"40":-0.0014163507356794378,"41":-0.088173740591931,"42":-0.06917495908055694,"43":-0.0662677933445468,"44":0.07126575161139764,"45":0.03364199218718341,"46":0.03852839434593877,"47":0.06599779631910759,"48":0.01766960970554425,"49":-0.030023379566902136,"50":0.014535969633739074,"51":0.10730378860065821,"52":0.184608129210678,"53":-0.04797909796605903,"54":-0.11228072878527699,"55":-0.08398158861202343,"56":0.020664150855033397,"57":0.04262525718530401,"58":-0.006233762209706252,"59":0.013408539521822431,"60":-0.008491087445124449,"61":0.009758719159409759,"62":0.2088586749016894,"63":0.02936055342768347,"64":0.04659859633518332,"65":-0.0820198414824651,"66":-0.09776378009305121,"67":0.07022918093332779,"68":0.05302256307089989,"69":-0.05770729046626107,"70":-0.22668161103635667,"71":-0.0011169247746685394,"72":0.048824515839236804,"73":-0.013520990111311866,"74":0.03640312707456467,"75":-0.0025679892408363137,"76":0.12684932826868933,"77":-0.08046614473652404,"78":-0.06734476174693177,"79":-0.004466428366465103,"80":0.08561862525908748,"81":-0.17639213246135446,"82":-0.04343011281936592,"83":-0.09354958628535402,"84":-0.10441392199193128,"85":0.11236378741628932,"86":0.16368880074799375,"87":0.12072618415997105,"88":0.07180069812500016,"89":0.04020099604000121,"90":-0.02507581263713443,"91":0.005979805369883712,"92":0.017851824780963584,"93":-0.07277758473898187,"94":-0.013582475023052067,"95":-0.026787087873697137,"96":-0.196329475112882,"97":0.11320940044795329,"98":-0.002452850966315163,"99":-0.08982151789023356,"100":-0.0027660507194155856,"101":-0.002028047132221194,"102":-0.001013520256030262,"103":-0.03753420326846559}},{"sx":1,"sy":1,"depth":104,"w":{"0":-0.04717618032054128,"1":-0.14534137762037502,"2":-0.06821827387460148,"3":-0.0022152588508010658,"4":0.1962959801811563,"5":-0.09005556364264632,"6":-0.2141593381409013,"7":0.11202486676000056,"8":-0.05615954897287701,"9":0.0988607598556414,"10":-0.11777931589905329,"11":0.04459358400035274,"12":-0.06226806093943155,"13":-0.02932753813018609,"14":0.1604441792260025,"15":-0.06269705503516987,"16":0.016517686352322366,"17":-0.011687002899128147,"18":0.09715934320724115,"19":0.09676245485153755,"20":-0.05910776687010341,"21":-0.10079431590657703,"22":-0.09974780162686286,"23":-0.0005971666980625758,"24":0.110224705210758,"25":-0.1531983408848012,"26":0.00373022026339507,"27":0.0189952428126381,"28":-0.08118836232597429,"29":-0.07120578264438077,"30":0.12373158397009672,"31":-0.03633546043103054,"32":0.028900843308606063,"33":-0.05719037124478637,"34":0.2719868242999436,"35":0.024144395317640493,"36":0.0033473630347665706,"37":0.10181176729031387,"38":0.13590847565561795,"39":0.08647539107611737,"40":0.02274842351737281,"41":0.05287217699419236,"42":0.009780930677915349,"43":0.032105484065265484,"44":0.2609937774639717,"45":0.025552471287137307,"46":0.06803950036952,"47":-0.1675336040588875,"48":0.003182694078915558,"49":0.10585453935609507,"50":0.015693295900720276,"51":-0.1193558599103647,"52":-0.1067910229421984,"53":0.18153615890340224,"54":0.02210403473294387,"55":-0.020315018988952778,"56":-0.04506456996190951,"57":-0.07863614167908406,"58":0.1096700889206689,"59":0.10932992903042033,"60":0.03202387176980712,"61":-0.04664938604522265,"62":-0.0669029190278847,"63":0.11706102660745032,"64":0.14502129188585264,"65":-0.07121007697595466,"66":-0.12845109513016623,"67":-0.08029654249443026,"68":0.08980387483828473,"69":0.06707836928434548,"70":-0.11146106498785238,"71":0.013606714806129053,"72":-0.03732932589417517,"73":-0.02063553261745982,"74":0.029595392251920444,"75":-0.04313112929484677,"76":-0.10303100992426796,"77":0.04079456354374252,"78":-0.028905657291374075,"79":0.04896363842348528,"80":-0.03437966909058384,"81":0.029416010464149236,"82":0.07698757900536257,"83":0.09378546752272975,"84":0.22681654863380543,"85":-0.0952824436263435,"86":0.07342439015395548,"87":0.0227051028435491,"88":0.038846405093154374,"89":-0.05609124513348485,"90":0.006412366960062597,"91":-0.017102111713131057,"92":-0.0715898398190827,"93":-0.004065061618451352,"94":0.2122062655503911,"95":-0.13199026899044786,"96":-0.008783281420034546,"97":-0.18042468908177448,"98":0.00042197134371786823,"99":0.036789051464763294,"100":0.009536997748090463,"101":0.006975226336739081,"102":0.0037245562142397045,"103":-0.0096044959875811}},{"sx":1,"sy":1,"depth":104,"w":{"0":-0.15757522310436145,"1":0.007304020742647369,"2":-0.061939787454991395,"3":0.11446136449090837,"4":0.0056834510890535345,"5":-0.031094310390314156,"6":-0.04311232626181407,"7":-0.04109375653659809,"8":0.004018372588757353,"9":0.006628342360147432,"10":-0.03466132601604808,"11":-0.0309135514715089,"12":0.034667322420844845,"13":0.11491932398422397,"14":-0.1466944016946857,"15":0.09687560211155505,"16":0.08677399649012438,"17":0.03683301742817037,"18":0.0026677086792494613,"19":-0.01576473729566142,"20":-0.05175436686335474,"21":0.07219820310199579,"22":0.05859998427749908,"23":0.071181831850047,"24":-0.008441237713868824,"25":-0.04908681285894202,"26":0.004242802697754396,"27":0.04018676198630153,"28":0.0038163071987047967,"29":0.011182905762088774,"30":0.1801489797891783,"31":0.05024765169763413,"32":-0.060000280567146784,"33":0.015287640521662378,"34":-0.029439288747842643,"35":-0.0479647751495871,"36":0.0953777780177783,"37":-0.035032027424239096,"38":0.06500297137343072,"39":-0.05470077279287199,"40":-0.05749207174428922,"41":0.04766371501605361,"42":-0.035939003506348495,"43":-0.0017219690353350785,"44":-0.035084821179159634,"45":-0.0015809376814785543,"46":-0.028436917446157804,"47":0.0800796554510568,"48":-0.07182960185938052,"49":-0.04165520069972548,"50":-0.009504830853223104,"51":-0.12794578051900582,"52":-0.03486027852909352,"53":0.03917308948382858,"54":0.06583205416689034,"55":-0.0505370287297472,"56":0.11116974838235316,"57":0.028877078599838346,"58":-0.0340382749541395,"59":-0.17270824418087438,"60":0.08013469942624851,"61":0.06623974840367632,"62":-0.006767065411679498,"63":0.03770614986694457,"64":0.06554743787377938,"65":0.018902305060244467,"66":0.05739670389126156,"67":0.021493771795368412,"68":-0.05747514390640518,"69":-0.14836489698762795,"70":-0.09145179230094376,"71":0.11517232039921575,"72":0.008480729643069188,"73":-0.046531712558008566,"74":-0.05876192560146578,"75":-0.06955574963175142,"76":0.03314165394545838,"77":-0.021026220361784125,"78":-0.039691967145852894,"79":0.017360448368914858,"80":0.042352477462316566,"81":-0.08634014455253483,"82":0.05153993058190134,"83":-0.03460741286454211,"84":-0.019595231772825284,"85":-0.03656807246907862,"86":-0.055596363415640775,"87":-0.03962255314547022,"88":-0.008887176718170797,"89":-0.06298677201709574,"90":-0.1658971478392408,"91":-0.022954482533833746,"92":-0.09073185703681441,"93":0.03355260312372808,"94":0.04253908613018947,"95":0.1572626293700612,"96":-0.09370960556429231,"97":-0.0033540554691006783,"98":0.007954929045538557,"99":0.003106645746920458,"100":-0.017877142414915604,"101":-0.0315326088043638,"102":0.009597832940287113,"103":-0.11020603472257043}},{"sx":1,"sy":1,"depth":104,"w":{"0":0.06556946144767543,"1":0.21417705886208704,"2":0.0908168046034717,"3":-0.07836403145494794,"4":0.035962933611016656,"5":0.15707821170708003,"6":0.05504893211671678,"7":0.026669287338826272,"8":-0.10854150519669102,"9":0.14486668934061203,"10":0.15813930430479844,"11":-0.13502708058456311,"12":-0.15795803669742164,"13":-0.11076500269899088,"14":-0.09036495822302182,"15":0.1948098412087592,"16":0.008412096328059821,"17":-0.1968700031367895,"18":-0.17427653045741603,"19":0.12824066741129111,"20":0.24897163664510014,"21":0.021467866345292737,"22":-0.2184531847845787,"23":-0.16394345280626368,"24":0.05124331867978604,"25":-0.1645891636559977,"26":-0.1690108285938325,"27":0.14129609575159505,"28":0.12601529331998285,"29":0.12627550252703285,"30":-0.1246824837726531,"31":0.046919506146777465,"32":0.008275561633056136,"33":0.20532343440816872,"34":0.006361417843683059,"35":-0.1459465463451551,"36":-0.0034168479187478154,"37":0.05978682056784474,"38":0.02956073555815593,"39":-0.16082997615858513,"40":-0.2571497331492038,"41":0.006746219546623043,"42":0.022190369714024924,"43":0.10027034382693352,"44":-0.0151734069909373,"45":-0.2180609521455693,"46":0.10257992124932681,"47":0.15480472023982775,"48":0.1578262183938209,"49":-0.14510568653633277,"50":-0.04602256958406492,"51":0.014214475793167322,"52":-0.13012270699041856,"53":0.06432413882639713,"54":0.05443417802912162,"55":0.03290956960264503,"56":-0.05111026624220492,"57":0.02014512992777747,"58":0.040276337520747545,"59":-0.0036146107410430553,"60":-0.004254383107416927,"61":0.05502240191410631,"62":-0.122359168957743,"63":-0.11303931169337568,"64":0.006626135482335888,"65":0.020886982565475536,"66":-0.013423979161690655,"67":-0.0939958871688292,"68":0.05992017121521369,"69":0.047328835716218216,"70":0.043131047777856805,"71":0.019580347447234744,"72":-0.03346375461339622,"73":0.0051307674486819055,"74":0.04058127622538696,"75":-0.1575852385756634,"76":-0.024413287333640465,"77":0.07896740869015673,"78":0.03119660334502093,"79":0.04938734136982116,"80":-0.09690463649769922,"81":-0.04740842281858427,"82":-0.03641576117608807,"83":0.0032025351222943798,"84":-0.023723905917916302,"85":0.004729326736848123,"86":-0.0851078566998785,"87":-0.06199907290982896,"88":0.002786278814045189,"89":-0.04323436682432668,"90":0.06532384355122463,"91":0.01059240893643098,"92":0.06756919879457034,"93":0.011000534170377892,"94":0.0949635073094436,"95":-0.030379842799632777,"96":0.04660188475273666,"97":0.06806534203814686,"98":0.023305121275881108,"99":-0.04497681276532634,"100":-0.01579342364996829,"101":-0.003782792622637726,"102":0.00022594516174575423,"103":-0.002814953265904383}},{"sx":1,"sy":1,"depth":104,"w":{"0":0.0069017358020086236,"1":-0.04124636160462005,"2":-0.13044212937347122,"3":-0.04777667981219803,"4":-0.057236890522022695,"5":-0.06388563491489223,"6":-0.039715390696236884,"7":0.02350200545262919,"8":-0.07382482352363164,"9":0.017983238340408624,"10":-0.06173894082927255,"11":0.07349995027535972,"12":0.2042108059343927,"13":0.13472434835494596,"14":0.015973108406415568,"15":0.04392595653706204,"16":-0.0187628763513426,"17":-0.06673912187710532,"18":-0.07611683153067732,"19":-0.11205734780766163,"20":0.01450346691555893,"21":-0.06615268658512428,"22":-0.22911713511769816,"23":-0.09220801309655513,"24":-0.07319312060044787,"25":0.018305895770530822,"26":0.005072209252463631,"27":-0.03474428079944232,"28":-0.04673055998677053,"29":0.03820098563774659,"30":-0.03905930829568659,"31":-0.20538319491775278,"32":-0.17641764733583487,"33":-0.07259473823442551,"34":0.0028045560304639627,"35":-0.17406855518219827,"36":0.028184195491094428,"37":-0.2241794005807253,"38":0.06795788155431033,"39":0.15383720578936844,"40":0.06453447827723403,"41":0.07537786766119874,"42":0.026170458315217127,"43":0.12897759888755228,"44":0.06903638288546478,"45":0.08651516795068452,"46":-0.02237514875226487,"47":-0.055026064548197515,"48":0.059240955468551286,"49":-0.10169459002438892,"50":0.010478471766137126,"51":0.007701615509480886,"52":0.09243217043116757,"53":-0.032716177870068607,"54":-0.05840127012429698,"55":0.03419230793861808,"56":0.06699347548380273,"57":-0.05274687240183549,"58":0.012367359026591637,"59":-0.054442283860122655,"60":-0.10345744045177596,"61":0.14160931271019953,"62":0.04322914987997003,"63":-0.0005962320814299895,"64":0.03874194574079234,"65":0.06140190253213632,"66":0.19440167608444056,"67":-0.09422415993177077,"68":-0.0007954186374734988,"69":-0.0034064113164422307,"70":-0.05526737391616998,"71":-0.1255568916380893,"72":-0.016350647723754923,"73":-0.01008298407638507,"74":-0.03704568922864138,"75":0.07208972052672272,"76":-0.0374076203474106,"77":-0.06695196719980538,"78":-0.06485108845638787,"79":-0.0005422061556438881,"80":0.07982484724600905,"81":-0.03374588828571735,"82":0.0033691232962934463,"83":-0.014985203800517332,"84":-0.010268592906547195,"85":-0.10338339419956538,"86":0.04882964296969945,"87":0.007749868974104507,"88":0.06035967297178629,"89":-0.004007054340134174,"90":0.07757066697837943,"91":-0.02768989020986458,"92":-0.0023128341702484457,"93":-0.03225429442348486,"94":0.007652154028565413,"95":0.009464044697511668,"96":-0.04276301801770546,"97":-0.07348753297263802,"98":0.045021994287880784,"99":-0.08325094529385452,"100":-0.0027767392812507712,"101":-0.0014114544233473799,"102":0.02086224917813548,"103":0.022002197104451886}},{"sx":1,"sy":1,"depth":104,"w":{"0":0.01102371490377689,"1":0.0005786736754766738,"2":-0.0910672579890973,"3":-0.0425924307045285,"4":0.08568399468807716,"5":-0.09546909645204285,"6":0.1013460003075731,"7":-0.08520462522421964,"8":0.017582673444876126,"9":0.0978271081966158,"10":0.045314259664102206,"11":-0.03394619491333408,"12":-0.14020286603929202,"13":0.03813328894061753,"14":0.09442443382590808,"15":-0.08383536641877708,"16":-0.13007630349341806,"17":-0.09083130475203118,"18":0.1269920004232268,"19":0.12867664709434992,"20":0.10354759462741765,"21":0.12942041266949914,"22":-0.1261212276492614,"23":-0.027623212988716454,"24":-0.07753593638917446,"25":0.11185476295839236,"26":0.026975841096056694,"27":-0.0669124526559483,"28":-0.07540949725157398,"29":-0.024187212083986873,"30":0.09925723722097575,"31":-0.131614642081113,"32":-0.003446632145762822,"33":-0.15373034502435995,"34":0.1046006438282891,"35":-0.08330243451183077,"36":-0.02578079109567807,"37":0.02008024183284733,"38":0.10725871684982527,"39":0.025041961329596418,"40":0.00019257739486469382,"41":-0.09050917270448326,"42":-0.09717975440661923,"43":0.1077026376337337,"44":0.18229790593713127,"45":-0.06735452696413592,"46":-0.11086962467727214,"47":-0.08973097676914399,"48":-0.01379481917168018,"49":0.0524471880959612,"50":-0.009428662037014004,"51":0.06063560157913697,"52":-0.061599235908136624,"53":0.05743780662924629,"54":0.019195033338513853,"55":-0.06318678270032267,"56":-0.04562913335179136,"57":-0.00963830733908393,"58":0.07139218531577593,"59":0.10431777109493609,"60":-0.01188303186129109,"61":-0.0023293497219303862,"62":-0.009061552390675373,"63":-0.12800929270936062,"64":0.019996224059127977,"65":-0.0032215000563962184,"66":0.04449957807947097,"67":-0.022481113016845584,"68":0.01113394004952865,"69":-0.017027663599343833,"70":0.010306668621139024,"71":0.045996381711359134,"72":-0.044813984581880906,"73":-0.07201092015511547,"74":0.02669966664000494,"75":0.029606196929326003,"76":-0.020165495528841972,"77":-0.04378633846565122,"78":-0.02688870463311046,"79":-0.015900140558096822,"80":0.0960515505886501,"81":0.02138351900801742,"82":0.03969165031274683,"83":0.007482118149002342,"84":-0.026009324458307913,"85":-0.05514551226520203,"86":-0.10260496789298372,"87":0.04140627879775437,"88":0.10934299400877384,"89":0.1750102883049826,"90":0.04660249496349731,"91":0.0021144766992189958,"92":-0.04520552022773406,"93":0.048820527058632816,"94":0.019637179836278933,"95":0.03190512823614468,"96":-0.04232287873119749,"97":-0.09632127012980449,"98":-0.044547493892368846,"99":0.16391738482493956,"100":-0.072371130978588,"101":-0.02515410441504237,"102":-0.0036101690870225765,"103":-0.003720632071801847}},{"sx":1,"sy":1,"depth":104,"w":{"0":0.06887121205645402,"1":-0.006342957470382184,"2":0.09851881076745564,"3":-0.047152134344502744,"4":0.06928796382568428,"5":0.055945549126113985,"6":0.09669589105943587,"7":-0.05787312282045923,"8":-0.10384620311855144,"9":-0.0009205286575539643,"10":-0.10771452974553522,"11":-0.03988537192857315,"12":-0.018513213655123956,"13":0.04288957358973901,"14":0.0803984906464608,"15":-0.05831244216527173,"16":0.1315073194278437,"17":-0.02413111911556095,"18":-0.04704791143275419,"19":-0.001348216845730597,"20":-0.08602832776949504,"21":0.0739983867835662,"22":-0.06885264511101714,"23":0.04791943158081905,"24":0.05433517751140294,"25":-0.059466066310910476,"26":0.039111113249183455,"27":0.14090466603523347,"28":0.05390548032077678,"29":-0.013358011063552217,"30":-0.06071890435887219,"31":-0.05179425549623896,"32":-0.03670332119906083,"33":0.1017371077965021,"34":0.07055409660478458,"35":-0.05594796172812303,"36":-0.032004252134976076,"37":-0.06959563757341002,"38":-0.1692313755373277,"39":0.0790278799087486,"40":-0.04547199848495528,"41":0.050624538477786196,"42":-0.01891667793891751,"43":0.03840802585072538,"44":-0.05516042583453123,"45":0.046904767794804444,"46":0.022666308042604447,"47":0.12692583568313734,"48":-0.12326715782212411,"49":-0.05028035625176003,"50":-0.025713919530600714,"51":-0.030537248634146155,"52":-0.016041718211133964,"53":0.13172507990969423,"54":-0.013388462428262094,"55":0.06800961115950784,"56":-0.098689889552769,"57":0.0687682509349137,"58":-0.02016302709083765,"59":-0.07486937923071937,"60":0.0883234984334938,"61":-0.0472045118185492,"62":0.019988611552041506,"63":0.047090727872463316,"64":0.009475822727482104,"65":-0.0026118418644099075,"66":-0.019420117105125458,"67":-0.09359408449900354,"68":0.007586728923176945,"69":-0.01423228588965932,"70":-0.01846759675263316,"71":0.035131516737611224,"72":-0.03629011881523686,"73":-0.03818059390610122,"74":-0.09689690226905882,"75":-0.017362436172381496,"76":-0.05743070046666222,"77":-0.024356162512908702,"78":-0.026057010251106898,"79":-0.09451429945153078,"80":-0.0848540924912774,"81":0.10992767726533959,"82":0.036938971782351955,"83":0.04901777695060774,"84":0.05513567220539425,"85":-0.00209873175158616,"86":-0.04370606364639173,"87":0.021398535812512644,"88":0.006459455812222687,"89":0.02405590147454345,"90":0.016666097003098804,"91":-0.026834948145910215,"92":-0.016256638977520266,"93":-0.11656568901250908,"94":0.025322044659928034,"95":0.10003527062204891,"96":0.08211659555995487,"97":-0.03642178808017579,"98":-0.024695497996352858,"99":-0.009236240801331232,"100":-0.05935241621680464,"101":0.0035679369208958794,"102":-0.016916252699536602,"103":0.008532178641845158}},{"sx":1,"sy":1,"depth":104,"w":{"0":0.1029043829110951,"1":-0.00016152023442020318,"2":-0.10256338766223005,"3":-0.1291810322846839,"4":0.02097541396539748,"5":0.043988168041413186,"6":-0.03603867755406608,"7":-0.04354609326871003,"8":0.06516929680821756,"9":0.013574297188021644,"10":0.03152071822423476,"11":0.03300666422010477,"12":-0.15965055507816783,"13":-0.029056261148138824,"14":-0.050028498496235994,"15":0.043722099567013,"16":-0.03589278555733341,"17":-0.057061022037484185,"18":0.09507680699953922,"19":0.06418145167351703,"20":-0.031257166344142676,"21":-0.09860700938255813,"22":-0.004520857117397904,"23":-0.020483633402138424,"24":-0.026866596358809152,"25":-0.003546651577714189,"26":-0.03950404863887775,"27":0.10550204250402731,"28":-0.021369638022965366,"29":-0.03618594533945073,"30":0.16143313719513874,"31":0.041035668233842096,"32":0.012176565693269893,"33":0.039341844211549126,"34":-0.06904633571544659,"35":0.12641419700966786,"36":0.08543326617884552,"37":0.035419993949856114,"38":-0.041332688917474734,"39":-0.0731222927573833,"40":-0.09230373253878373,"41":-0.08350154093935314,"42":-0.06383681429835962,"43":0.09409909979351926,"44":0.024670414887315452,"45":0.13465761773325383,"46":-0.05092448193817826,"47":-0.05349073313595043,"48":-0.13720822633180638,"49":-0.13174219572946844,"50":-0.02698259250246615,"51":0.036695570880187114,"52":-0.21174108915603912,"53":-0.17217285891566309,"54":-0.06386500727374808,"55":0.09775716305790492,"56":0.057900562670878265,"57":0.1346174824224724,"58":0.01356783772492972,"59":0.028467520460827702,"60":-0.042193076877091805,"61":-0.10230952309783724,"62":-0.00400545583501307,"63":-0.11666694143377286,"64":-0.075418828347151,"65":-0.05904715842135405,"66":0.025908064258289655,"67":0.09434982693225857,"68":0.036428280176566914,"69":0.026563753641232434,"70":0.04805947782485352,"71":-0.010681590820890588,"72":0.15771347501114855,"73":-0.004530362221455255,"74":0.026468024302636353,"75":0.007054026385896812,"76":-0.021443157785993313,"77":0.047458303993469765,"78":0.0219097469382728,"79":0.11446332141500788,"80":-0.013553029677359458,"81":0.005669620072247666,"82":0.031128215081188425,"83":0.040226158006718964,"84":-0.014712167407292372,"85":0.09181630906979582,"86":0.12049483505392833,"87":-0.04285850759999622,"88":-0.040106854905965675,"89":-0.08224532745733751,"90":-0.013500638897213599,"91":0.062489874938950474,"92":-0.006704625030736003,"93":-0.042543187527393146,"94":0.02539959153656302,"95":-0.05686056378092918,"96":0.005531797609437524,"97":0.018581448370653744,"98":0.060436679758643745,"99":-0.01050642080006637,"100":-0.010128042396233822,"101":-0.10072892929220405,"102":-0.015525317570723509,"103":0.009784960815136422}},{"sx":1,"sy":1,"depth":104,"w":{"0":0.16574901299861663,"1":0.004381216680997609,"2":-0.0781328893692452,"3":0.10925469509055696,"4":0.028365672106415576,"5":-0.06306283919920411,"6":0.1899920867675117,"7":0.05700875897223215,"8":0.04073423905166928,"9":-0.029129157448702925,"10":0.11713297676681417,"11":-0.032427896729737726,"12":0.016602840397239534,"13":-0.1560920334763909,"14":-0.039278152932007045,"15":-0.040718284088494316,"16":-0.12347475647607656,"17":-0.1970459065028288,"18":-0.20693953281800412,"19":-0.15965482520408567,"20":0.22481780611748464,"21":0.046059979058117886,"22":0.21992956432708724,"23":-0.03923572974439481,"24":0.12310303412796537,"25":-0.08587539403358391,"26":0.07539907591907105,"27":0.06392137752190946,"28":0.029497142879676547,"29":-0.0063521571282867525,"30":-0.21211853547784681,"31":-0.12213213777868695,"32":-0.009151874463168421,"33":0.07342681357896313,"34":-0.028677143462563,"35":0.09545781884107518,"36":0.04388077717166753,"37":0.07699003118935531,"38":-0.07326316220754321,"39":0.10935919110755016,"40":-0.04775047032735864,"41":0.023101891910749323,"42":-0.05430484048650728,"43":-0.03710647584304756,"44":0.09302483745311255,"45":0.04190760588404194,"46":-0.1391270133189928,"47":-0.016461413012507364,"48":-0.055026997058344206,"49":0.03205740998950431,"50":-0.03769013834106436,"51":0.06248409525767386,"52":0.06911310526951822,"53":-0.059750367524328024,"54":-0.012219521965273605,"55":0.005954962028047226,"56":0.10378055507664918,"57":0.08819054895637535,"58":-0.014550670665168693,"59":0.026359299119733226,"60":-0.06778844747168576,"61":0.04731799310060376,"62":-0.079143019102043,"63":-0.017408006534437605,"64":-0.036883054536220934,"65":-0.01880680898138383,"66":0.07401174269585463,"67":-0.005642947957907772,"68":-0.12352779066481875,"69":-0.03290350089229787,"70":0.05340510963086094,"71":0.017265488176605382,"72":-0.10388512980002128,"73":0.12985443587440362,"74":0.011353044155514745,"75":0.015208556943845413,"76":0.04718138070624097,"77":-0.036604942281881436,"78":0.03142873532597225,"79":0.02526260185640937,"80":-0.18752548043847334,"81":-0.014078148621627942,"82":0.058086564449506245,"83":0.08811344807612823,"84":-0.07246505001657798,"85":-0.024046077502849702,"86":-0.12053818775114168,"87":-0.022697755021301762,"88":-0.0786139823668387,"89":0.021264251131628217,"90":0.002129205628605232,"91":0.07992722568958863,"92":0.00691776879564528,"93":-0.10215308909315356,"94":0.08078290896341947,"95":0.07345375579683494,"96":-0.1035082952116139,"97":0.07627030922398123,"98":-0.010562324977277816,"99":0.0201828906129423,"100":0.02333245018386692,"101":0.037733750137675395,"102":0.0009090600926582699,"103":0.015512123239580402}},{"sx":1,"sy":1,"depth":104,"w":{"0":-0.011329524210052214,"1":-0.08111522758767618,"2":-0.07957259179824422,"3":0.10008385284764847,"4":0.07283109475926934,"5":-0.030532956826146075,"6":-0.12816819305923982,"7":0.04938184723433996,"8":0.03061538350975154,"9":-0.04161627531711147,"10":-0.031071183188876646,"11":-0.0969158255100668,"12":-0.06059191196885624,"13":-0.0910852059269116,"14":0.005521713133798757,"15":0.013631798048982716,"16":-0.10658843822674241,"17":-0.08377690662697372,"18":0.11439004654911725,"19":0.044994134656158424,"20":-0.008380684531037418,"21":-0.04322072183701085,"22":-0.03410556432031058,"23":-0.07110912301321572,"24":-0.017253542589253136,"25":-0.023263023122115655,"26":0.007646570674339855,"27":-0.12930029199574114,"28":-0.16796002486861644,"29":0.009710130474930318,"30":0.0013304179672540444,"31":0.1136070426310704,"32":-0.13819327511563897,"33":-0.08439852764713487,"34":-0.07998042770751349,"35":-0.036423518464323006,"36":-0.07511890401185109,"37":0.03155571829280485,"38":0.14692067370528322,"39":0.015104655895157219,"40":0.1161346567045043,"41":0.05145666010371753,"42":-0.06424047319082428,"43":0.010159676337299875,"44":0.010115146528106198,"45":-0.09446880647675354,"46":-0.08269820121903661,"47":-0.1059022148993898,"48":-0.006301613716520939,"49":0.10992067094993191,"50":-0.049434586021797504,"51":-0.08006548453858478,"52":0.016086504325861718,"53":0.04391126295877822,"54":0.0574212582358031,"55":0.13036348816947885,"56":-0.017553624276214472,"57":0.010654006571540912,"58":0.07605530914867803,"59":0.05750037482569571,"60":0.005676103305149749,"61":-0.0705614747382845,"62":-0.012681189510726507,"63":0.1030454377711332,"64":0.08775578560229579,"65":-0.03322686608373653,"66":-0.1090800950919692,"67":-0.11785764930390204,"68":0.08396407659930291,"69":0.06667329612113897,"70":-0.03306090625279771,"71":-0.00995103125767351,"72":-0.08378651667828814,"73":0.06581763746512419,"74":0.06437789574110389,"75":-0.02168990837867012,"76":0.07610046217095066,"77":0.028917707227815673,"78":-0.0006564761609855334,"79":-0.11587533073693151,"80":0.04894875793303695,"81":-0.07180405963730627,"82":-0.022188699708661795,"83":-0.031530094709733975,"84":0.000999091287600625,"85":0.004333605396105778,"86":-0.0804328067190119,"87":0.05425117637337342,"88":-0.07200829682790873,"89":-0.001050321087251667,"90":0.0486105834006965,"91":-0.01618592258048248,"92":0.01360636193478089,"93":-0.035258178661312346,"94":0.03679064180476211,"95":0.07641093403094622,"96":0.03622927414260809,"97":-0.015373186215197353,"98":0.0013486261622519403,"99":-0.0041942914671890125,"100":0.006754190300772862,"101":-0.05056060195744788,"102":-0.012463297598478485,"103":-0.016001577340593355}},{"sx":1,"sy":1,"depth":104,"w":{"0":-0.12648700571719737,"1":0.10464463746399047,"2":-0.2763893909520817,"3":-0.30171552886794556,"4":-0.16948723122182505,"5":0.022645108640655474,"6":0.02692741441082387,"7":-0.06616152377798169,"8":-0.03913639369659111,"9":-0.0684082998661492,"10":0.10442139781691538,"11":0.11281823572568632,"12":0.11525740234653756,"13":0.18865674792617948,"14":0.1267301079466755,"15":-0.016212363991743285,"16":0.21820164315913967,"17":-0.008482188713112924,"18":-0.12892232907263607,"19":-0.022986037815922167,"20":0.0660780017690244,"21":0.06327882881218999,"22":-0.07956201405971804,"23":-0.07202357820515844,"24":-0.16928046550964526,"25":-0.060620225251434366,"26":0.04398620417420475,"27":0.04405174238240632,"28":-0.22197560316416956,"29":-0.22986586142870752,"30":0.014421390410118326,"31":0.1546436294908016,"32":0.21331335722615918,"33":-0.2329684415723132,"34":-0.27275276159824935,"35":0.15659355165216884,"36":0.35412203447690555,"37":0.19596588337922727,"38":0.12942685488507674,"39":0.14781010385511126,"40":-0.04155939227001193,"41":0.11254947985905356,"42":0.10235337917688417,"43":-0.040567836742162966,"44":-0.07314108696542158,"45":-0.07604344831946665,"46":0.1395614078281857,"47":0.14052931092647544,"48":-0.10114841567674995,"49":-0.16448227504759164,"50":-0.07421069038063595,"51":-0.12865012877561105,"52":-0.027628727538439958,"53":-0.05511970309084195,"54":-0.135016875117502,"55":0.04854463410149145,"56":0.12391046445431643,"57":0.020533819762520694,"58":0.08239242852290622,"59":0.09983555129279136,"60":0.04805498669778579,"61":0.09664705101062071,"62":-0.016469667779799833,"63":-0.02412398249148607,"64":-0.039773533842905856,"65":-0.016844356495065178,"66":0.11224924594538832,"67":0.12558045108891475,"68":0.05682748093500051,"69":0.07231530611676584,"70":-0.09648356271481263,"71":-0.003385192279960546,"72":-0.11110143859577407,"73":-0.17701966968346936,"74":-0.06333573022414958,"75":0.0005492097460689312,"76":0.02693051600490154,"77":0.08728076401261815,"78":-0.12311363773589518,"79":-0.08466598690322893,"80":0.06497193729918664,"81":-0.006457626141373032,"82":0.11194402875184324,"83":-0.14040308333604556,"84":-0.16663912959492957,"85":0.0881804168174898,"86":0.1601368473971494,"87":0.05647011341669134,"88":0.09636032714361115,"89":0.05090510771633516,"90":0.026354328496813642,"91":0.02369276688297492,"92":-0.051144756804925216,"93":-0.044555127065980416,"94":-0.08475784848309849,"95":-0.05962829032279657,"96":0.15934047295614884,"97":0.07619085513246057,"98":-0.10481142119591096,"99":-0.004520370032235697,"100":-0.002372008374180755,"101":0.00502601114898872,"102":0.0072949962087211235,"103":-0.0012039061997746042}},{"sx":1,"sy":1,"depth":104,"w":{"0":0.10596351510861296,"1":-0.003287517800995417,"2":0.03054198864498705,"3":-0.08466351385169221,"4":0.012346484900178308,"5":0.07094578409442409,"6":0.10623876373149414,"7":0.051252102975861656,"8":-0.044559477246497343,"9":-0.02974744378792112,"10":-0.09016607050200667,"11":0.10519444593579051,"12":0.08808295484978088,"13":0.006864265445093762,"14":-0.11124624474840633,"15":-0.050378685389982136,"16":0.17910383693201531,"17":0.01565398489823068,"18":-0.13950800486554793,"19":-0.03804078785773139,"20":-0.018355569959323883,"21":-0.04392346331288899,"22":-0.030762052911834124,"23":-0.0057325915142584245,"24":-0.05711450366823904,"25":-0.011917347135996377,"26":-0.003909262795500594,"27":-0.03295060398083177,"28":-0.0766275341903639,"29":-0.06060274891452121,"30":0.08097967706060695,"31":0.14130055892316143,"32":0.14420747278974508,"33":-0.03822540544686556,"34":-0.049128353449404125,"35":0.0016792280748462868,"36":0.1817444554511224,"37":0.1740354151591004,"38":-0.15263294608928385,"39":-0.020051494693540967,"40":0.08038593297152824,"41":0.06273717559734661,"42":0.010700904711609248,"43":-0.11263727099084304,"44":-0.08167076561938386,"45":-0.07098797800481925,"46":-0.06177874954507706,"47":-0.06282175103392884,"48":-0.14574244821065108,"49":-0.11562802932883179,"50":-0.1113859151737154,"51":0.08179181633885725,"52":0.0898853733033802,"53":-0.036793758407474855,"54":0.04609290066691808,"55":-0.08778345379746488,"56":0.023180693401950503,"57":-0.011859574150755482,"58":0.0035510168699875878,"59":0.03726079619190594,"60":-0.0462665664061739,"61":0.09469667924451174,"62":0.11658035088065921,"63":0.10119565817674607,"64":0.026182655274809386,"65":-0.038552179659824444,"66":-0.18638717452701942,"67":0.00958385903121134,"68":-0.035026793678848624,"69":-0.06154857468840794,"70":0.05045361982776516,"71":0.0342577287804297,"72":0.012678243710276394,"73":-0.025997176486255286,"74":0.10758088947587553,"75":-0.035360008972170225,"76":-0.040547585352102566,"77":0.04626258893993708,"78":0.0336031856290221,"79":-0.012624230805732153,"80":0.09675134984309698,"81":0.08528256355964516,"82":-0.010956769652969874,"83":-0.0779984010516402,"84":0.03207017037316125,"85":0.14746102518448406,"86":0.052319143712998,"87":-0.006806322320475512,"88":-0.054587575438154366,"89":-0.00771632870503886,"90":0.08087387041225971,"91":-0.0053489612088531285,"92":0.07414855139552291,"93":-0.06471558930111591,"94":-0.07967429884672343,"95":-0.0048786661901060995,"96":-0.008049829935446626,"97":-0.023561064660439848,"98":-0.10621144913377215,"99":-0.03757420664258051,"100":-0.024341069557330137,"101":-0.002650296743431452,"102":-0.012476765189296331,"103":-0.05778545231286549}},{"sx":1,"sy":1,"depth":104,"w":{"0":-0.11564834629665767,"1":0.1629181464566821,"2":0.04588231768523413,"3":-0.02713518763011875,"4":0.002321156743851431,"5":-0.0646575247354234,"6":0.08851777543944524,"7":0.1915017233444451,"8":0.035182348786319706,"9":0.08698559483131392,"10":0.0005173768025495303,"11":-0.2848843581552246,"12":-0.09985799030292325,"13":0.09579902885747521,"14":-0.1119581713166034,"15":-0.20875996434901054,"16":0.0609985120151957,"17":0.0785211509873145,"18":0.07579700067662691,"19":0.04813174563889157,"20":-0.055355062409814,"21":-0.025468596385568473,"22":0.11220695691931167,"23":0.12955942753999924,"24":-0.11490425543115204,"25":0.019832652396853053,"26":-0.024239920057049544,"27":-0.27258061198815187,"28":-0.11275018750762428,"29":-0.01867408365669272,"30":0.21047823364530577,"31":0.030376196088635638,"32":0.15338141327578297,"33":-0.12905798770921983,"34":0.007834550358993586,"35":0.13156224312785067,"36":0.05571555062370064,"37":0.06219665961113423,"38":0.10275277040352296,"39":0.010534977666476202,"40":0.11833879957566769,"41":0.06883860719863648,"42":0.0012736705615884305,"43":0.03198856704185898,"44":0.10428558045325989,"45":0.12212640945612785,"46":0.08250047023592118,"47":0.03747680650906356,"48":0.08495209070086249,"49":-0.01246963214593039,"50":0.004862163508159186,"51":-0.02435689919768162,"52":0.029489767714675333,"53":-0.10228571628889559,"54":-0.03837159307360912,"55":0.0327242690136542,"56":0.08842354296801004,"57":0.03519155745728427,"58":0.13021541397110398,"59":-0.022551325254588833,"60":-0.06600708780047518,"61":0.09304221833644313,"62":0.04772881027549158,"63":0.10119064209983795,"64":-0.014221407125513192,"65":0.025522307169050323,"66":-0.01702635355860628,"67":0.11780960153430801,"68":-0.04552975936260311,"69":-0.12972679520847394,"70":-0.043582084211577214,"71":-0.004244996278964608,"72":0.014359396423195088,"73":-0.019116274296773258,"74":-0.09648869635568667,"75":-0.01926441185810636,"76":-0.018623826808844827,"77":-0.11017245066303069,"78":-0.017915124452465295,"79":-0.12095328929980853,"80":0.07761998026191276,"81":0.057352796272037584,"82":0.016827627143784524,"83":-0.08751445622584306,"84":-0.015225241491619324,"85":0.04080661609011618,"86":0.05314543329685941,"87":-0.07820916630570794,"88":0.016795431450031907,"89":-0.05378682147804084,"90":0.015628740536833895,"91":-0.052016342185418334,"92":-0.009816577255560614,"93":-0.10205605513844283,"94":0.06762610801784849,"95":0.005975130935098072,"96":0.04101970917774041,"97":-0.020049128216383966,"98":-0.10487443324968525,"99":0.07884740212464439,"100":0.007834252488449512,"101":-0.006785761951464926,"102":0.009623508788931845,"103":0.01691740818220286}},{"sx":1,"sy":1,"depth":104,"w":{"0":0.15308908974635332,"1":0.0961376661213585,"2":-0.08049943721914246,"3":0.01494045408600915,"4":0.04557981826781478,"5":0.164574322377438,"6":0.15274118747927914,"7":-0.12953891122325206,"8":-0.1264445091884298,"9":0.06870177119109344,"10":-0.04678576019013315,"11":-0.05630783379393524,"12":-0.03349254098362368,"13":0.10735717664375047,"14":-0.026452314990858435,"15":-0.08275258171426007,"16":0.12440404810405353,"17":-0.040320430204317685,"18":-0.07481701665244453,"19":-0.19627068407679088,"20":0.014740892253453378,"21":0.030241278002034674,"22":0.0883028631055811,"23":-0.04171244417073251,"24":0.047728930462055924,"25":0.04425702301293925,"26":0.02958179987107925,"27":-0.13882276052371614,"28":0.1774433674136683,"29":0.0714724596180492,"30":-0.08890611278709792,"31":0.031450680758683985,"32":-0.04707128127269994,"33":-0.013094110901021314,"34":0.1370678142180929,"35":-0.01379871716408055,"36":-0.03293680844569288,"37":-0.06011419789433895,"38":0.06356245286894667,"39":0.018441153934307987,"40":-0.08300150712013506,"41":-0.01230989432561188,"42":0.00911044403264932,"43":-0.06409670184541047,"44":-0.17711151270894387,"45":-0.08584486314477524,"46":0.05418539331372023,"47":0.06339671045878413,"48":0.07288345591030093,"49":0.09929358147827412,"50":0.09651000117523069,"51":0.1640956703440675,"52":-0.09100085453486904,"53":0.05134014058558778,"54":0.005873338395607296,"55":0.022352296171529944,"56":0.029520600291853615,"57":-0.1236258906320759,"58":-0.1503925476114906,"59":-0.04470108090216411,"60":-0.05854133205295107,"61":0.07410291581790426,"62":-0.0784076557371178,"63":-0.004304256854391812,"64":-0.034253039738500225,"65":0.00284689622032097,"66":-0.0947124694395136,"67":-0.006166616415171439,"68":-0.13330510630297196,"69":-0.06371437612955488,"70":0.06349697263966941,"71":0.02563195368974575,"72":0.00901860388678599,"73":-0.05231480776807496,"74":-0.07504124070597362,"75":-0.11114047114263813,"76":0.1241913062915995,"77":-0.10329577126495226,"78":0.0015133102318039921,"79":-0.026258517385614744,"80":-0.0013263884500761757,"81":-0.003386534092286107,"82":0.0150820954930073,"83":-0.02545826617886541,"84":-0.09580466860174627,"85":-0.02807805425799918,"86":-0.10520539192595589,"87":-0.0825237573613654,"88":0.06613581138126978,"89":0.00585546552896611,"90":-0.046809884317433,"91":0.02782446444810711,"92":0.08506561761757495,"93":0.015135767818282953,"94":-0.1315263095012975,"95":0.04284444961020081,"96":0.1127925364483586,"97":0.034808479649953296,"98":0.02841183713308614,"99":-0.0408302791247928,"100":0.007684773808183358,"101":0.00851532536039983,"102":0.004394124515987601,"103":0.008890513728520967}},{"sx":1,"sy":1,"depth":104,"w":{"0":-0.05868918245865373,"1":-0.10327239347359825,"2":0.18139788608173493,"3":-0.016057274357715694,"4":-0.08309399393619721,"5":-0.015633587473514593,"6":-0.052188056657645046,"7":0.18985313484225927,"8":-0.03752553743375315,"9":-0.12547744934285096,"10":0.08083688321358957,"11":0.02005648579965358,"12":0.11864519236188509,"13":-0.04414347392297272,"14":-0.0624597908258742,"15":-0.011961839662718474,"16":0.13112207570028278,"17":-0.05079425776247847,"18":0.024797675045691484,"19":-0.02965805936931418,"20":-0.1757706576418044,"21":0.21934562562326895,"22":-0.0948972156929221,"23":-0.018003554529508924,"24":-0.054589863952501747,"25":-0.020162146306358195,"26":-0.04893763441307578,"27":0.019258357299864238,"28":0.32062175118785596,"29":-0.06486597502126841,"30":0.07905015095653337,"31":-0.0109843866329729,"32":-0.001540150402827797,"33":0.2699504219921354,"34":0.14642729284580952,"35":-0.04977465401925393,"36":-0.1529254273654961,"37":-0.023632464689450582,"38":0.03966777358852712,"39":-0.0378810312801812,"40":0.02265035022467923,"41":-0.10299963424726886,"42":-0.08444342791222252,"43":-0.0736929440737442,"44":0.09978933125345202,"45":-0.03052646517819072,"46":0.007537624597960414,"47":0.1984563003243223,"48":-0.13539816098591473,"49":0.08792790511161175,"50":-0.11159578692248999,"51":-0.08721439085847321,"52":0.07291782217738169,"53":-0.05890667696560895,"54":-0.05445475542087116,"55":0.0012270775466883437,"56":0.01822317689112989,"57":0.020359918212951814,"58":-0.12454513248006917,"59":-0.0445018345756416,"60":0.12802078259681754,"61":0.01736752474662415,"62":0.03854372503014106,"63":0.11224051859143122,"64":-0.012706996937840987,"65":0.0178228918014085,"66":0.11214113689528844,"67":-0.05449178326416226,"68":-0.07271343545842522,"69":0.00662407311510273,"70":0.01203080754384476,"71":-0.16886986126343403,"72":0.018576264315768184,"73":-0.037903868485833596,"74":-0.1766318206174378,"75":-0.02531172719537272,"76":0.005160601278464059,"77":-0.0038646096647736955,"78":0.19748311769073484,"79":-0.000004013645051126277,"80":0.010032190613330497,"81":0.025039897524402624,"82":0.03035564365994882,"83":0.01397787276795889,"84":0.06821519688832826,"85":-0.09212656480399917,"86":-0.025516679489535826,"87":-0.06309055680388172,"88":0.04283920029603409,"89":0.014644125786846407,"90":-0.08573686055022918,"91":-0.02550051858335539,"92":0.02245977831362754,"93":-0.05386580017837343,"94":-0.05063433528873669,"95":-0.1200306491284003,"96":-0.05669352041725713,"97":0.11508220061565223,"98":-0.20574240056199364,"99":0.012729168761117113,"100":-0.005048001941933635,"101":-0.06491082594129775,"102":-0.08518112664265266,"103":0.0030865555506458956}},{"sx":1,"sy":1,"depth":104,"w":{"0":-0.20690597702375899,"1":0.07927859623741525,"2":0.12992570467469294,"3":0.05804511827384318,"4":-0.13672044837279584,"5":0.03538296397442389,"6":-0.09068348146017878,"7":0.15908842233403314,"8":0.04771451902817709,"9":-0.037648796462361384,"10":0.06485681212355049,"11":0.021757168650198142,"12":-0.03582417595612242,"13":-0.005409774984968194,"14":-0.04389807983343687,"15":-0.0029893476208966495,"16":0.09528280847734706,"17":0.006728347509322792,"18":0.08299838364653535,"19":0.020271770269534983,"20":-0.12158384494467239,"21":0.004010635174977946,"22":-0.03727990993102141,"23":-0.10674024329242912,"24":-0.031133948749032657,"25":-0.15701658429651796,"26":-0.07623142804223536,"27":0.007035396212935661,"28":0.02768683711984822,"29":-0.06325701640261695,"30":-0.07476177529108964,"31":0.045519941248750626,"32":0.1622510367593704,"33":0.04824422112810058,"34":-0.09118024523639315,"35":-0.14358368778992459,"36":-0.008056596363416787,"37":0.1435113462618193,"38":0.150498458298374,"39":0.07465535356050235,"40":-0.0943278263574522,"41":-0.06662667154539545,"42":0.12250888019887413,"43":0.15016070501337972,"44":-0.05455654697934386,"45":-0.028009196510617923,"46":-0.0448445328090191,"47":-0.04038587879187128,"48":0.1426003195312983,"49":0.001980785502769297,"50":0.03840480979519151,"51":-0.005382487472538874,"52":-0.09221193512475062,"53":0.046706222062492614,"54":-0.009806873715742966,"55":-0.11386653624508493,"56":-0.03428467308039703,"57":0.0444262370579183,"58":0.0027666913537827374,"59":0.09521979601301436,"60":0.0904467480777978,"61":0.015025342210566433,"62":0.04971983209799447,"63":-0.04078512119976862,"64":-0.0427908206428729,"65":-0.03253106602299988,"66":0.023069373638805367,"67":-0.07219367467079234,"68":0.07007337680085865,"69":0.05649981759795063,"70":-0.07711896239361885,"71":0.04319042759022612,"72":0.09337052769126997,"73":0.0994577536948353,"74":0.01719454320646934,"75":-0.05575087169215603,"76":0.06546205221494354,"77":-0.039393636896694985,"78":-0.015894733707636464,"79":-0.06985484003721683,"80":-0.041324383503669855,"81":0.057307350000175956,"82":0.09630863194092808,"83":-0.005138022966232444,"84":0.02200956876147161,"85":-0.09620008777650771,"86":-0.05669824743177164,"87":0.07735462979934948,"88":0.2075918779577556,"89":0.05784117462250964,"90":-0.09339353875237677,"91":0.008298048668498823,"92":0.009739313672863324,"93":0.09185835974752651,"94":-0.09676502841534802,"95":-0.07189127021290492,"96":-0.09449927171667603,"97":0.08419963165301596,"98":0.13185335350420538,"99":0.16069341845521593,"100":0.004838637424991063,"101":0.003561501531428529,"102":0.01941582082256754,"103":-0.014334423895085172}},{"sx":1,"sy":1,"depth":104,"w":{"0":-0.14083030384852382,"1":-0.048183253562325105,"2":-0.08579480986038067,"3":-0.026566452362000625,"4":0.0304749331834569,"5":0.15546730472179615,"6":0.0696029174743941,"7":0.02869395354868627,"8":-0.09165461967719522,"9":0.042190924901883496,"10":-0.024407077109825696,"11":-0.021938555817219527,"12":-0.04722472608591514,"13":0.05634261242858696,"14":0.0018702851133085396,"15":0.02583584857498649,"16":0.01907168778565713,"17":-0.043671878661839754,"18":-0.006081452045428923,"19":-0.0398363241857596,"20":-0.03371825309089135,"21":0.058358526504354226,"22":0.01977684203401106,"23":-0.10488412796277995,"24":0.007088336443580313,"25":0.0046238910599096595,"26":0.14655951254105204,"27":-0.09949447245426893,"28":-0.014042481902273416,"29":0.05423225621176455,"30":-0.12468345489771979,"31":0.05133884301780537,"32":-0.018436223660895302,"33":-0.05088727451613585,"34":-0.0016695969388830763,"35":-0.11360695421950574,"36":-0.1034778628128736,"37":-0.08196444077978267,"38":0.06286878289844189,"39":-0.03152459252263931,"40":0.025730514670612513,"41":0.043761366039291566,"42":-0.11122286508158581,"43":0.026284212308372645,"44":0.03541800315586758,"45":-0.006557300011875516,"46":0.024208981209767597,"47":-0.025306512687315496,"48":0.0421106047190076,"49":-0.08820915111698553,"50":-0.09768644527398962,"51":-0.018321165151862738,"52":-0.026333289692038107,"53":0.06921002853976757,"54":0.024031382279955663,"55":-0.001132964609021116,"56":0.010633899827173327,"57":-0.000441822166712794,"58":0.030277833575606244,"59":0.04288050762238866,"60":0.011808992559653075,"61":-0.07043778800539469,"62":-0.04480919605186405,"63":-0.1026575783979525,"64":0.15521525594501032,"65":0.041595832512655834,"66":0.08042004256339412,"67":0.1885834768628025,"68":0.05704257350864549,"69":-0.04811330963821176,"70":0.08872645074561619,"71":-0.011880397211476889,"72":0.10112040451706386,"73":0.07238984705570226,"74":0.0028624676666040077,"75":-0.1304858494756604,"76":-0.044811548515810824,"77":-0.03011863606868372,"78":0.06809960207483653,"79":0.013440732763541215,"80":0.07891077331591313,"81":0.05873413295562771,"82":-0.12974895146239238,"83":-0.12275263776305634,"84":0.03848328508979265,"85":0.020927681639978137,"86":0.07993218384083718,"87":0.02455817083356526,"88":-0.03414866799816154,"89":0.1464644817420607,"90":0.1133289745587186,"91":-0.05681987456650467,"92":0.05617924886467847,"93":0.029868844637437497,"94":-0.07244754501397294,"95":0.05487885584482232,"96":0.015483007244348443,"97":0.029040437246662096,"98":0.09512868272922849,"99":-0.050107659929958574,"100":-0.04759367261978755,"101":-0.09364989391267355,"102":-0.029671001545885964,"103":-0.0008112544580713504}},{"sx":1,"sy":1,"depth":104,"w":{"0":-0.026888447829330326,"1":-0.08748620421395345,"2":-0.127901817190932,"3":-0.16973425546729573,"4":0.03621757265070835,"5":-0.11305820388411265,"6":-0.025526973348512443,"7":0.12627319362116918,"8":-0.08197486090840325,"9":-0.005627406012093392,"10":0.10957787524907629,"11":0.1466455049417429,"12":0.031520413183696284,"13":-0.1568835702451896,"14":-0.057383407221410464,"15":0.10218717947377627,"16":0.21418837456057988,"17":0.06077177373734618,"18":0.058951886534033195,"19":0.0292674668146234,"20":0.033450262858724746,"21":0.03647706865251528,"22":-0.050568223866047764,"23":-0.003997522737289375,"24":-0.010895528391233473,"25":0.013790418374092617,"26":-0.23641684770076224,"27":-0.18755183849459034,"28":0.0479740655820983,"29":-0.03651654270805977,"30":-0.04474497322853311,"31":0.030331106991945852,"32":-0.1790388210348684,"33":-0.01526916466275929,"34":-0.13057262949725953,"35":-0.015993879936928482,"36":0.021152937158054535,"37":0.04477956201396696,"38":-0.07574042717410084,"39":-0.02139691861394619,"40":0.06940022435376106,"41":0.19891184148343666,"42":0.14913150145642098,"43":-0.016956026923688337,"44":-0.059588220206120965,"45":0.10623220373478301,"46":0.005224889440004934,"47":-0.09897177904070376,"48":0.026765276022672202,"49":-0.05361328460306967,"50":0.022376531596832627,"51":0.01861346393310055,"52":0.007951902675105014,"53":-0.027793042830364656,"54":0.06618804794370083,"55":0.07487863261725765,"56":-0.059355418955772996,"57":0.0000550114263598422,"58":0.0193204358408147,"59":0.036734154563986585,"60":0.020122065543273684,"61":0.12609278564981832,"62":-0.01701213072375015,"63":0.009099089737553332,"64":0.03584115986055351,"65":0.08433937909345321,"66":-0.024006850348748082,"67":-0.039884714438596196,"68":-0.07702899588590575,"69":0.09976109835899348,"70":-0.05942200719858814,"71":-0.004600654744375402,"72":0.014755300099001983,"73":-0.08951787270871925,"74":0.07773911683947023,"75":0.03448878370565132,"76":-0.1383329295264481,"77":-0.026004127565725572,"78":0.06402547233827242,"79":-0.0774658150044641,"80":0.057374974293326976,"81":-0.027642743245243635,"82":-0.013392629201737795,"83":-0.08790082779189684,"84":-0.03742958856107338,"85":0.15389409262227,"86":0.017370216713307234,"87":-0.04624795550807848,"88":0.004570266151734613,"89":0.1668166789204458,"90":0.02133466326745553,"91":0.014730178393680024,"92":0.039198337702635755,"93":-0.06809183362590679,"94":-0.036756744751627,"95":0.08286075664377072,"96":0.032997590669734234,"97":0.039854556734388334,"98":0.05488396254838559,"99":-0.11141560360767916,"100":0.005233068740122706,"101":0.005258513004984109,"102":0.00832302377495465,"103":-0.00513998441582095}},{"sx":1,"sy":1,"depth":104,"w":{"0":0.11724010564193829,"1":-0.15450786054071294,"2":-0.1003848785892372,"3":-0.12303064645203454,"4":0.049002425634811435,"5":0.10482044683694576,"6":0.07265883157401805,"7":0.0023611525820716782,"8":0.059897745609258916,"9":-0.14143306876036052,"10":0.04238232514598871,"11":-0.0051659969447160016,"12":-0.006503852308023594,"13":0.016423319664450528,"14":-0.09155645011651715,"15":-0.075908334439438,"16":-0.00025817050094022686,"17":-0.06767182928945889,"18":-0.017219499390998153,"19":0.10797218968659023,"20":0.06097178728005369,"21":0.08077468575227041,"22":-0.0523465693936695,"23":-0.1691059663794317,"24":-0.12342220659068143,"25":-0.13250703477640788,"26":-0.24231220036208934,"27":0.0561241879164417,"28":0.02138223856870478,"29":0.08414997302990679,"30":-0.02412829680757151,"31":0.07768155082437184,"32":0.04464180691340721,"33":-0.02108158330504095,"34":0.09677519407110807,"35":0.13216879960979927,"36":0.03200321432156622,"37":-0.00351223372347058,"38":0.09540860338042972,"39":0.11291150307074274,"40":0.0423527405784417,"41":-0.1279015846108899,"42":-0.03516831572639439,"43":0.08260044232235687,"44":0.06374509217984045,"45":-0.09557655997371314,"46":-0.12563871343848587,"47":-0.06457134527140822,"48":0.04621975696240509,"49":-0.027307989211725243,"50":-0.0020761225451916346,"51":-0.11552175162311765,"52":-0.0401801846782088,"53":-0.00011277896787264272,"54":-0.06536925148042622,"55":-0.07899906822218743,"56":-0.00733848634301217,"57":0.08396748587962653,"58":-0.033859416197099534,"59":-0.016057295936774504,"60":-0.00010580236815663333,"61":0.11537308367104106,"62":0.024310559177677386,"63":-0.04398068445521456,"64":-0.03541302381136681,"65":-0.03511946864715556,"66":-0.03999792035119781,"67":-0.04937663681166232,"68":-0.008014282151092211,"69":-0.06873773118208241,"70":0.018589095027589916,"71":-0.04874701427726811,"72":0.0653850980536257,"73":-0.04151692549196656,"74":0.029008306252208474,"75":-0.07033009458874401,"76":-0.13723844933876114,"77":0.05767695176456858,"78":0.062024535638292834,"79":0.06555546880421335,"80":-0.049998784176992044,"81":-0.0127260689258264,"82":0.10352153149747237,"83":-0.001708260182249878,"84":0.1888425945417228,"85":0.030991930965222788,"86":-0.017497750913774757,"87":0.04683883223432337,"88":0.013132754748547868,"89":-0.11329576198160117,"90":-0.03788234322570569,"91":0.019547772252823368,"92":0.009367706345312655,"93":0.03928617858223554,"94":0.11372085228361505,"95":0.061348606788288684,"96":-0.05300779309701608,"97":-0.013302210858742346,"98":-0.06346636055291345,"99":0.0857008579512486,"100":-0.027316448893335746,"101":-0.03195838736696974,"102":0.027906400940695294,"103":0.014038723169944181}},{"sx":1,"sy":1,"depth":104,"w":{"0":0.09960026094353377,"1":0.024825372491272937,"2":-0.07985077883389928,"3":0.15438936512522064,"4":0.025887269283033514,"5":0.09112039759275861,"6":0.08197689292971996,"7":0.06888143878821062,"8":-0.04776818061154047,"9":0.05727200451606354,"10":-0.13159225610356443,"11":-0.03687383986506395,"12":-0.04396142714624462,"13":0.0810022715221481,"14":-0.0720434890863214,"15":0.01092492260404435,"16":-0.04258241868730627,"17":-0.09818795143347421,"18":-0.01788205530072305,"19":0.007834015213991602,"20":-0.01861829711225164,"21":0.09096810040432111,"22":0.06958130252978172,"23":0.12296143313576982,"24":0.04380264372706075,"25":0.055791339086405545,"26":0.025450402918378228,"27":0.06859724308261736,"28":-0.004707270563695588,"29":-0.08306022604997199,"30":0.022446604236242375,"31":0.06426675079256097,"32":-0.09004185041789023,"33":0.12263217434557086,"34":-0.08922351305570436,"35":-0.17048061760827082,"36":-0.12848376736542114,"37":-0.0009709305346573983,"38":0.01304936705727639,"39":-0.06619564894921677,"40":-0.07649902906227508,"41":0.06484528423921118,"42":-0.050176353675718786,"43":0.013339445895782584,"44":-0.003838730593688392,"45":-0.03918332918231118,"46":-0.10268361735515161,"47":0.0014811592503965844,"48":-0.049799101514036236,"49":0.0014985013375738987,"50":0.008040173954545492,"51":0.0620197636759038,"52":0.02824557475254171,"53":0.034680335150957184,"54":0.006533193107361129,"55":0.05927505162647804,"56":-0.03753613278462188,"57":-0.024138209330063536,"58":0.007521257414136992,"59":-0.02848679215497997,"60":-0.09677365563989188,"61":0.0511797156241084,"62":-0.016088356081405342,"63":0.08400267566074111,"64":0.053266036779601025,"65":0.08927220063226027,"66":0.08438277366890565,"67":0.019161101071635718,"68":0.006206599076479041,"69":-0.06788055345822581,"70":-0.08317342601055466,"71":0.025102114439597346,"72":0.04612744861443311,"73":0.08120434475850083,"74":-0.05015780493928943,"75":0.0348550296133957,"76":-0.011559732229675993,"77":0.014993845428180611,"78":-0.05534446471801484,"79":-0.04601603986601176,"80":0.10442092837181413,"81":0.07223233627039032,"82":0.026679238070281913,"83":0.016393280424533554,"84":-0.05452150078498174,"85":-0.04270724179411031,"86":-0.06833271307714762,"87":-0.07627670365719189,"88":-0.13045908002172069,"89":0.0394133201702449,"90":-0.010065500648152762,"91":0.04716245272140195,"92":0.060207922225614746,"93":-0.02723115467693749,"94":-0.06240833109261576,"95":-0.0792858141178431,"96":-0.04481451228010591,"97":0.045907350276995974,"98":0.02514906320873216,"99":0.01729202399782046,"100":0.004394165125119947,"101":-0.1261932544253542,"102":0.02175035806465762,"103":0.0008138546262247733}},{"sx":1,"sy":1,"depth":104,"w":{"0":0.0739621935769768,"1":0.11776366234087321,"2":0.07859408809474153,"3":-0.05638132863397433,"4":0.04777502397443672,"5":-0.0025600280310071094,"6":0.05037432230043854,"7":-0.12276060179618067,"8":-0.021547944737891594,"9":0.06347513881906912,"10":0.07848521189436664,"11":-0.017368923588512573,"12":-0.16846908181628423,"13":-0.09929559106813708,"14":0.05221203579712339,"15":-0.0235621546527264,"16":0.2350900045167519,"17":-0.011606209085249118,"18":-0.18237780809380896,"19":-0.15074924861823574,"20":-0.010390251749813676,"21":0.08604464469291853,"22":-0.050763822886066956,"23":-0.04203148418913936,"24":0.026979739689441,"25":0.16054599541223438,"26":0.18947570334065592,"27":0.23406501631694993,"28":0.07644073939494378,"29":0.09216413978561404,"30":0.06901312575259803,"31":-0.10605279717184259,"32":0.047364261200884154,"33":0.04476493006019877,"34":0.026132009380611044,"35":-0.2035395257894042,"36":-0.24233695861869892,"37":-0.05519105851211018,"38":-0.10038487154320515,"39":0.06899131812421223,"40":-0.159860757635397,"41":-0.0873482225533428,"42":-0.06836664388464368,"43":0.06049383498702715,"44":0.0576230086071266,"45":0.029414675958711868,"46":0.06019875563096918,"47":0.07609891162683687,"48":0.01726483895906675,"49":0.11620026345482576,"50":0.0012643967538096324,"51":0.13597005412815572,"52":0.0522224737603815,"53":0.07328376560083093,"54":0.07476483992307732,"55":0.03204540642366247,"56":0.11613520061694127,"57":-0.10542542887498865,"58":0.11564121171982795,"59":0.09959035066316549,"60":-0.02336321644389631,"61":-0.057973809648858406,"62":-0.025713457831619265,"63":-0.05019745974158144,"64":-0.08825720188289486,"65":-0.10334418660758513,"66":-0.07253270023461043,"67":-0.12411313295725661,"68":-0.0537894971063232,"69":-0.04638922974656387,"70":0.12502557926759786,"71":0.03150643374387116,"72":0.016033469282202117,"73":0.036703078068937155,"74":-0.06586617134779967,"75":-0.0009124171619423657,"76":0.004661242832379277,"77":0.08765566172988525,"78":0.011982555378981586,"79":0.021622098432803452,"80":0.004842332021691544,"81":-0.06116089523905343,"82":0.020850905654239315,"83":-0.014305236526799374,"84":0.08311578029696616,"85":0.02314941801126019,"86":-0.02755184086467882,"87":-0.010640928171422098,"88":-0.07668953434116416,"89":-0.0036344763350333715,"90":-0.15453822854355925,"91":-0.039843577306689935,"92":-0.04810073066559132,"93":0.0414250738035592,"94":-0.041554039377617445,"95":0.012145950367545975,"96":-0.043428949709350455,"97":0.05483298927972895,"98":0.018537740765099283,"99":0.08065376793481838,"100":-0.07169366642166726,"101":0.0004722169341445617,"102":0.00824311390246051,"103":0.013607499704847216}},{"sx":1,"sy":1,"depth":104,"w":{"0":0.02977644081500795,"1":0.056481624484546036,"2":-0.04078474378741949,"3":-0.056185213973376634,"4":0.10392825509956236,"5":-0.03907784360309496,"6":-0.1563528587691197,"7":-0.09396094752848079,"8":-0.0017586398850078253,"9":-0.008898816345328565,"10":-0.06999423561334683,"11":-0.12467843240303252,"12":0.0706098729459159,"13":0.05389134158926189,"14":0.09502300638471783,"15":-0.019842636941759893,"16":-0.017160296104484402,"17":-0.0016855795978551955,"18":-0.012528056745114714,"19":0.15654314245320003,"20":-0.010004149725916284,"21":-0.12816501594821095,"22":0.1057638485555413,"23":-0.09629155742453942,"24":0.09102438856565598,"25":-0.03605591557250003,"26":0.12377763301499838,"27":0.1488042044255467,"28":-0.11475538237566839,"29":0.021271070530950526,"30":0.02927749608613347,"31":0.14241605891607184,"32":0.02943847105023509,"33":0.005859975711662354,"34":0.03352401130157157,"35":-0.06237233026322234,"36":-0.04558348294896625,"37":-0.041381730963167176,"38":-0.06067967246860078,"39":0.009379499093989933,"40":-0.03452717352206461,"41":0.03256686537919027,"42":-0.062040611808721106,"43":-0.05507953712321609,"44":-0.1291763923280658,"45":0.010012143294363608,"46":0.00410274963717897,"47":-0.005702810847159016,"48":0.06355592937856115,"49":-0.05652325500310144,"50":0.04419247379306514,"51":0.08169564563244554,"52":-0.13556547765452073,"53":0.002530807280171037,"54":0.04945627603735993,"55":-0.021383725979363524,"56":-0.007416659014568639,"57":-0.019843529477772192,"58":-0.01871651871695539,"59":0.06592367204627772,"60":-0.013024832668511725,"61":-0.11449244389875919,"62":-0.09389335326019521,"63":-0.01372325621690148,"64":0.09878690252956672,"65":-0.0222221067489752,"66":-0.03928124033384292,"67":0.04425081059673609,"68":0.0722776620769785,"69":0.12844680645250955,"70":-0.0516493325891858,"71":0.020074622443895258,"72":-0.031319124307613765,"73":0.046306283233600296,"74":-0.017942366331578044,"75":-0.11488155229878531,"76":0.02107184023216782,"77":-0.06642574159156663,"78":-0.053265993189819914,"79":0.06702359487820217,"80":0.05939677571295103,"81":-0.0315352056685559,"82":-0.04231019626067743,"83":-0.11495823793712745,"84":0.01585226534578536,"85":-0.056679066041999855,"86":-0.012636117455306845,"87":-0.011019755846972413,"88":-0.0017954419867813618,"89":0.06315669133085336,"90":-0.10556745144140177,"91":0.14137086917312883,"92":-0.009076960458510364,"93":0.05808203068109838,"94":0.013399346939980314,"95":0.0728439555033083,"96":0.009526435119389,"97":-0.021546405559416542,"98":-0.03343685112097814,"99":-0.029375279918078933,"100":0.03166631825657038,"101":-0.0013437819110736426,"102":-0.044228401990520985,"103":-0.16311296606854986}},{"sx":1,"sy":1,"depth":104,"w":{"0":0.0016590370811907782,"1":0.041426812249523715,"2":0.006324690502850582,"3":-0.03057918709352693,"4":0.06844061201161797,"5":-0.09486975455811772,"6":0.08455726101074316,"7":-0.03413569010554247,"8":0.03468249703888736,"9":-0.027570101977651765,"10":0.12292253759106109,"11":0.08483296118783029,"12":0.06426417065850408,"13":0.07078255302067704,"14":0.045632505125387815,"15":-0.01740002572485987,"16":0.06453158869450801,"17":-0.06824859876060282,"18":0.0774677758744339,"19":-0.03776129231818527,"20":0.04191582505744057,"21":-0.021069287320877723,"22":0.07484418887816803,"23":0.040955020474691385,"24":-0.022752748066093155,"25":0.0984540854839668,"26":0.08470950460081937,"27":0.009726317803647324,"28":0.0066259454611891965,"29":-0.013701316676770646,"30":0.03750730460012372,"31":0.06427125030259886,"32":0.04700798712897392,"33":-0.04462037384009582,"34":0.055213147013576255,"35":-0.06259686938233094,"36":0.05698279962565907,"37":0.019925300090628113,"38":-0.09266255280434205,"39":-0.13457216991006862,"40":0.0017853226425227138,"41":-0.06411980027724042,"42":-0.10320789903497296,"43":-0.12698077688781653,"44":-0.09846238271386831,"45":-0.02695576999416733,"46":0.14790604596676915,"47":0.07021061954329841,"48":-0.09912037580806725,"49":-0.06741881972153593,"50":-0.07168858577382184,"51":0.026714231243224938,"52":-0.06496340086594059,"53":0.08443344248107684,"54":-0.0510411987005606,"55":-0.010204956681599715,"56":-0.031453633983687675,"57":-0.07638292564573607,"58":0.010078175559266428,"59":-0.00840933387271692,"60":-0.0645700322010726,"61":0.01043767141247016,"62":0.030376779443883263,"63":-0.09927869876798644,"64":0.04105083430457706,"65":0.02114678378138816,"66":-0.002809484086240382,"67":-0.022883527329237895,"68":-0.07237139761919119,"69":0.01004253677513861,"70":-0.07116091841228604,"71":0.09495076468111946,"72":0.16577113255899406,"73":-0.015462486737760258,"74":0.02755508843051649,"75":0.11043418153603263,"76":0.11957680971122758,"77":0.046695275296342,"78":-0.08619696297433188,"79":0.03262131314623351,"80":0.09875639007887595,"81":-0.05328203326138431,"82":0.03636898158658005,"83":-0.006825525587013783,"84":-0.0016563364354592787,"85":-0.039668429999600636,"86":0.03325041599859128,"87":-0.007218263487755497,"88":-0.10005686316392692,"89":-0.04141979295103651,"90":-0.046589278608749125,"91":0.031486399219244565,"92":-0.19471957160872352,"93":-0.0324300714938937,"94":0.01746662612054185,"95":0.15992930611024234,"96":0.06875039878207306,"97":0.046758688404353564,"98":-0.08292640945751119,"99":-0.08713433604194974,"100":-0.06240003179865182,"101":0.014741259767827223,"102":0.021159526132802323,"103":-0.0035534081612172493}},{"sx":1,"sy":1,"depth":104,"w":{"0":0.015909721440345227,"1":-0.06543156021337067,"2":0.059765752373859615,"3":0.12398081240933086,"4":-0.03197006661913358,"5":0.05946796591907286,"6":0.0778167499968816,"7":-0.04169291727359206,"8":0.01974926816044915,"9":0.029444093378590615,"10":0.054803678696257505,"11":-0.029423795256693964,"12":0.001702314453800804,"13":-0.07469608579155082,"14":-0.09280596223860901,"15":0.0007509443120564134,"16":-0.10315505105704105,"17":0.03583117741341416,"18":-0.0024025727444968495,"19":0.13928408659305516,"20":-0.056051988255790976,"21":0.05537802157911944,"22":-0.08332384431018598,"23":0.04057736982347135,"24":0.07585813854965522,"25":-0.0070411838336840475,"26":-0.0019001976239495333,"27":-0.017989765716374395,"28":0.056662275779124395,"29":-0.0587544828012182,"30":-0.03127068928140308,"31":0.059469712909084205,"32":0.02574692253393457,"33":0.04498298636310122,"34":0.020234995942643243,"35":-0.04617317830371677,"36":0.044092801568927795,"37":0.051743815771508356,"38":-0.02141856648006202,"39":-0.028706905506448492,"40":0.0470092738986447,"41":-0.03799524063935988,"42":0.1044391718917807,"43":-0.08405186736515428,"44":0.03348765144484783,"45":-0.013720908128021547,"46":-0.008460924564108937,"47":-0.0023516883556481097,"48":0.024907416216870298,"49":-0.06695981168625913,"50":0.01647563103188881,"51":-0.046504867945893084,"52":-0.11387430762202846,"53":-0.015045072468036907,"54":0.05402578043615046,"55":-0.0027163641571701764,"56":0.08209766872415983,"57":0.13081228183764493,"58":0.03226324915322912,"59":0.01453245064024208,"60":0.17382848235249454,"61":-0.09620285121895368,"62":-0.02036796506143636,"63":-0.04986212788910013,"64":0.0019778057269712063,"65":0.010815328946197574,"66":0.031881005983114205,"67":0.07576834735787329,"68":0.06648100464846865,"69":-0.07007464758587707,"70":-0.05330534349462541,"71":0.013329161099154264,"72":0.005743877778307646,"73":-0.054883024589009725,"74":0.14034928208659034,"75":-0.0014347976979270977,"76":0.118068242184499,"77":0.08644081003898528,"78":-0.00969623413283993,"79":0.007663891597917125,"80":0.010059795237014979,"81":-0.06147202386202416,"82":0.07449486696425293,"83":0.010824316064176274,"84":-0.07947504751111695,"85":-0.10049453320821569,"86":-0.03132098402683647,"87":0.05451748541808125,"88":-0.17281662611097798,"89":0.12985874549626436,"90":-0.01797593338045429,"91":-0.012444552434090338,"92":0.04461529571063601,"93":0.043788642976755415,"94":0.03408754638007653,"95":0.03836541032632132,"96":0.04430281783705778,"97":-0.016823879476372032,"98":-0.028228719547913297,"99":0.1304844298941854,"100":-0.06525772574929532,"101":-0.09008121379700829,"102":-0.04932623051586414,"103":-0.05093208237905143}},{"sx":1,"sy":1,"depth":104,"w":{"0":0.042635610716474454,"1":0.09693084238317135,"2":-0.0010796367804366432,"3":-0.02800787428846559,"4":0.036939683168801536,"5":0.09118109621210418,"6":0.026118154970855758,"7":-0.023359929182134028,"8":0.009291336991514586,"9":0.09258004502349539,"10":0.011731644501699013,"11":-0.017929031674334076,"12":-0.029199656834378734,"13":0.0805350360141649,"14":-0.058522300427121386,"15":0.011142264112976098,"16":-0.10356230719700481,"17":0.0825996396091299,"18":0.08139602490560627,"19":-0.0034949252970336987,"20":0.010129768825476582,"21":-0.08148328025178794,"22":-0.01647738276182277,"23":-0.015217328159618237,"24":-0.061072761163589104,"25":-0.16793912571986852,"26":-0.042211802521013905,"27":-0.017709041870699486,"28":-0.060390800603337576,"29":-0.011119165741126091,"30":0.010322376531515536,"31":0.006320679471776699,"32":0.023211958040054385,"33":0.057651571006485706,"34":0.010167333106532239,"35":0.023954320460907536,"36":-0.06839204897901077,"37":-0.025373757215220467,"38":0.004857251596506381,"39":0.028072420339120847,"40":-0.0028318717118233842,"41":-0.07791625501851214,"42":0.09566336773836784,"43":-0.03915498566315399,"44":-0.043285176303023344,"45":-0.02883405272712736,"46":0.1695898556093536,"47":-0.003729846455268407,"48":-0.0019217115043937546,"49":0.04795910991617263,"50":-0.014069344524257133,"51":0.07036756973532027,"52":-0.02513534125832421,"53":0.12357876198030437,"54":0.0568328039452769,"55":-0.05130466407649612,"56":-0.0005362310654998,"57":0.06639088594333525,"58":0.039404245145301345,"59":0.08484737924765381,"60":-0.13523121453786807,"61":-0.043085897107324266,"62":-0.01507579412151097,"63":0.034402728723611,"64":0.048098378877191414,"65":0.044731067081034664,"66":0.05877685903537474,"67":-0.05135181256737316,"68":0.06441922441415038,"69":-0.04596159879401467,"70":-0.03313796896001859,"71":-0.0006271111825147183,"72":0.006632812259988229,"73":-0.11555728843067775,"74":0.015294786768094811,"75":0.030966650265423334,"76":0.029172319105737036,"77":-0.1598257769596011,"78":0.016578454496673948,"79":0.04255295307432835,"80":-0.014830278575442188,"81":0.11125183664415023,"82":-0.039447941333144866,"83":-0.055141771016840174,"84":0.04558999470563463,"85":0.07528170138931473,"86":0.02427099660827114,"87":0.10958721215319947,"88":-0.03013258896479004,"89":0.07237602841377949,"90":-0.06571210627685586,"91":0.04559905170651579,"92":0.06668702033893928,"93":0.05493669990134838,"94":-0.013596165819317146,"95":0.07432262550440391,"96":0.08665781069207057,"97":0.14780744956622147,"98":-0.06941215998179495,"99":-0.031282421243514644,"100":-0.04274263182417474,"101":0.006114775911327662,"102":-0.034462639344829876,"103":-0.05996261343654427}},{"sx":1,"sy":1,"depth":104,"w":{"0":-0.030193578369146684,"1":-0.041710514519255316,"2":-0.06621029587701792,"3":-0.08678577820726018,"4":0.02530500747850137,"5":-0.10363918583088629,"6":0.038484604353251954,"7":0.05080142771988847,"8":-0.05274193773505559,"9":-0.07389513946755011,"10":0.052019862797338966,"11":-0.10273557633736112,"12":-0.03358955257459114,"13":0.07936327482644238,"14":0.03778053478122682,"15":-0.06875293903221619,"16":-0.08826635811502113,"17":-0.012922191715544689,"18":0.04075170806125725,"19":-0.05173299343004027,"20":0.015607584621067722,"21":0.0396435624700245,"22":-0.04233462240253481,"23":-0.09883162042082466,"24":-0.032831040978780104,"25":-0.07489297773764858,"26":-0.05163504013658478,"27":-0.07186382982731714,"28":-0.017052536792945064,"29":0.034677378157126106,"30":-0.045435363162819584,"31":-0.07821864546331032,"32":0.15684739240194914,"33":0.02976979411511281,"34":0.21928729756799395,"35":-0.07159667516891671,"36":-0.06836234140032893,"37":0.1711774853402712,"38":0.0074321080179286505,"39":0.044391352640451576,"40":0.1034283421483918,"41":0.12160262636655914,"42":-0.09373004016142748,"43":0.11456407535616656,"44":-0.027989854271090887,"45":-0.055862934145740846,"46":-0.05834206010175403,"47":-0.03848460278733292,"48":-0.14806935610865238,"49":0.06828200252223568,"50":0.046635224422819324,"51":-0.02110582320390345,"52":0.013961745703747867,"53":-0.013955235024436689,"54":0.07503555523571208,"55":0.029580824752188165,"56":-0.09041324842325572,"57":-0.0664603268812325,"58":0.1312340817806417,"59":0.03202391768464235,"60":-0.06456318729075745,"61":-0.017732671814346655,"62":0.032280085855125644,"63":0.033757433365920936,"64":0.005940325233092255,"65":-0.007605617236149628,"66":-0.05494181131216627,"67":-0.1291189240255975,"68":0.043437738757007203,"69":-0.005851794057934889,"70":-0.08126144163403005,"71":-0.11383013951679681,"72":-0.060161816880815046,"73":-0.007958426410378711,"74":0.04843786580756896,"75":-0.07253782462650758,"76":-0.02145262744198771,"77":-0.07096370728430117,"78":-0.00787036167189994,"79":-0.10378004258842137,"80":0.004745643661294855,"81":-0.04875272153069936,"82":0.08175504816750849,"83":0.024426155290131923,"84":0.0027924758663017274,"85":0.0059890902950058235,"86":0.08231009732302744,"87":0.14839885658046145,"88":0.03346059166798168,"89":0.06972987509139607,"90":-0.009378090892560748,"91":0.06831393391723657,"92":0.07662478991773945,"93":-0.027055084039755914,"94":0.01674730040550541,"95":-0.06514845149855994,"96":0.012217262287383792,"97":-0.028501850307382406,"98":0.03177203004340569,"99":0.09295276602492315,"100":0.012171868268913626,"101":-0.010065379715843386,"102":0.01853996208379016,"103":-0.046866760917483194}},{"sx":1,"sy":1,"depth":104,"w":{"0":-0.023316935239252618,"1":-0.011402412475301197,"2":-0.07881800386515066,"3":0.0027935620528289767,"4":0.007634435704447967,"5":0.09248617808188737,"6":0.04553325863388943,"7":-0.021871411948080302,"8":0.021838200994373173,"9":-0.021499194624775998,"10":-0.07483256781868355,"11":0.128668746564009,"12":0.01133504762236634,"13":-0.1488765207801629,"14":-0.11148957977364904,"15":0.08481149123315128,"16":-0.0029028301251607415,"17":-0.04068175099192517,"18":-0.02521985612436762,"19":0.021522380343437682,"20":0.006598429249247511,"21":-0.06509816747056622,"22":-0.030683641657892,"23":-0.0527935000468731,"24":-0.05548299857650953,"25":0.03455858148159939,"26":-0.006020020168494719,"27":0.03972462175060919,"28":0.0366702634138755,"29":0.0070622904636948505,"30":0.07742206912931641,"31":0.03704323515075557,"32":0.054419525591456686,"33":0.06439109510859833,"34":0.061862582928215545,"35":0.06603545369545716,"36":-0.1341383659569224,"37":-0.05159355253023918,"38":0.06494736095796508,"39":0.044867748032541496,"40":-0.031844918936732636,"41":-0.058828662693533824,"42":0.029548448591940557,"43":0.04473870254282854,"44":0.0401662957276887,"45":0.024479507554274266,"46":-0.09281040171675417,"47":0.15036872362677292,"48":-0.1072346731964144,"49":0.08528033869040211,"50":-0.05064308427936971,"51":-0.008679746618955484,"52":0.003694514497774606,"53":0.1094211212789342,"54":-0.028249262772425506,"55":0.03341871259160658,"56":0.0800839724953751,"57":0.029426936672073228,"58":-0.09396620748720573,"59":0.05114677053296878,"60":0.05020959720721474,"61":-0.026327219188786267,"62":0.0654229891567136,"63":0.03658186674510315,"64":-0.011699535620881003,"65":-0.029675709970698457,"66":-0.033950794541825334,"67":0.03484187516193499,"68":0.013218116250884662,"69":0.0009912900873012289,"70":-0.010106359753313707,"71":-0.08240559150110748,"72":-0.10678593839486344,"73":-0.13027988555345887,"74":-0.0762729993503195,"75":0.04111411827525604,"76":0.006369543596543192,"77":0.07092814483756973,"78":0.022290975042141854,"79":0.060096917755004836,"80":0.10380009208730494,"81":0.00760496115843013,"82":0.024843521151869302,"83":-0.024823333494897983,"84":0.020319934543658116,"85":-0.05070600229091083,"86":-0.08164131290939476,"87":0.03561467758223876,"88":0.11074932401955483,"89":-0.05680402674600079,"90":0.0440422940178952,"91":-0.07602143670945716,"92":-0.013341948997579157,"93":-0.03517197741512401,"94":0.001211186750591681,"95":0.051156272972302554,"96":-0.025324109695943023,"97":0.03554599434356683,"98":-0.05882809371994869,"99":0.06574398385157448,"100":-0.010464542956463695,"101":0.011949608661433691,"102":0.032239301653099,"103":-0.03854394171064134}},{"sx":1,"sy":1,"depth":104,"w":{"0":-0.13028020754765665,"1":0.01753240363136958,"2":-0.02463263829896847,"3":0.04727182891095578,"4":0.1618336068648464,"5":-0.06109452105641283,"6":-0.0010525102604464272,"7":-0.018531956691936993,"8":0.05162899457298425,"9":0.027152772428764883,"10":-0.03838613147750008,"11":-0.0033955690550696253,"12":0.060283731198509084,"13":0.18934169597890937,"14":0.08220106776017935,"15":-0.03984768990333352,"16":-0.10735121021248914,"17":-0.027123001637009193,"18":0.11341958700241736,"19":0.01942496711029034,"20":-0.015227215438088066,"21":-0.003730623383463088,"22":0.039433968184254944,"23":-0.03609203081204506,"24":-0.014619052146990696,"25":0.024585085448334775,"26":0.01078627596830565,"27":-0.01989735363063697,"28":-0.036147094930365394,"29":-0.0004426696143496589,"30":0.07145692866857017,"31":0.11082825848677955,"32":-0.10835692871670527,"33":-0.015630956892408364,"34":0.06323580231925442,"35":-0.07929388762386777,"36":0.06345152745923245,"37":-0.1643915863012042,"38":-0.1398345375427216,"39":-0.07185668274475689,"40":-0.09726473408651373,"41":-0.002677906762845023,"42":0.027654418417368945,"43":0.019497408755095643,"44":-0.05981982854429809,"45":-0.0047191089437752555,"46":0.1475193139616444,"47":0.11311389672336167,"48":-0.06132081577541804,"49":0.06709501028109902,"50":-0.009460315430915646,"51":0.03940885846980437,"52":-0.028158110596801122,"53":0.032545490604127356,"54":0.10129437080299782,"55":-0.07887704055290787,"56":-0.15889909687820503,"57":0.037225202067490866,"58":0.06691665561808567,"59":-0.15633197119523629,"60":-0.07788903658361683,"61":-0.0026307280917550317,"62":0.04005203774976964,"63":0.12709772299151573,"64":0.04907114425244602,"65":0.02734190235533475,"66":-0.11334479027064376,"67":-0.004513054826578338,"68":0.15848986895297482,"69":-0.015818437335509666,"70":-0.1192896346822921,"71":-0.062273333203099475,"72":-0.043086302319478575,"73":0.00720136231140611,"74":0.006427705063620053,"75":-0.11181384711668706,"76":0.010943325957343257,"77":-0.061352452941194596,"78":-0.016381860955646685,"79":0.11433025492335008,"80":0.021329862526651505,"81":0.0613907617556805,"82":0.03342941945736968,"83":-0.08072928273893841,"84":0.007199860819421684,"85":-0.10314454254844703,"86":-0.05671195665342477,"87":0.008203897050491536,"88":0.06488060428325731,"89":-0.06605677595634023,"90":-0.023871937257287718,"91":-0.07969898380469582,"92":-0.09964262156072767,"93":0.006799998392698834,"94":0.057720904759153084,"95":-0.0881186986850465,"96":0.14146460267909336,"97":-0.033618444529418576,"98":-0.04437900479449147,"99":0.03900640169322867,"100":-0.004483022860641852,"101":0.003761868271187808,"102":0.009368925875016566,"103":-0.00432589103007098}},{"sx":1,"sy":1,"depth":104,"w":{"0":0.15329952050412782,"1":-0.04773453301603446,"2":0.04912577033369762,"3":-0.013115771041951836,"4":0.021820630054580577,"5":0.04489966077746064,"6":0.04315348632246132,"7":-0.08045436466162681,"8":-0.08858859369905048,"9":-0.027688035028418045,"10":-0.025039930093556845,"11":-0.031322724671440316,"12":-0.024646028388965034,"13":-0.18976129661046182,"14":-0.16624699961308054,"15":0.05629830498750271,"16":-0.024397186140353872,"17":0.014956151161728886,"18":-0.1529510716062095,"19":-0.0018989936341164625,"20":0.026563298378824898,"21":0.15465732030961613,"22":0.007687902933057795,"23":-0.04163565200346539,"24":0.11960439776527843,"25":0.021204113903108036,"26":-0.13347279508631435,"27":0.16789780906132476,"28":0.11491149728952872,"29":0.062100061879869946,"30":0.1954188919442997,"31":0.02933307162033508,"32":-0.05188713210272032,"33":-0.03069578330022775,"34":-0.010896676470223476,"35":-0.057446753166912376,"36":-0.08106424078984782,"37":-0.12988176011897604,"38":-0.07866941467430733,"39":-0.13527867581480094,"40":0.018730615142815023,"41":-0.11560842257454525,"42":-0.0005047350123649064,"43":0.04726596510539945,"44":-0.03255160894234033,"45":-0.02754454307579755,"46":-0.04419978951742015,"47":0.07315262857861116,"48":0.07913714543660838,"49":0.05218172147720513,"50":-0.06467289590437386,"51":0.1892266498854949,"52":-0.17318288543496846,"53":-0.013122540830036679,"54":0.1040746414559606,"55":0.064638042524126,"56":0.023895417330733883,"57":-0.18620682942110936,"58":-0.08608390126488685,"59":-0.07062967711754072,"60":-0.05743946208060602,"61":0.016971291618412106,"62":-0.0497403712589443,"63":-0.05628467827628524,"64":0.060816055488479195,"65":0.04085663640160588,"66":-0.0662972715467451,"67":-0.10930916307945755,"68":-0.1316273223763259,"69":-0.001824791182752505,"70":0.1481348789742568,"71":0.07848034981362789,"72":0.02260460143686033,"73":-0.1380356405980108,"74":-0.005586879610669538,"75":-0.09424960296990993,"76":-0.08926003365876435,"77":0.021006878013230493,"78":-0.017801645854364227,"79":0.10551911148134561,"80":0.1346698151237618,"81":-0.09746486331883648,"82":-0.1006353589276102,"83":-0.06164880017655059,"84":0.026907453102932143,"85":-0.0415284977458755,"86":-0.08953126701440192,"87":-0.09692090128133245,"88":0.025208852075887637,"89":0.0006203447266223924,"90":0.02388987088396514,"91":-0.06351360999083996,"92":-0.1183526142511903,"93":-0.11630088488971224,"94":-0.017034423030971965,"95":-0.0729201890789254,"96":-0.08424372619414242,"97":0.03288204237221548,"98":-0.014972260149890834,"99":0.02749675780670115,"100":0.013235470111409972,"101":-0.006163847516924914,"102":0.013467775425916043,"103":-0.043185678189723936}},{"sx":1,"sy":1,"depth":104,"w":{"0":-0.0520868242747556,"1":0.011295219353794326,"2":0.0577104479978966,"3":0.044941733997969344,"4":-0.05512111694445725,"5":-0.03491792912302969,"6":-0.01633778410275936,"7":-0.12833952881537436,"8":0.09209912631621939,"9":-0.04292999490817131,"10":-0.043731473809859034,"11":-0.002384787752837478,"12":-0.008920804863752215,"13":-0.16775837214831268,"14":-0.1447695795182153,"15":-0.09317161733813273,"16":0.023720802639531514,"17":0.04055067657539718,"18":-0.027452465291113247,"19":-0.2136784414113827,"20":-0.009453645882783716,"21":-0.014738609668816495,"22":-0.05446194704941452,"23":0.015852333391509075,"24":0.060933119242086074,"25":0.021522135966881937,"26":-0.005755946433920501,"27":-0.024004704520556575,"28":0.060840476786251416,"29":0.020678863108449047,"30":0.014666034102287256,"31":-0.07107027323986004,"32":0.02101806386453857,"33":0.08686266026381519,"34":0.07334396993018555,"35":-0.03715571188121729,"36":-0.008194751984234057,"37":-0.024325747153567275,"38":-0.25650958343423597,"39":-0.011015012854734873,"40":-0.05482750035231546,"41":0.04223012046432654,"42":-0.019571118484389718,"43":-0.007451750491975674,"44":0.0458401453856198,"45":0.03046921480771173,"46":0.04941419693776794,"47":-0.022584808346523925,"48":0.054425726107014835,"49":-0.07218343947639799,"50":-0.050665912221683165,"51":0.13555924247962717,"52":-0.09847270970332658,"53":0.008335757889819176,"54":-0.062188450789639846,"55":0.03873300186666621,"56":0.026080256671424332,"57":-0.004002286126617244,"58":-0.018319762008489036,"59":0.051346101998588814,"60":-0.11229696567043014,"61":0.08163334892501688,"62":-0.13569549015039953,"63":0.09996327176214118,"64":0.01571998766835474,"65":0.03070954846014489,"66":0.0886974709827076,"67":0.052235178494396566,"68":-0.015906422011323564,"69":0.08633842557998848,"70":0.07433915107742317,"71":-0.023615133018539382,"72":0.0464913273657041,"73":0.07066230027169144,"74":-0.04250215905849209,"75":-0.005126297561899497,"76":-0.1019714661067201,"77":0.09700835904067513,"78":0.014498006145110001,"79":-0.10544141276662784,"80":-0.005555085669018762,"81":0.06848492485680176,"82":-0.019009260538363073,"83":-0.004110464503581689,"84":0.021378339535550853,"85":-0.028150951964193996,"86":-0.07446773050074881,"87":0.0018830984722709727,"88":-0.024018494256742996,"89":-0.03892964095670099,"90":-0.01773045821484637,"91":0.047615531301690904,"92":0.05712325474708202,"93":0.044295569542659716,"94":0.03246140463868855,"95":0.06131329047031196,"96":0.023053170103916748,"97":-0.013443559893379418,"98":-0.08136380293872529,"99":-0.09530624975533221,"100":0.005905861179764927,"101":-0.040625019866445344,"102":-0.10141726318392388,"103":-0.01287614671732261}},{"sx":1,"sy":1,"depth":104,"w":{"0":-0.10288304881078672,"1":0.1145769764783459,"2":-0.11311388897234138,"3":0.13182230427817299,"4":-0.04547178692515033,"5":0.0335777205118935,"6":0.040955646595046975,"7":-0.044128378437956146,"8":0.09901280562988314,"9":-0.09994658261081124,"10":-0.03876146724725714,"11":0.009489328722153544,"12":0.07790957747386902,"13":-0.001239255215652968,"14":-0.18917560225530058,"15":0.17465100964306504,"16":-0.030539155438486912,"17":0.2171689977219514,"18":0.052842668747678685,"19":-0.1302892102490365,"20":0.06458094312997212,"21":0.0012804349908393277,"22":-0.11229823401459153,"23":0.028520861416948436,"24":-0.1398759739395325,"25":-0.019581625957635736,"26":0.10993331208912603,"27":0.019940107363100354,"28":0.08431463736297876,"29":-0.05213415763199645,"30":0.019031814944739683,"31":-0.10741828591618244,"32":-0.10944516418025321,"33":-0.0023102316444123224,"34":-0.03454428541148061,"35":-0.026400469483683423,"36":0.008039748894473262,"37":-0.27181072602278106,"38":-0.33071835719984555,"39":0.13958900414875205,"40":0.009696502751559276,"41":-0.012080709651455255,"42":0.04888661039614992,"43":0.15297256101664497,"44":0.03161353823532941,"45":0.11547095051751517,"46":0.12813412675742467,"47":-0.04736599029308732,"48":0.053006793370813585,"49":0.04927881193895126,"50":0.0898094115307142,"51":0.0358865775515908,"52":-0.024051220582573047,"53":0.09091970352893851,"54":0.11078620026172291,"55":-0.12636574445927523,"56":0.05581748712526088,"57":-0.08893462002389099,"58":0.08385728730926478,"59":-0.13187157877165187,"60":0.10316675864423325,"61":0.04487802328030448,"62":-0.05263811120741901,"63":-0.08585651507398774,"64":0.08684434592110107,"65":0.08257083670342563,"66":0.055033188401854255,"67":-0.1615062328135471,"68":0.1201406069745232,"69":-0.006049902296724152,"70":0.0497262679750147,"71":0.12676403696389926,"72":0.023406917068081838,"73":-0.07354856931562044,"74":0.025055221641989648,"75":0.15569354313992587,"76":0.017961314072422473,"77":-0.06310224802199445,"78":0.030618336766254032,"79":0.053887671778357356,"80":0.0028284566293728737,"81":0.08236876724912386,"82":-0.08558513284368129,"83":-0.024717495404641965,"84":0.007479396266907997,"85":0.0553087856366881,"86":-0.02514495272436929,"87":-0.0692840216994433,"88":-0.07632850944555337,"89":-0.04437625485718121,"90":0.1156058571863356,"91":-0.06022290102304874,"92":-0.012132653316366072,"93":0.02439171940009143,"94":-0.06715441051308928,"95":0.057324986167407666,"96":-0.0065366902925164064,"97":0.04096423620168935,"98":0.06678300639668776,"99":-0.07830126554532839,"100":0.013590374709006973,"101":0.0009155901522343277,"102":0.013446719270486518,"103":-0.027114027942568276}},{"sx":1,"sy":1,"depth":104,"w":{"0":-0.07153240672306845,"1":-0.08608539697765553,"2":-0.042054773012902086,"3":0.02566311176189229,"4":0.03302116280399821,"5":-0.1118797868909884,"6":-0.02842571750207961,"7":-0.008582616738129517,"8":0.0963515661987279,"9":-0.05926338297385423,"10":-0.09220875371925054,"11":-0.14722763536817107,"12":0.012991776329265256,"13":0.08868817943218883,"14":0.05852431752635069,"15":-0.08833470070984073,"16":0.024805776649563994,"17":0.10762338424193954,"18":0.1456304670656375,"19":-0.0620675056369626,"20":-0.17174192931875254,"21":-0.16053598196151342,"22":0.13291087645525604,"23":0.14739415102928274,"24":0.05654233495209829,"25":0.11939547252165647,"26":0.1158676152210967,"27":-0.036668190867001633,"28":-0.29001818853181427,"29":0.0329541882666145,"30":0.10584261111829668,"31":0.03317636533480204,"32":-0.10396894251338178,"33":-0.1722196651609621,"34":-0.025847438686814758,"35":0.18349642058798948,"36":-0.005006741240170189,"37":-0.10077653065992276,"38":-0.006018795523233795,"39":0.1816339000647757,"40":0.01691009852631031,"41":0.08184698324912505,"42":-0.13941247270220597,"43":0.033115584166352845,"44":0.006785952709193641,"45":0.06914422194806068,"46":0.05527442964012914,"47":-0.013110395771233985,"48":-0.060039196897236614,"49":0.03802545906073832,"50":-0.08921400865184306,"51":-0.011239419233785148,"52":0.07786482275201789,"53":0.035863480637709486,"54":-0.04704839867235324,"55":-0.041448572502237796,"56":0.003688113099223673,"57":0.1656481773763876,"58":0.09271859570238848,"59":-0.003786509373655657,"60":-0.04827346708976821,"61":-0.0009338710110715587,"62":-0.013338652730381583,"63":-0.009755867621941087,"64":0.009331814944333824,"65":-0.061335208247094174,"66":-0.16002842612067453,"67":0.08433583818132318,"68":-0.005429514473112117,"69":-0.1060100595827824,"70":0.05366200626367795,"71":-0.10877023081010492,"72":0.044677108871280374,"73":0.117499813338049,"74":-0.07808706677505936,"75":0.11970134303995764,"76":0.02389839861671191,"77":-0.06820365316689304,"78":-0.04237219894525258,"79":0.03282339204918068,"80":0.022435889182996056,"81":0.058085579625311204,"82":-0.02476394944940254,"83":-0.08318619801102815,"84":-0.028959839719092804,"85":-0.009065763734854418,"86":-0.026445555523551562,"87":0.07455980092394299,"88":0.01722979139579684,"89":0.09254711013194039,"90":-0.029148628547157936,"91":-0.027245064865035543,"92":0.030783481629584192,"93":-0.02372403522825725,"94":-0.002461728077016271,"95":0.13552568517042476,"96":0.07836538571205677,"97":-0.07393443553909868,"98":0.03151133072470725,"99":0.013196093584124647,"100":-0.03902481801339546,"101":-0.004396093130647549,"102":0.008386049647194688,"103":-0.0002724782646826551}},{"sx":1,"sy":1,"depth":104,"w":{"0":0.10196713132239413,"1":0.06490886775084369,"2":-0.07536552653120904,"3":-0.002782273146205705,"4":0.032926935198986776,"5":-0.10162010011023064,"6":-0.10717728537739338,"7":0.055414236875716845,"8":-0.06823964077690758,"9":0.1212631641897477,"10":0.05589996413254708,"11":-0.06708760424110594,"12":-0.07473603478510894,"13":-0.06699245365106023,"14":-0.010385269256679305,"15":0.06562908717960496,"16":0.061429692988426036,"17":0.01691102179061672,"18":0.08851137995750019,"19":-0.017925967253515238,"20":-0.005025134190166042,"21":0.02466235818072134,"22":0.05251755895328074,"23":-0.09193007602078089,"24":0.06357637817808258,"25":-0.03930025315070605,"26":-0.07410369963311553,"27":-0.2096115933301944,"28":0.010849985572298528,"29":0.033521364094700905,"30":0.014935172030117124,"31":-0.030852449907532352,"32":-0.058070585566042734,"33":-0.10155487211293102,"34":-0.0954953978471764,"35":0.03142073063133303,"36":-0.03743154099078837,"37":0.03182071225248144,"38":0.1520158030138232,"39":0.16653093485359322,"40":0.1007152662922331,"41":0.10451977746004729,"42":-0.14190186626365303,"43":0.13127427107241474,"44":0.04397902334734325,"45":-0.07765779439417568,"46":-0.2702859216611553,"47":-0.014555859797684092,"48":0.09532254207728404,"49":0.00819657098778023,"50":-0.011830659289232588,"51":0.0774217987367449,"52":0.07908876065745912,"53":-0.052483393119115845,"54":0.046030115982467736,"55":-0.05915633754454292,"56":-0.019933626334480318,"57":-0.00877396877416141,"58":0.04581165044859631,"59":0.04041016047583987,"60":0.07738287693675241,"61":0.04580996007594802,"62":-0.09763848955520785,"63":-0.11889155474365336,"64":0.10852894919360921,"65":0.014975887889735091,"66":-0.08237975489717321,"67":-0.039631431232012675,"68":-0.07571401603521802,"69":0.10673887457843632,"70":0.09835901364909742,"71":-0.04685249321237577,"72":0.07032655655098755,"73":0.02902302553937955,"74":0.04227033847586642,"75":0.05527918847002404,"76":-0.12524851102217094,"77":-0.03715607140667623,"78":-0.10609572154866825,"79":0.02729586826350383,"80":0.03711996149335103,"81":0.05569483632874001,"82":-0.10992186581568522,"83":-0.005272366774891088,"84":0.0073838666292132555,"85":-0.02258864262204482,"86":0.013605871119996636,"87":-0.00030326404840550554,"88":0.08992056979092997,"89":0.08410870390404598,"90":-0.06145223662424562,"91":0.0005397992075069144,"92":0.038616057800506774,"93":-0.035010945369857806,"94":0.005416405205446677,"95":0.09629415308852442,"96":-0.056681535133478796,"97":-0.08684974492949829,"98":0.0714503367179273,"99":-0.1074629478364216,"100":-0.010032864396628118,"101":0.006406741043222501,"102":0.009494768974654158,"103":0.011234654035393716}},{"sx":1,"sy":1,"depth":104,"w":{"0":0.05175549324238917,"1":0.031915330086898876,"2":0.07000829532165485,"3":0.010473949282685087,"4":0.03406555081631192,"5":-0.10180533890770924,"6":0.0641118470929561,"7":0.025353213676659804,"8":-0.05568320121498204,"9":-0.005068717361775839,"10":0.031139371044009698,"11":0.0757022365699324,"12":-0.0523527179495628,"13":-0.03506544404013804,"14":-0.05512722921883941,"15":0.10025754367395552,"16":0.02947166669115963,"17":0.18680950345259753,"18":0.006546742019563001,"19":-0.15375046609104004,"20":-0.11889509657093766,"21":-0.07562432241007745,"22":-0.00180481002574963,"23":-0.09218237312015246,"24":0.03294322433178111,"25":0.01988192795985911,"26":0.02020098614886342,"27":-0.03132134431669889,"28":0.004373241271723706,"29":-0.06846142514433601,"30":0.03922657105277241,"31":-0.06790801160510551,"32":-0.025006721592853557,"33":0.014771809918799582,"34":-0.003611243507316202,"35":-0.12540225755998127,"36":0.010220262603248046,"37":-0.011503103703736058,"38":-0.18914170145427647,"39":-0.09967496048048405,"40":0.10897920310514014,"41":0.12104172293686016,"42":0.07307913157301085,"43":-0.014675207452256506,"44":0.035204772740282754,"45":0.1389925603127655,"46":0.06042420513136584,"47":0.020512984268574334,"48":-0.053794626426011495,"49":-0.1170729730911171,"50":-0.003970991870347585,"51":0.08853091151526903,"52":0.08298384372795849,"53":-0.11570856158357656,"54":-0.07119823109112268,"55":0.06292933065727728,"56":0.060735216259792245,"57":0.06351703823701903,"58":-0.0808900391125099,"59":0.04798009587858555,"60":0.01830703400892615,"61":-0.03095513116618963,"62":0.04015781910240252,"63":0.004164810020192018,"64":0.06326229428818265,"65":0.047324323832589686,"66":0.07390594963760813,"67":-0.0442763661728975,"68":0.022157916845510526,"69":-0.0701268443340963,"70":-0.016350949206496053,"71":0.04379008048132422,"72":0.04911613990965171,"73":-0.1125028372563009,"74":-0.03815364905716543,"75":-0.07317264056713255,"76":-0.003367078187378534,"77":-0.007051126922338982,"78":-0.05886038844041973,"79":0.0019545100413686715,"80":-0.005228615063524277,"81":0.05265286054764763,"82":-0.06999477325885248,"83":0.029330490266087233,"84":-0.031553873201063794,"85":-0.010118723911430096,"86":-0.013629977050674435,"87":-0.040109606654258445,"88":0.008237951272606715,"89":-0.03646485448329292,"90":-0.03950006115279578,"91":0.10645993508492324,"92":-0.033661883907737424,"93":-0.026879315537648128,"94":-0.013050160854993954,"95":-0.010011281088278035,"96":0.07604077506658395,"97":0.10089761464140358,"98":-0.008210488925477996,"99":-0.003786421199500399,"100":-0.036495720727100965,"101":-0.00030927266633139363,"102":0.005198601199774939,"103":0.004772343547110987}},{"sx":1,"sy":1,"depth":104,"w":{"0":0.0030508507102427226,"1":-0.09633107308097248,"2":-0.05445328431743511,"3":0.0619500203250309,"4":-0.12674575658142603,"5":0.11393232724387772,"6":-0.07156956983382656,"7":-0.0008826288077228544,"8":0.04978810647034835,"9":-0.028042815476794637,"10":0.025937466832699718,"11":0.004185275515327317,"12":-0.015877333729162234,"13":0.07882761104619346,"14":0.03297387730988228,"15":0.1266528835798588,"16":0.06793568231278078,"17":0.08571851616584653,"18":0.04749824208383484,"19":-0.052696527552190946,"20":0.14587639067308034,"21":0.11503676261132556,"22":0.02101711146384595,"23":-0.013725176928651156,"24":-0.12268729661445764,"25":0.16703481001042123,"26":0.07592763193715181,"27":0.10125537980111327,"28":-0.06704753713364633,"29":-0.06280263135507488,"30":0.003532739002927051,"31":0.023929073172486957,"32":0.06925417603216892,"33":-0.10567645444380933,"34":-0.12527993912420687,"35":-0.025338068130635518,"36":0.00106695034089205,"37":-0.10361005979930989,"38":-0.02710083234960953,"39":-0.10190044471521306,"40":0.06817809853948043,"41":-0.010433748228592485,"42":-0.00668760674814351,"43":0.111518454461204,"44":-0.15097359090461507,"45":0.11000871602514745,"46":0.19485701368185532,"47":0.020841407587982697,"48":-0.06739786255133251,"49":0.1970888767578473,"50":0.07270283562277634,"51":-0.14494316330128365,"52":0.01436947648317168,"53":-0.019269272533400345,"54":-0.033778986647135,"55":0.0011970553892230505,"56":0.007476640420876987,"57":-0.13975085018588485,"58":-0.004005687210875891,"59":0.03470930513315347,"60":-0.006789012886983959,"61":-0.1782053325954218,"62":-0.10523145100190442,"63":-0.004569352552622346,"64":-0.2484715569406087,"65":0.055602355337441324,"66":-0.018865540751624367,"67":0.03350002495961917,"68":0.09165129933914833,"69":-0.0271051870934185,"70":-0.015175076637309807,"71":0.05349201963991844,"72":0.008206029520145378,"73":0.05349928326886523,"74":0.15227245436401218,"75":0.04253845292144897,"76":0.052962609871368214,"77":0.016733044707417745,"78":0.06423051675177813,"79":0.002894031174060766,"80":0.03420820750481461,"81":0.0988267142093157,"82":0.1454771858151873,"83":-0.00996973500208486,"84":-0.08350270880330553,"85":-0.03339999496017724,"86":-0.1216386655861876,"87":-0.1214019753097454,